2708 128
0 0.12387141 0.019005138 -0.006662883 -0.03161772 0.22797713 -0.00039766292 -0.095213935 0.26345584 0.13274357 0.44416353 0.38349837 0.06256833 0.28718442 0.17396413 -0.62551856 -0.1501538 -0.7133891 -0.6832801 -0.05818299 0.5024687 -0.49747944 -0.02548055 -0.0033045092 -0.38677186 -0.12769325 -0.6311166 -0.3153451 -0.122017436 -0.40455413 -0.03400293 0.039703887 -0.16419545 0.011097843 0.29096678 0.057072148 0.79622227 -0.5410815 0.100066066 0.7636933 0.28787097 -0.2964025 0.123326935 0.41287208 -0.37721768 0.44221577 -0.35135219 -0.21309543 0.116861135 -0.019751707 0.03606742 0.40522778 0.017422816 -0.45735803 -0.27574816 0.15428136 0.07290276 0.28348327 0.27948672 0.43009105 0.15937375 0.38603884 -0.21795735 0.7960491 -0.0931576 0.061280888 -0.050067905 -0.05262089 0.38790277 0.15690944 -0.44503674 -0.10994016 -0.21494119 -0.6678122 0.035643708 -0.012902247 0.34435666 0.05264412 0.35460675 -0.21543516 0.4490431 0.28722957 -0.41655982 -0.29600722 -0.0041970364 -0.74910796 -0.3381747 0.41730285 -0.37140357 0.5833455 -0.35276547 0.13026102 -0.004655657 0.2123489 -0.18654923 0.4220102 0.46679434 -0.14296092 -0.5557062 0.21108232 0.08515202 0.057446837 0.02887014 -0.5134875 0.11722238 0.41342992 0.19567473 -0.6065487 -0.51822174 0.13630024 -0.18998908 0.4330971 -0.1014665 0.37789333 0.7594627 -0.03177256 0.4751849 -0.067162044 -0.16140637 -0.31506115 0.045569543 0.110393986 -0.85358703 0.18377715 0.1443035 0.851938 0.4233432 -0.5680447 0.04080466
633 0.10525978 0.07037864 -0.03509398 0.033562005 0.2655274 -0.019841256 -0.02083348 0.22795819 0.1414092 0.39506933 0.4594133 0.10021137 0.089968994 0.07776397 -0.2820148 -0.10169013 -0.49637002 -0.59140855 -0.16734573 0.49601597 -0.6358731 -0.056891065 -0.05247441 -0.39543763 -0.1571553 -0.57113737 -0.30615196 0.010453187 -0.29538852 -0.14089394 -0.04180243 -0.26023605 0.31606826 0.5184433 0.14826642 0.7420157 -0.5904822 0.15804917 0.79586464 0.10792212 -0.36653775 0.091941565 0.27806902 -0.34347868 0.4527961 -0.11484824 -0.16767693 0.06468493 0.016926832 -0.0812222 0.49122778 0.1394904 -0.3566647 -0.14506553 0.15763709 0.15271945 0.0876597 0.016727088 0.22128351 0.2442234 0.42036772 -0.19617057 0.6634943 -0.19093642 -0.025247298 0.066176616 -0.0423035 0.22068608 0.20820166 -0.39721468 0.09224085 -0.097134195 -0.42687693 0.07794894 -0.018719986 0.23253599 0.057582725 0.25224298 -0.37802687 0.47149792 0.4884763 -0.37690344 -0.086991385 0.09831109 -0.62095845 -0.29003268 0.20055446 -0.30826697 0.57259303 -0.3405695 0.20063621 -0.1677528 0.080993295 -0.15532511 0.35079485 0.6286378 -0.04879023 -0.6885084 0.07168802 -0.07317875 -0.24117066 -0.14425117 -0.4216858 0.122078106 0.45172146 0.17722696 -0.55904514 -0.72005457 0.15518364 -0.27622035 0.46069315 0.009124461 0.38598084 0.83630216 -0.18277796 0.3645715 -0.33429617 -0.04765077 -0.28064653 -0.0586929 0.08078575 -0.81096655 -0.07427727 0.05819268 0.9472153 0.26481938 -0.28533706 -0.11894272
1862 0.28703266 0.10483175 -0.018118668 -0.09879456 0.04076596 -0.14181621 0.2465299 -0.08159765 -0.038915426 0.30177116 0.6027885 0.31196296 -0.066843316 0.26177368 -0.37310642 -0.28270707 -0.685893 -0.64727956 -0.048784066 0.40215436 -0.5855982 0.024515735 0.09544012 -0.3319282 -0.15288563 -0.66798294 -0.23030624 0.07155521 -0.4440687 -0.06727074 0.09560644 -0.21419384 0.13328046 0.28035682 -0.079859346 0.7118989 -0.38632274 0.21272594 0.776563 0.31604603 -0.44410595 0.35109702 0.017627222 -0.39659816 0.5731517 -0.2165265 -0.16617791 0.09261684 0.1415335 -0.031737164 0.06793328 0.30348113 -0.19019483 -0.46871683 0.23091741 0.043106407 0.28953415 0.0072142417 0.42388597 0.3441222 0.47923353 -0.08533054 0.68547165 0.1559341 -0.022893626 -0.14149858 -0.0049710674 0.32285237 -0.24827756 -0.33849075 -0.15095268 -0.25188228 -0.44296616 0.1278644 -0.25206244 0.17415103 -0.07418589 0.26243073 -0.35088122 0.24234067 0.044284225 -0.23387459 -0.5190589 0.03415121 -0.5616645 -0.32772306 0.34193566 -0.42457238 0.62910175 -0.3783519 0.31210145 -0.0008147181 0.030172288 -0.08048218 0.30826145 0.15866487 -0.34209466 -0.4623062 0.33928505 0.1484006 0.08049146 -0.038161226 -0.542151 0.2639096 0.45359752 0.08899354 -0.43068507 -0.39348426 0.37307525 0.18983401 0.31353912 -0.20599008 0.03571679 0.73585534 0.07559684 0.44798574 0.0049209483 -0.05543276 -0.5843811 0.30786374 -0.09821975 -0.71331817 0.014203193 -0.1485243 0.651196 0.51784486 -0.57585275 0.07632089
2582 0.12490326 -0.33788776 0.22074679 -0.23013745 0.017575178 0.012870102 -0.094801396 0.10735684 0.2696078 0.29627204 0.8746747 0.06684915 0.39797693 0.23920424 -0.81556696 -0.18517205 -0.69417804 -0.6029539 0.07083421 0.5067951 -0.20420603 -0.031720668 0.1404896 -0.42775398 -0.19709504 -0.3519186 -0.35834804 -0.20178926 -0.39507586 0.29363602 0.18600693 -0.084590875 -0.0030200628 0.27457225 0.12017508 0.6913119 -0.5253128 0.3922364 0.59043056 0.34061655 -0.267951 0.14752294 0.0862309 -0.08395941 0.4999604 -0.15861343 -0.1725191 0.116270244 0.15683241 -0.110478446 0.4355219 0.047719486 -0.49787122 -0.60001045 0.23185813 0.078151375 0.38043782 0.13389638 0.6736544 0.2488405 0.37143952 -0.29471317 0.8830518 0.08935977 -0.039353337 -0.13394769 -0.15767415 0.55772454 0.089647315 -0.46910462 -0.1645184 -0.19428383 -0.66694653 -0.21735705 -0.029373834 0.38370535 -0.16590813 0.029249476 -0.3862549 0.56641257 0.001186739 -0.3969602 -0.27316657 -0.008639141 -0.7772757 -0.18072806 0.46924543 -0.5687903 0.46952766 -0.554869 0.24371183 -0.26356378 0.33946878 -0.07979263 0.35727447 0.19159076 0.054188907 -0.65421116 0.32604015 0.17815435 0.02881845 0.046787914 -0.311472 0.35592663 0.0071365065 0.26761267 -0.3510775 -0.28649265 0.19942741 -0.088353716 0.24797598 -0.04567119 0.2693095 0.7084408 -0.17908761 0.5358492 0.19811055 -0.20059435 -0.6819378 -0.045907706 0.00667531 -0.7653374 0.42104313 -0.2082546 1.0680369 0.34716016 -0.3955793 0.07234714
1 0.22074841 -0.2589127 0.47238445 0.009243922 0.007186225 0.22240648 0.3448129 -0.07898431 0.3287566 0.20935492 0.7007523 0.016276486 -0.03874921 -0.16519111 -0.460835 0.248288 -0.33379427 -0.45549637 0.31690374 0.8755577 0.08537652 0.33300054 0.5112891 -0.31272772 0.49928716 -0.09262179 -1.1421022 -0.13092136 -0.00023341495 0.32079524 0.40668127 -0.029022837 0.6031834 0.48826995 0.04349406 -0.062423926 0.0013347307 0.4671701 0.024828462 0.94908375 -0.45502606 -0.056126945 -0.10513665 -0.28616828 -0.3059878 0.13701078 0.26795396 0.010825291 -0.024577439 0.6350738 0.83067214 0.30306017 -0.26144657 -0.5504449 -0.6660804 -0.014853568 -0.1273896 0.66979253 0.004893419 0.0060296045 -0.10815381 -0.19612049 -0.34098157 0.25357738 0.5797539 0.39523745 -0.13964657 0.6167847 -0.344604 -0.1875481 -0.16517715 0.061181925 -0.71763355 0.02563697 -0.24766089 0.23971231 0.101776384 -0.20499137 0.069800414 -0.40837756 0.16306916 -0.16380717 -0.59872353 -0.098989375 0.05063941 0.30521506 0.59151286 -0.19990355 -0.19973187 -0.33890846 0.45255297 -0.33589798 0.29949954 -0.12951437 0.8901463 0.3129502 0.21774468 -0.13143662 -0.20307425 0.17771932 -0.35673898 -0.081302874 -0.550756 0.7321701 -0.012182877 -0.18960057 -0.48286808 0.6087915 0.25154892 0.030989267 0.33174998 -0.21800266 0.002370026 0.26094428 -0.19496971 -0.0936003 0.118599325 -0.7540486 0.4771438 -0.12793955 0.060159992 -0.20504661 0.16649623 0.26594055 0.87413526 0.40351182 -0.21627115 -0.17458233
2 0.23492332 -0.362192 0.5936689 0.15088628 -0.07106385 0.43365657 0.06223334 0.13528876 0.1837568 0.12731123 0.46335667 0.020256676 -0.060220182 -0.15264994 -0.37082246 0.48632282 -0.24187447 -0.32620215 0.17761752 1.0620351 -0.004309381 0.13877544 0.061017346 -0.35414487 0.35910496 -0.18248168 -0.7398385 -0.04636417 -0.11271567 0.36165628 0.46703708 -0.060257185 0.51001316 0.13888612 0.008547311 -0.3373154 0.1716792 0.49429485 0.4387153 0.6596283 -0.18971907 0.22524045 -0.21346349 -0.2535855 -0.07892835 -0.18080114 0.044125043 0.082080945 -0.035685882 0.13417709 0.6446002 0.18633078 -0.24230541 -0.105306365 -0.4341539 -0.0739868 -0.092833675 0.4037113 0.061502453 -0.14223838 0.18815023 -0.62548393 -0.18072891 0.16072524 0.39519906 -0.11884263 -0.4894123 0.45528212 -0.22423697 -0.2734336 -0.10822495 -0.031651653 -0.5515291 0.26276004 -0.5441227 0.3456676 0.040426403 -0.2383468 0.18288302 -0.42416435 0.102832034 -0.034261547 -0.18674874 -0.34475014 -0.26047105 0.2788769 0.37913707 -0.055860505 -0.17143261 -0.34204465 0.4376521 -0.5416457 0.14074579 -0.3542317 0.7331531 0.24491146 0.016006913 -0.10605735 -0.09102843 0.24641508 -0.15214658 -0.4021913 -0.39155543 0.59994346 0.16715173 -0.05377859 -0.27137667 0.34787825 0.50368506 -0.27022484 0.045687843 -0.29045075 0.26386902 0.4816426 -0.17223547 -0.062138885 0.17178534 -0.46289968 0.2845892 -0.06812867 -0.15745184 -0.28868175 0.019156413 0.08032774 0.8201698 0.4557079 -0.38937727 -0.17464752
652 0.11844996 0.035655275 0.3731887 0.16658105 0.25158957 0.31278998 0.1806111 -0.27092686 0.2690861 0.47150385 0.7950178 0.21232599 -0.13130356 0.13653277 -0.41632193 0.051592175 -0.6034813 -0.5158982 0.6522802 0.6188902 -0.024991145 0.26105595 0.9868026 -0.33436143 0.3724814 -0.27310002 -1.0455389 -0.13230038 0.11017992 0.26905584 0.3990463 0.15043171 0.46261182 0.46334 0.061709106 0.020402683 0.2964072 0.20362048 -0.15507568 0.69812626 -0.41529587 -0.26958615 0.017622847 -0.13755251 -0.47497472 0.23598628 0.18421467 -0.1924654 0.04472628 0.6263322 0.7996732 0.1562719 -0.17363937 -0.60558695 -0.41989937 0.17117578 -0.2941497 0.81181085 -0.07482189 0.06113801 -0.27165926 -0.110418625 -0.29460096 0.3475282 0.6079188 0.4794345 0.17642193 0.4933716 -0.44955662 -0.0873124 -0.4013281 0.25757352 -0.8120655 -0.2512069 -0.014613581 0.21045195 -0.066515595 -0.026370982 -0.009760169 -0.4087137 0.29664323 -0.262941 -0.85373956 0.25192595 0.018328195 0.51705575 0.6388654 -0.16602762 -0.122487776 -0.30157346 0.34367082 -0.3652432 0.42334116 0.008715436 0.86216235 0.6331958 0.14930658 -0.25434795 -0.1934545 0.22914307 -0.29217592 -0.25680113 -0.52310604 0.50390065 0.0379517 -0.3990651 -0.41122243 0.5876424 -0.026319271 0.21053177 0.4479959 -0.00029134675 -0.0063960534 0.21832642 -0.15054779 -0.17782843 0.024761826 -0.7881924 0.4717063 -0.19921511 0.15528977 -0.0461382 0.0060638157 0.390181 0.49019834 0.4685957 -0.22842407 -0.13997367
654 0.019657537 -0.5847002 0.593995 -0.061726462 0.18441725 0.24455373 0.26605222 -0.13799794 0.35238576 0.2341973 0.707981 0.38573173 -0.01096427 -0.06814264 -0.63130593 0.13826708 -0.4811803 -0.5365608 0.3404655 0.95181996 0.23632872 0.32598805 0.46218687 -0.48004135 0.3916205 -0.24795793 -1.1060759 0.13685153 -0.11617458 0.42505354 0.49320352 0.015763383 0.5938683 0.17972498 0.0065416857 -0.30980578 -0.060508322 0.69760877 -0.033947915 0.7988124 -0.45137957 0.015434844 -0.04574345 -0.39648652 -0.11301525 -0.039995264 0.12264799 0.08565011 -0.10967958 0.49463782 0.9197408 0.3920861 -0.42047554 -0.4062702 -0.77832055 -0.13555874 -0.1865048 0.7308169 0.21498585 -0.25769374 -0.16805105 -0.09902317 -0.35427752 0.32741174 0.5740736 0.41240895 -0.09562161 0.36710858 -0.32561496 -0.09503622 -0.18478869 0.15668601 -0.825007 0.08851612 -0.3244713 0.07271465 -0.11084651 -0.10632187 0.15258217 -0.4405229 0.35685566 -0.18787383 -0.50355536 -0.098178536 0.03416199 -0.0048893867 0.5778339 -0.23489529 -0.14907216 -0.29310215 0.3691029 -0.39796445 0.40307313 0.017280951 0.7053513 0.28008118 0.2088354 -0.318781 -0.21453063 0.12339284 -0.4511796 -0.23842122 -0.4567371 0.6168506 0.1823356 -0.051205587 -0.5749288 0.78387195 0.28517467 -0.19431297 0.2952746 -0.17515674 -0.22829223 0.3332721 -0.2829902 -0.3037017 0.2043941 -0.9140655 0.5133833 -0.21359771 -0.012895224 -0.1827922 -0.0015605582 0.28063813 0.75404686 0.41495848 -0.38400513 -0.2292281
1986 0.14646588 -0.14290197 0.3687332 -0.17008342 -0.15344086 0.28330564 -0.040893853 -0.1805199 0.2678022 0.2673186 0.45631784 -0.085668676 0.08663318 -0.19284257 -0.57904184 -0.27729157 -0.41453165 -0.25186023 -0.17693985 0.43958336 0.10027195 -0.012337712 0.050248533 -0.3218867 -0.038207207 0.022164488 0.05224079 0.03620283 -0.48183027 0.1862966 0.40349185 -0.24959993 0.17882852 0.31271875 -0.045295674 0.14774369 -0.2813303 0.2684986 0.38598222 0.384634 -0.1747968 0.28342092 0.06743661 0.06304449 0.1461176 -0.06754403 0.013044593 0.18894345 0.09684897 0.013858761 0.2210586 0.40115902 -0.2695051 -0.1029669 -0.111559644 -0.069351144 0.12767874 0.23130046 0.3659093 0.06847472 0.029683435 -0.20372838 0.22080384 0.074983105 -0.09092697 0.024233384 -0.088846095 0.09099481 -0.3032308 -0.056462426 -0.25714067 -0.046194486 -0.25314227 0.08071898 -0.02984084 0.2517591 -0.13562448 -0.5114574 -0.1409111 -0.015779778 0.21220157 0.04601274 -0.015501942 -0.32085672 -0.4530211 0.0797647 0.19603786 -0.3622139 0.021664763 0.07767041 0.107904494 -0.5078308 0.2964237 -0.09273115 0.49213263 0.35090327 -0.21285443 -0.3349435 -0.20928079 0.18456757 -0.07455635 -0.029399714 -0.2304952 0.4602136 -0.08517708 0.10484219 0.23144041 -0.057220276 0.08921724 -0.567029 -0.2957752 -0.08452284 0.10698823 0.17876616 -0.2141433 -0.052966896 -0.16485639 -0.25905377 -0.078494504 -0.16658942 0.01063429 -0.030280408 0.1559723 -0.18922704 0.74334365 0.2310053 -0.5069384 0.16860542
332 0.15726289 -0.4010313 0.37910157 0.07725321 0.24763784 -0.036162384 -0.07623037 -0.05745586 0.24047013 -0.050859205 0.6416004 0.34695756 -0.23920776 -0.12305356 -0.48766136 0.3720835 -0.34351367 -0.57031703 0.4311355 0.64379895 0.17509344 -0.18409613 0.11420416 -0.30718425 -0.06917212 -0.18768843 -0.85750085 0.18370691 0.05421987 0.09630665 0.37536278 -0.48660925 0.37053046 0.22589009 0.11330908 -0.3206506 0.2712275 0.882723 0.121528305 0.8510539 -0.448166 0.2594348 0.05719157 -0.19781643 0.3829494 -0.44658396 -0.1359843 -0.2286776 0.35960776 -0.06284232 0.4395711 0.20519295 -0.56152034 0.026941642 -0.2575941 -0.17298897 -0.20098507 0.15818453 0.12489586 -0.07463166 0.37436074 -0.36825612 -0.25678807 0.27705425 0.51352763 -0.18438978 -0.6287069 0.44956765 -0.46849835 -0.17146663 -0.19292676 -0.16017933 -0.5293279 0.13303746 -0.40982407 0.3583533 -0.123229235 0.051656634 0.4131518 -0.64490724 0.30817568 0.3558754 -0.09474012 -0.16367185 -0.16209355 0.04090885 0.21152303 0.27979827 -0.011627845 -0.47608793 0.52253455 -0.3791712 0.10453806 -0.26275632 0.73078287 0.26169917 -0.23086421 -0.21743503 -0.2586589 0.33966362 -0.07402175 -0.2925852 -0.1392193 0.22070445 0.37701762 -0.05934723 -0.175405 0.28106266 0.27974936 -0.15053006 0.18297848 -0.27340207 0.07375621 0.23655011 -0.035447475 -0.07815479 0.09001949 -0.42519763 0.4489864 -0.20504734 -0.3243349 -0.25843397 0.003934871 0.17742409 0.8006451 0.5261057 0.024232026 -0.06568833
1666 -0.33024797 -0.3707317 0.66140014 0.0803162 -0.07591577 0.66495043 -0.14727056 0.18199514 0.082754426 0.13653024 -0.20155531 0.27121928 0.14776444 0.34095377 -0.66253376 0.4530807 -0.2365173 -0.5695379 -0.015041265 0.94366986 -0.0211736 -0.40024585 0.032358214 -0.5878705 0.30362877 0.028178452 -0.5858609 0.593256 -0.0021165637 0.37899494 0.25799927 -0.0901976 0.55355847 0.25982115 0.1672119 -0.17936526 0.121761546 0.53888744 0.2224477 0.408241 -0.49886078 0.263585 0.093158014 -0.0009433922 0.19337286 0.21984532 0.1789644 0.21588592 0.063483395 0.07922958 0.5837466 -0.084928684 -0.16470791 -0.046223354 -0.63977224 0.026331486 -0.19021806 0.18389152 -0.038533762 0.018833794 0.18581715 -0.71853626 -0.51550144 -0.16428246 0.41312766 -0.0676389 -0.4073262 0.41182223 -0.11078687 -0.3981811 -0.07503661 -0.31982362 -0.65361035 0.25129616 -0.67502695 0.044989835 -0.2592979 -0.43547815 0.44628242 -0.04903985 0.13023902 -0.10970872 -0.33193478 -0.063979805 -0.36980313 0.08776385 0.30699503 0.04180188 -0.18794589 -0.18824445 0.5649558 -0.57663244 0.37582034 0.0014436331 0.27670377 0.303038 -0.06647414 -0.18861642 -0.35289535 -0.12057147 -0.097535856 -0.12528339 -0.16783346 0.5976127 0.7046189 0.2143269 -0.6316952 0.0490417 0.5226299 -0.37871963 0.22149846 -0.76996607 -0.090432994 0.5950441 -0.051558327 0.10709304 0.090986565 -0.5003457 0.54028463 -0.34183928 -0.39618194 -0.41503093 -0.016335629 0.3332059 0.4230674 -0.12230875 -0.42475674 -0.22331415
1454 0.44435942 -0.6549936 0.397161 0.08159073 0.12679274 0.48355478 -0.019390952 -0.18981664 0.46815088 0.31696576 0.5503157 0.17886816 0.076130584 -0.32717356 -0.57381123 0.385701 -0.32269892 -0.6129556 0.23374508 1.1667693 0.02447726 0.039602995 -0.051868007 -0.2930702 0.22892284 -0.050659627 -0.84923214 0.08068173 -0.0369844 0.4422676 0.41202605 -0.026770841 0.4183651 0.14184545 0.069847524 -0.3633827 0.068986766 0.6408199 0.3541795 0.7980814 -0.4203275 0.43460575 -0.03120978 -0.20763706 0.2056344 -0.3231312 -0.06178856 0.06280648 0.03556302 0.20342647 0.7469279 0.2683612 -0.36599234 -0.16949321 -0.51753855 -0.11905069 -0.026369473 0.56586534 -0.110036425 -0.2903725 0.073746376 -0.59899247 -0.23239835 0.23065391 0.25921988 -0.14999793 -0.66347027 0.21453689 -0.09090719 -0.30176827 -0.35494566 -0.12452805 -0.60981405 0.05713546 -0.4697747 0.23430878 -0.0032201093 -0.235463 0.16623586 -0.43756005 0.32456347 0.01349508 -0.32932907 -0.43321142 -0.2312801 0.35429296 0.4482023 -0.03501726 -0.13052815 -0.3240017 0.40912563 -0.51565385 0.38836682 -0.14985748 0.5963282 0.27575544 0.17763968 -0.1339713 -0.09790795 0.22811683 -0.24863772 -0.4435206 -0.27544487 0.6131243 0.15669206 0.008871589 -0.30923375 0.69648075 0.6498752 -0.27652028 0.14242141 -0.22221315 0.31776553 0.35443345 -0.043212652 0.010216431 0.12732191 -0.51613545 0.4422403 -0.20514946 -0.21616645 -0.32436624 -0.15846695 0.19117032 0.8159596 0.3013155 -0.6150881 -0.21090338
3 -0.14879698 -0.04433272 0.12574337 0.08238577 -0.16176368 0.1077828 -0.47225106 -0.46566975 -0.1474181 0.49688 0.5252563 0.45436212 0.14524716 0.3147206 -0.57811505 -0.12017723 -0.69784343 -0.34732312 -0.3124655 0.84163237 -0.14312111 0.15366143 0.04546185 -0.9573123 0.27935824 -0.25054687 -0.58883154 0.25029486 0.0764002 0.5550722 0.19395836 -0.34370098 -0.118460886 0.406222 0.09490802 0.091612495 -0.02492128 0.62881804 0.043006748 0.19028904 -0.2741494 -0.3667478 0.030889327 -0.02294717 0.61709946 -0.51223236 -0.06653803 -0.16025084 0.20667166 -0.10853128 0.0014699396 -0.020865394 0.015626846 -0.35638687 -0.51781964 -0.25884977 -0.31355712 0.4571886 -0.008020199 0.32178783 -0.22648907 0.13536526 -0.2389752 -0.19878653 -0.06429598 0.018991243 -0.35381922 0.32621065 -0.15323237 -0.22849248 -0.67495966 0.10755711 -0.3790826 0.14787842 0.33991152 -0.4161688 0.013621127 -0.039489143 -0.26322648 0.117643945 0.4802495 -0.14931048 -0.5172195 0.0054495675 -0.2176017 -0.8321233 0.021651844 0.29469797 0.280614 -0.602886 0.7002199 -0.18478729 0.81203854 -0.16835116 0.32227582 0.7598256 -0.41786978 -0.3046759 -0.15383641 0.37424108 -0.31837574 -0.17234051 -0.43373463 0.39307782 0.66516465 -0.11451969 -0.43885446 0.22002439 0.23475853 -0.44955063 0.15112995 -0.15789835 -0.004884918 0.3786574 -0.5223076 0.19828832 -0.42573586 -0.5715847 -0.58028805 0.04646363 0.26221085 -0.28007326 -0.39525136 -0.012362047 0.9680177 0.21627386 -0.23603462 -0.012252306
2544 -0.1608125 -0.04325425 0.124649264 0.08423317 -0.16895923 0.106168486 -0.48002115 -0.46941692 -0.14631075 0.5215623 0.54529804 0.4606822 0.1439003 0.32105225 -0.5872428 -0.13639657 -0.71379024 -0.35440728 -0.31456447 0.8633438 -0.15854952 0.15897895 0.04243465 -0.9874644 0.28262627 -0.25628087 -0.595649 0.2654251 0.07378038 0.5654167 0.19558091 -0.35171515 -0.111874245 0.41515878 0.09740338 0.10310571 -0.03686862 0.65777963 0.037644316 0.19311167 -0.27153498 -0.38116395 0.039759256 -0.029903365 0.64084107 -0.52579355 -0.05768611 -0.15602936 0.21306099 -0.11029109 -0.0030953367 -0.0179155 0.020189414 -0.37995312 -0.5360306 -0.2676868 -0.3166416 0.4845378 0.008136964 0.3346425 -0.2336378 0.1379954 -0.24314962 -0.1979695 -0.07085607 0.02129763 -0.36423472 0.3309588 -0.15830058 -0.24361888 -0.7043446 0.109203525 -0.40114146 0.14354403 0.33780286 -0.4285284 0.007390418 -0.03539625 -0.26920632 0.12156649 0.4875741 -0.16529131 -0.5164051 -0.0043175844 -0.22641814 -0.84896666 0.029307088 0.3109296 0.28406164 -0.6230333 0.70815605 -0.1831245 0.82348454 -0.17360239 0.32690862 0.7846217 -0.4418204 -0.31705523 -0.15648311 0.39355218 -0.33001095 -0.18346283 -0.43454424 0.4123981 0.67888135 -0.10718323 -0.45134485 0.22227538 0.2398358 -0.4666375 0.1442704 -0.16402288 0.00500137 0.38973117 -0.5421006 0.19809157 -0.43682054 -0.58535194 -0.5949976 0.043597706 0.26654336 -0.28263855 -0.41242972 -0.023569068 0.99645793 0.22450504 -0.24637799 -0.0044895234
4 -0.5461271 0.0037280188 -0.42152366 0.12190982 -0.29951325 -0.069023445 0.05279692 -0.7335509 -0.30871555 0.13257645 -0.014015964 0.46812674 -0.08611026 0.25467438 -0.55851233 0.04665683 -0.2853 -0.20491166 -0.25443742 0.36882955 0.09620161 0.07823243 -0.113816984 -0.9677441 0.2096608 -0.23990194 0.014791674 -0.00827702 -0.23552597 0.45432806 0.055978473 0.033194087 -0.36572456 0.39713466 0.2372389 0.025229765 0.047758058 -0.20832196 -0.03213698 0.12916808 -0.4059387 -0.23283793 0.21749717 0.44873992 0.25727016 0.09757477 0.10214618 -0.20631073 -0.15943398 0.0040686163 -0.020345148 -0.45812318 -0.516297 -0.3398222 -0.5302381 -0.05529306 -0.63803536 0.21609679 0.61728835 0.015833018 -0.28225413 0.22764611 -0.2789303 -0.30361226 0.36062834 -0.08624564 -0.7752785 0.36412135 0.30538094 0.36932987 -0.54547566 0.5553871 0.076855585 0.38619286 0.5754774 -0.5102874 -0.31409362 -0.15530397 -0.5121626 -0.008205611 -0.23499174 -0.25039956 -0.1582714 0.29004076 -1.1369435 -0.56810856 0.23742647 0.08368786 0.52095133 -0.15491469 -0.016592916 0.09053248 0.6993761 -0.8904364 0.6905438 0.11194101 -0.071474805 -0.20319982 -0.036583748 0.51439106 -0.21772641 -0.03124251 0.049935233 0.01718388 0.37953228 0.48685998 -0.070178196 0.13916299 -0.25241444 -0.39149654 0.29631647 -0.45664713 -0.2344825 0.7695749 -0.63201976 0.06002798 0.06782493 0.41221923 -1.0209334 0.13405149 0.7932026 -0.10631716 0.15898237 -0.3994843 0.11286938 0.26429334 -0.12569727 -0.15727763
2176 -0.38612592 -0.0642657 -0.12019211 0.05902256 -0.06879243 0.04398419 -0.16149145 -0.69932896 -0.45353305 0.011978098 -0.14750032 0.46969366 -0.14437215 0.11134709 -0.38027406 -0.074096955 -0.47483462 -0.06560737 -0.14657329 0.32936078 0.22818233 0.27865335 -0.26216412 -0.8238796 0.16219628 -0.20790614 -0.023180075 -0.013944696 -0.20688939 0.44227454 0.27931353 -0.08433996 -0.2773245 0.41175792 0.752091 0.0034277597 -0.16660772 0.0259813 -0.23980412 0.05971822 -0.22319935 -0.29533255 0.022685101 0.65292424 0.09422942 -0.13258798 0.4138161 -0.17240681 -0.20750879 -0.06240373 0.05043325 -0.55192876 -0.34542766 -0.2852111 -0.33704096 0.10419235 -0.27145812 0.392552 0.23453218 0.014743279 -0.31615153 0.17917335 -0.03837069 -0.44956636 0.30578616 -0.0155045865 -0.7974897 0.28474253 0.396238 0.37418428 -0.7003626 0.57585466 0.23332787 0.45426768 0.42934516 -0.51165307 -0.115582764 -0.19209062 -0.62160826 0.019100575 -0.021295244 -0.14508303 -0.26017883 -0.031846367 -1.0665598 -0.47785643 0.45316654 0.112729736 0.25723147 0.122357935 -0.29479897 -0.041291926 0.78176135 -0.71050817 0.805149 0.23731382 0.09131099 -0.20180967 0.033060793 0.42623693 -0.2665257 -0.10481979 -0.11648262 0.39339638 0.31301856 0.34924555 -0.11152636 0.08896715 -0.29237196 -0.5013863 0.46855995 -0.34978944 -0.042867396 0.65257853 -0.60338116 -0.07672908 0.5159574 0.35470128 -0.8871707 0.040429264 0.800203 -0.31781846 0.31012002 -0.41707334 0.09442283 0.5832911 0.15368794 0.1676991
1016 -0.5975099 -0.04658495 -0.1664691 0.0039290786 -0.07840498 0.2459881 0.00445121 -0.87139744 -0.36281165 0.08848409 0.12203833 0.5294174 -0.05076561 0.2465895 -0.8258964 0.3263443 -0.15964141 -0.29166654 -0.1559185 0.32515115 0.061903387 0.104509264 -0.19098471 -1.191205 0.079554275 -0.0268758 -0.18010975 -0.17308174 -0.27541485 0.5089294 0.09957123 -0.08107241 -0.4490239 0.3891626 0.6859379 -0.04790687 -0.15366887 -0.09477117 0.042860534 0.13707887 -0.60566443 -0.17835246 0.3172621 0.5959681 0.29814467 0.17835256 0.14784114 -0.20865959 -0.3354865 -0.2293084 -0.058266416 -0.36533567 -0.47908023 -0.2751344 -0.50682557 0.081933506 -0.49422202 0.23814087 0.55584586 0.043724734 -0.45149153 0.36411646 -0.30295196 -0.26860216 0.26160365 0.03860662 -0.5608063 0.4701 0.023448685 0.48893094 -0.576371 0.49722525 -0.039559606 0.4886293 0.2533734 -0.421884 -0.2847703 -0.120172866 -0.77778643 -0.06170869 -0.17661375 -0.1626213 -0.48565778 0.30484486 -1.1395451 -0.4773845 0.46248418 -0.03601916 0.4141669 -0.046132207 0.15131792 0.08613114 0.86487484 -0.93366784 0.8903318 0.25473043 0.2575955 -0.05146534 0.011258113 0.3203019 -0.43729976 0.04872632 -0.013794786 -0.01746908 0.13339013 0.31834686 -0.024407912 0.18350251 -0.24743937 -0.6827114 0.36258286 -0.5286577 -0.16377728 0.8199387 -0.64910245 -0.074533686 0.4019344 0.097153954 -0.9257687 -0.045123607 0.802686 -0.13769808 -0.21792756 -0.15072721 0.17764902 0.24400558 0.18459429 -0.23459752
1761 -0.44999436 0.03070727 -0.4960842 0.36886236 -0.25615016 0.022694875 0.21672796 -0.668855 -0.22966461 0.16370498 -0.076737955 0.27982667 -0.23518212 0.14870209 -0.6870914 0.2194191 -0.35829177 -0.30347294 -0.28158677 0.2491965 0.107662685 -0.19298917 -0.019801829 -0.558867 0.10626391 -0.19089462 -0.22730541 0.20934793 -0.25467482 0.15956824 -0.022348816 -0.020890623 -0.35295147 0.31247202 0.26661006 -0.054349795 -0.10631362 -0.03558754 0.26096466 0.016300537 -0.36274058 -0.5108781 0.20387594 0.23014091 0.34363455 0.00021614908 -0.045945086 -0.009860079 -0.26193672 -0.10928265 0.017829452 -0.33787286 -0.15548833 -0.37887982 -0.4177508 -0.13021456 -0.5620998 0.29726195 0.49379444 -0.022500666 -0.10660459 0.17243156 -0.19436164 -0.13091165 0.3648429 0.1534048 -0.43677476 0.21676955 0.3958517 0.24298397 -0.41798604 0.4317086 -0.1886789 0.5271009 0.4690872 -0.19466765 0.013531575 0.09512295 -0.42228347 -0.32705563 -0.21219686 -0.32870278 -0.05465996 0.5038602 -0.804004 -0.34789246 0.003438824 0.35381752 0.21520583 -0.24546643 0.28025118 0.14117877 0.49904576 -0.7158986 0.7079272 -0.035043307 -0.19377661 -0.08503025 -0.17157942 0.57993835 -0.32880974 0.09890374 0.079772376 0.20984223 0.42175168 0.37223202 -0.11213469 0.04041168 -0.3031342 -0.43634257 -0.18019336 -0.4871812 -0.28668508 0.54804397 -0.661416 0.16939731 0.13585272 0.14941235 -0.84406984 0.017464157 0.83765817 0.14134087 0.023904089 -0.22812408 -0.13249959 0.25395235 0.019010942 -0.29538226
1256 -0.46322134 -0.14108214 -0.4415126 0.24596784 -0.03688193 0.19453935 0.1294286 -0.58883864 -0.3528818 0.08521736 0.18495522 0.19426194 -0.0702338 0.3918055 -0.69178426 0.22776769 -0.27551007 -0.31948093 -0.091019735 0.24641278 0.3019904 -0.09163808 0.0012012098 -1.0081046 -0.09084249 -0.013058282 -0.32771716 0.12161249 -0.28007635 0.5259783 -0.033111356 -0.013239959 -0.32901365 0.407094 0.46800917 -0.09448207 0.030033464 -0.036789533 0.20283188 0.032008205 -0.31728047 -0.54198474 0.2087057 0.4543445 -0.0025678442 -0.24793883 0.13925898 -0.018261598 -0.21842709 -0.0042195544 -0.21428654 -0.51447123 -0.43407375 -0.23001571 -0.36285442 0.14064717 -0.48719013 0.43725443 0.37389642 0.028532775 -0.17547941 0.33933863 -0.15139522 -0.1648695 0.5849381 -0.012008737 -0.60432917 0.49734724 0.32184404 0.195106 -0.39700794 0.54577667 0.0825745 0.52215195 0.57201225 -0.27936196 0.022831308 -0.06886698 -0.56213945 -0.11398102 -0.06041033 -0.22773759 -0.25908706 0.47571024 -0.8715202 -0.43104872 0.36537674 0.27829388 0.46810535 -0.092983395 0.034091275 0.018193578 0.73707825 -0.8655519 0.7795186 -0.008838513 -0.009615252 -0.16074976 -0.3435927 0.67382324 -0.31079674 0.10270849 -0.08991182 0.22201017 0.44840312 0.45334882 -0.27283594 0.0031922187 -0.3692389 -0.42935443 0.11319174 -0.43868622 -0.40007138 0.7104613 -0.5948965 -0.10070667 0.28687134 0.165012 -1.1039512 -0.08858304 0.9962188 -0.330474 0.1360785 -0.3220426 -0.0065949173 0.26742926 0.10363245 -0.26743078
2175 -0.40751347 -0.03718392 -0.2892653 0.17245917 -0.12993102 0.032975893 -0.09250633 -0.5612944 -0.24602115 -0.020991718 -0.047215823 0.23222849 -0.11324756 0.09528155 -0.67265445 0.2854179 -0.048227444 -0.36454657 -0.15965976 0.14690037 -0.032736998 0.2028106 -0.11071467 -0.8674398 0.087998554 -0.2750685 -0.103071 -0.07490232 -0.33347943 0.58611906 0.15012847 -0.15098935 -0.26146278 0.5310524 0.37709343 -0.08285489 -0.19936436 -0.04162125 0.17543474 0.017223613 -0.20303541 -0.45094174 0.05846029 0.3112926 0.17520349 0.009506015 0.24655686 0.012378449 -0.14208971 -0.06638978 0.065697365 -0.7666592 -0.35607007 -0.39762786 -0.45133397 -0.105336554 -0.4853474 0.25864092 0.3281923 0.012269597 -0.24338305 0.28869808 -0.13778211 -0.31053647 0.26728484 0.2361982 -0.632363 0.32465157 0.2863334 0.09108218 -0.51284575 0.5096814 0.097513564 0.64284456 0.38692033 -0.45511034 0.14208668 0.068525724 -0.6383014 -0.023389664 -0.00011362584 -0.44800568 -0.2891219 0.23954539 -1.1107702 -0.6577971 0.32435563 0.1484932 0.1686548 -0.06382628 0.013493275 0.08013819 0.6466148 -0.64930725 0.9878218 -0.016462177 -0.24476857 -0.13841268 -0.22208981 0.7278435 -0.2786659 0.12308137 -0.08222196 0.22266804 0.7175339 0.3369627 -0.25406268 0.17461182 -0.32111558 -0.5220758 0.11238294 -0.39739063 -0.2615195 0.84551966 -0.53616935 -0.05939688 0.36803344 0.37306207 -1.0222582 0.0057898536 0.85612136 0.13226604 0.30944377 -0.088377655 0.09577833 0.47631508 0.2049132 -0.047801536
5 -0.12695315 0.18162304 -0.17035739 -0.3031368 -0.50095665 0.4595171 -0.22950669 -0.15640324 0.28002578 0.6231103 0.5180211 0.2899807 0.2709441 -0.2711293 -0.1762001 0.2178919 -0.9297472 0.011208304 -0.24304886 0.22888488 -0.25362363 0.6306624 -0.009697879 -0.5183829 -0.008612763 -0.69140136 -0.2107856 0.38464183 0.26941457 -0.12358705 0.21132754 0.32691526 -0.66087514 -0.3274501 0.20020226 0.24462384 0.1391283 0.34353337 0.073285036 0.49154016 0.09486795 -0.17590135 -0.5520854 -0.37287003 0.6422164 -0.6805377 -0.7289373 -0.5795817 -0.21089943 0.17754726 -0.10505896 0.15971662 0.10424984 0.69597936 -0.1251531 -0.11034677 -0.5036379 0.30680355 0.14438576 -0.04969401 -0.6976159 0.81067544 -0.41180032 -0.29799354 0.22079925 0.3358156 0.048366133 0.07673362 0.24817853 -0.2631132 -0.14955387 0.04459408 -0.133999 0.59247184 0.31618953 -0.2551292 0.34545115 0.4203492 -0.27319854 0.43484193 -0.24771035 0.1161309 -0.34082186 0.21089503 -0.13402586 -0.8194067 -0.082993634 0.30605882 0.4551099 -0.08089878 0.25146866 0.034854915 0.5741973 0.4908728 0.6007479 0.010174895 -0.4037058 -0.16311139 -0.25575 0.4488031 -0.0712558 -0.19597831 -0.33344516 0.40565118 0.64005566 0.56021416 0.19051012 0.55583125 0.1409236 -0.4386966 -0.32039756 -0.28632244 -0.21219432 0.71114755 -0.35759443 0.40176803 -0.25933075 -0.6485608 -0.759608 0.08450671 0.7929973 0.30420873 0.1371324 -0.27608523 0.18497886 0.22201018 0.2535641 -0.5092258
1629 -0.26533195 0.16113766 -0.005988928 -0.4089524 -0.62107193 0.39307854 0.11614115 -0.2731685 0.16422106 0.4560805 0.24368788 0.1939003 0.048131797 -0.08114709 -0.21934594 0.13725851 -0.8055082 -0.16328493 -0.10727834 0.4274037 -0.074386396 0.54609317 -0.13334677 -0.7338231 -0.16664906 -0.6102749 -0.05912021 0.5713066 0.21431659 -0.041801885 0.010021593 0.31312278 -0.96834093 -0.26040137 -0.041432325 0.10637895 -0.007110534 0.120522216 0.13127898 0.39108992 0.25747323 -0.17701292 -0.36616793 -0.14538611 0.59720504 -0.38200942 -0.8002759 -0.81115335 -0.10702938 0.08458567 -0.25063193 0.20689748 -0.063133895 0.63741016 -0.15640214 -0.14578238 -0.67112476 0.17872696 -0.044740684 -0.037585504 -0.48920292 0.8220094 -0.501226 -0.39232337 -0.05109965 0.4329942 -0.39230752 0.30457863 0.54969454 -0.36488 -0.13737652 -0.086267844 -0.23948495 0.5933196 0.5069004 -0.22557399 0.6252679 0.33782715 -0.37040192 0.17263247 -0.20500234 0.13537584 -0.0694229 0.3222186 -0.38919336 -0.38693404 -0.13949789 0.35792965 0.27677974 -0.00219261 0.24931453 0.060061686 0.6558533 0.34022665 0.37372297 0.3651694 -0.5170633 -0.0043252427 -0.36195692 0.114654705 -0.09918712 -0.0072274925 -0.24162903 0.44611403 0.5547751 0.7279907 0.13042459 0.64178944 0.038155757 -0.35048437 -0.17253013 -0.33918107 -0.08587519 0.43854022 -0.30638567 0.5337713 0.1351463 -0.5564763 -0.55423415 0.043266013 0.56395245 0.20128062 -0.08506631 -0.2174376 0.34573638 -0.058499373 0.071325995 -0.39892006
2546 0.09876028 0.19532284 -0.11795428 0.07361749 -0.21439026 0.54766345 -0.33608857 -0.121667214 0.4359772 0.5310887 0.47727636 0.0879392 0.37476674 -0.22597478 -0.26029527 0.20857379 -0.74968123 0.0011035422 -0.27177835 0.11226756 -0.35969877 0.38984922 0.21699788 -0.266284 -0.0444629 -0.32225767 -0.22677483 0.293601 0.21075666 -0.32038432 0.2665098 0.2546536 -0.269597 -0.47765875 0.21702683 -0.046280827 0.13271649 0.3344238 -0.11158859 0.40830836 0.08909441 -0.19849256 -0.4489501 -0.5296161 0.49647507 -0.8664324 -0.51853883 -0.36776164 -0.09481148 -0.15017632 0.16197006 0.0150999315 0.35247248 0.39255124 0.0218445 -0.17990214 -0.62798625 0.3679666 0.42587483 0.04250391 -0.41209897 0.7558764 -0.33653852 -0.14008398 0.24970177 0.2097913 0.06140592 -0.17260459 0.3160575 -0.06400233 -0.12742667 0.23184851 -0.056855142 0.41707027 0.3698319 -0.3267279 0.46200335 0.28739622 -0.36424944 0.47100368 0.10090244 0.12050733 -0.36900765 0.017511373 -0.12438701 -0.7221708 -0.016966563 0.22822772 0.28661218 -0.11480057 -0.10010411 0.058034103 0.6890512 0.34726042 0.77322567 -0.0926909 -0.3375903 -0.06326624 -0.029273205 0.47236302 -0.07134019 -0.15577012 -0.07481397 0.485211 0.5243347 0.24443099 0.17310783 0.4209417 0.24830672 -0.21514572 -0.5540082 0.018234404 -0.17953186 0.7701993 -0.48380196 0.0207298 -0.20653781 -0.48193252 -0.8248918 -0.038794216 0.8053634 0.34563684 0.29523996 -0.37287942 0.30447182 0.28134346 -0.06198241 -0.44944352
1659 -0.23207483 0.184125 -0.10387818 -0.34377286 -0.46552673 0.5879791 -0.059450958 -0.23233147 0.017768867 0.7572591 0.35821396 0.1914329 0.1150327 -0.16882086 -0.19988844 0.38861048 -0.84376323 -0.10365075 -0.18044887 0.34778407 -0.13040617 0.5553673 -0.07286741 -0.7471465 -0.00077995704 -0.44073287 -0.2693825 0.6932769 0.40603638 -0.0062889047 0.30137748 0.35663334 -0.820791 -0.22860979 0.06394755 0.19987747 0.16016859 0.36446595 -0.17547478 0.47462845 0.06934071 0.112282395 -0.5073678 -0.08713377 0.7936386 -0.46064177 -0.83455914 -0.7470564 -0.15195051 0.086869866 -0.13134336 0.16185614 0.03798513 0.6794489 -0.35145292 -0.06702165 -0.5478152 0.34856424 0.06016516 -0.022013573 -0.5854754 0.7790007 -0.6864679 -0.44270864 -0.09473381 0.22625057 -0.34650177 0.23229854 0.6222784 -0.41545162 -0.10580828 -0.09711384 -0.23289655 0.72802985 0.30723682 -0.08582109 0.596744 0.39482167 -0.47505066 0.22294198 -0.24430431 0.087618336 -0.16184945 0.35473534 -0.27911693 -0.6682296 0.17154622 0.4005274 0.28419876 0.081265725 0.34625375 -0.09193379 0.7376466 0.28163376 0.37887084 0.27646828 -0.40382096 0.06605739 -0.18930429 0.09257616 0.033540033 0.08963763 -0.25023788 0.39418665 0.72846955 0.83597726 0.0006497081 0.76776683 0.070832595 -0.31509078 -0.3108109 -0.3440575 -0.25580242 0.43443373 -0.2556423 0.68017375 0.046720557 -0.56634474 -0.58169734 0.17828186 0.8189917 0.3469605 0.09541191 -0.31870902 0.19936948 0.20386413 0.2694376 -0.305799
6 0.2727209 -0.02308734 0.17185216 0.3344436 -0.7467923 0.15658697 -0.7877798 0.0060991514 -0.26145485 0.024074545 0.14892522 0.18648416 -0.024245469 0.8305685 -0.26311573 -0.37058532 -0.29776412 0.17078623 -0.23501016 0.030249199 0.1972646 0.044935662 -0.45162547 -0.84059435 0.2077077 0.54794896 -0.271367 0.102788456 0.20820194 0.25418445 -0.12767029 -0.76800853 -0.092567965 0.11133873 0.45739657 0.046907842 0.18038325 0.112319395 -0.6755568 -0.22111505 0.06542249 0.16283025 0.06930873 -0.16285254 0.25241747 -0.6854342 -0.1767762 -0.36793298 0.6147925 -0.7998712 -0.24075611 -0.032413397 0.6140581 -0.22432123 -0.40181231 0.11223111 -0.104029 0.2206768 0.17468525 0.6118696 -0.2504789 0.029924912 -0.27079034 0.101800054 -0.16568193 0.054278538 -0.47793663 0.015380842 -0.029580709 -0.46903354 -0.1415519 -0.051695187 -0.47677207 0.10962744 0.51290524 0.06960281 0.20050761 -0.25348216 -0.43437102 -0.04226623 0.09767979 0.05777726 -0.22112124 0.23486713 -0.10382302 0.025895027 -0.090290844 0.2669367 -0.13078348 -0.28520402 0.5635268 -0.29104063 0.49850506 0.094145425 -0.18433885 0.21358386 -0.04080319 0.18229981 0.06418558 0.21578267 -0.101601936 0.31856805 0.16033907 0.41828114 0.229135 -0.2948081 0.13875619 0.09659451 -0.2721395 -0.031915996 -0.17999952 -0.023970705 0.5769151 0.17006561 -0.31391767 0.3170982 0.12354976 -0.4769469 0.10653543 -0.012561054 0.025486441 -0.23240711 -0.75735337 0.41484863 0.8744276 0.46953374 -0.36103904 0.07461528
1416 -0.44387245 0.19766326 0.18959959 0.009560152 -0.6323491 0.059596732 -0.40713575 -0.04977982 -0.137733 -0.3782 0.09584362 0.17483957 0.2171401 0.5137016 -0.22073254 -0.1930288 0.083875045 0.3298923 -0.4147401 0.22413005 -0.0012035564 0.012112404 -0.40131333 -0.8433916 0.13534199 0.44056237 0.09543146 -0.13192892 0.20016246 0.3190998 -0.3862164 -0.59705806 -0.080896154 0.25951076 0.27136147 0.05900418 0.06424467 0.005793107 -0.6760934 -0.056902103 0.05644036 0.13373718 0.1621058 -0.4929061 0.45564315 -0.5379703 -0.052757535 0.064155415 0.45519903 -0.21941864 -0.16953963 0.11693456 0.80715567 -0.13803834 -0.29035503 -0.40478548 -0.24346842 0.32967013 0.26347035 0.540001 -0.3199352 -0.19503345 -0.05750315 0.018472923 -0.34659928 0.14415163 -0.38429457 -0.15538089 -0.25862902 -0.18732598 -0.14539053 -0.21471517 -0.85996634 0.19800559 0.36507276 0.22667274 0.2627274 -0.027364997 -0.5871273 -0.15314583 0.040130455 -0.19317892 -0.22124745 0.493189 -0.15381552 -0.16362609 -0.04976392 0.22012632 0.07849026 -0.3146284 0.33592498 -0.02568294 0.43536946 -0.07720091 0.022341616 0.47286788 -0.055022534 0.17203574 -0.03284794 0.066586904 0.051654316 0.27404046 0.043227542 0.39566803 0.35142082 -0.4777703 0.05586151 0.24241288 -0.10223498 -0.1381343 -0.003180885 -0.52604556 0.45434394 -0.008013796 -0.23647699 0.31576806 0.299722 -0.36525372 0.09863527 -0.15137626 0.18801606 -0.3148287 -0.8028466 0.29652968 0.28655177 0.34935072 -0.5334021 0.13307641
1602 0.53335685 -0.04115405 0.22320934 0.26637566 -0.78985775 0.27274403 -0.70339036 -0.09408542 -0.5204844 -0.20365454 0.31387365 0.19854265 0.049150452 0.2896211 -0.1037598 -0.12031884 -0.53706926 0.07971792 -0.10575321 0.032028183 -0.3250524 0.021273816 -0.45068112 -0.5249742 0.020102847 0.19369341 -0.36664468 -0.22962028 0.24029918 -0.024187528 0.11261975 -0.8269847 -0.035548277 0.06711622 0.11273863 0.0059608165 0.077256195 0.19187899 -0.5648179 -0.37400055 0.38096616 0.23444757 0.23248653 0.18101065 -0.11722959 -0.332785 -0.053091764 -0.20859958 0.7180392 -0.8572467 -0.3116479 -0.10110826 0.64601445 -0.29877925 -0.38859865 0.042313505 -0.12974656 0.38144943 0.11732823 0.5244755 -0.15583795 -0.013603202 -0.43534082 0.12877499 -0.3187503 -0.14898632 -0.55380964 -0.1389445 0.059238795 -0.24317458 -0.2858541 -0.04993626 -0.5300191 -0.15567568 0.5608233 -0.044677936 0.33374947 -0.07037829 -0.43621022 -0.048335016 -0.004787354 -0.082136184 -0.22029313 0.1886423 0.18687244 -0.19176039 -0.30370393 0.23869081 0.05694169 -0.63226926 0.5317582 -0.03556388 0.33298 -0.041428436 0.026357064 0.45000428 -0.39109164 0.2843803 0.34407043 0.20472682 -0.035706207 0.4514983 0.09633974 0.60022736 0.09335482 -0.16668338 0.1953613 0.1866205 -0.08734506 -0.13464667 0.28525707 -0.16882393 0.33213577 0.05483921 -0.11908873 0.48799634 0.01779974 -0.4474352 -0.020036994 0.13082513 0.37234402 -0.19442686 -0.6667711 0.5264997 0.95663476 0.52477586 -0.36447376 -0.028566187
1042 0.16286711 -0.12754251 0.13656504 -0.018375449 -0.56807417 0.027273756 -0.6563426 0.10397456 -0.8072432 -0.17178243 0.4053267 0.5154315 -0.045685712 0.79578644 -0.16842075 -0.25897744 -0.21268582 0.065014824 0.105601504 0.095546514 0.43828392 0.15615302 -0.16876037 -0.81631017 0.513961 0.18303567 -0.2949908 0.13928208 0.0027552862 0.1487577 -0.031176796 -0.6358774 -0.3994887 0.15966196 0.32419607 0.16657251 0.5284812 0.20402244 -0.5245308 -0.34968662 0.22676542 -0.018411469 0.15339793 -0.11822286 0.4389966 -0.5340294 -0.13528502 -0.19874257 0.5669958 -0.46752498 -0.35826573 -0.07323306 0.64040273 -0.17842248 -0.22250992 -0.061274614 -0.01908597 0.15879543 -0.014803163 0.35731295 0.04744792 0.2065492 -0.4655031 -0.023781179 -0.34863585 -0.22851902 -0.3072835 0.1027817 -0.38394 -0.22326745 0.07694007 -0.1527499 -0.08107342 0.004159206 0.22093672 -0.1534976 0.06862965 -0.3095304 -0.2423443 0.23363656 0.2886079 0.22766961 -0.11628706 0.165281 -0.25975448 0.39458254 -0.16017756 0.23864818 -0.22419459 -0.66274965 0.69382584 -0.18753272 0.35270613 0.25089693 -0.097316034 0.24010777 -0.3698916 0.13179883 0.1382732 -0.10874331 -0.11730195 0.57433224 0.10238718 0.06443705 0.33234084 0.020419454 -0.08379201 0.58703244 0.011768374 -0.16943857 0.2056184 -0.16333257 0.46895522 -0.023675175 -0.33124745 0.09555739 0.1269367 -0.54863006 -0.20803873 0.28319255 -0.26935884 -0.20761314 -0.75988364 0.031291436 0.82609004 0.2325046 -0.09256267 0.42650357
373 0.32608065 -0.16229925 0.029744849 0.27421415 -0.62925035 -0.19400601 -0.5886983 0.05054536 -0.6020174 0.072589405 0.14053151 0.35531816 -0.01605092 0.76205343 -0.14874285 -0.42139292 -0.21759802 0.2549521 -0.1609329 -0.0077160737 0.37642854 0.046460878 -0.49840304 -1.1078299 0.33896652 0.21274938 -0.25361535 0.0711628 -0.041115858 0.22841203 0.17217645 -0.98353714 -0.34254053 0.19325879 0.2743485 0.23593156 0.28022447 0.12422508 -0.6218236 -0.407427 0.30595523 0.11359621 0.013425083 -0.1860708 0.35554272 -0.76177365 -0.18795654 -0.25131378 0.6216844 -0.5433414 -0.27464896 0.13090512 0.59265274 -0.09985288 -0.37138462 -0.057907723 -0.44060153 0.094975784 0.014551093 0.5462387 -0.17853622 -0.050427794 -0.4329786 0.07926339 -0.28771865 -0.20197365 -0.589642 0.08639871 0.016902203 -0.374174 -0.08270868 0.058976144 -0.30050465 -0.05990334 0.66685694 0.11952967 0.23807801 -0.39320427 -0.3740359 0.082773484 0.22765277 0.019758532 -0.0946113 0.14364298 -0.34614283 0.17438383 -0.23295712 0.50337356 -0.09427474 -0.16917986 0.5739932 -0.29343432 0.7755667 0.14968644 -0.013791879 0.36493662 -0.2632058 0.20790157 -0.010647766 0.06834165 -0.024256397 0.5336013 -0.08318533 0.28665435 0.23690459 -0.1810001 0.16309272 -0.04589585 -0.19497333 -0.12583819 -0.12017052 0.022341082 0.38906056 0.18537179 -0.29978642 0.38456103 -0.046638835 -0.43133193 -0.16277415 0.0473308 -0.19748266 -0.08934579 -0.8094388 0.09986045 0.75455165 0.5200314 -0.367888 0.18771027
7 0.1534355 -0.1297094 0.033943217 0.26052013 -0.4465024 -0.1033187 -0.052781526 -0.31419724 -0.20780358 0.12332557 0.40548062 0.8697674 0.28040817 0.5050366 -0.7981798 0.10456179 -0.47853258 -0.7292894 0.027443938 1.0812584 0.28080672 -0.7073098 0.3244343 -1.0081244 0.3786637 -0.6405186 -0.9385968 -0.9654121 0.27864188 0.62856346 -0.26189607 -0.47407022 -0.07799388 0.8084298 -0.28108478 0.08957796 0.18379535 0.14261943 0.3276776 0.028938819 -0.92216504 -0.7009803 -0.43521866 0.7100215 0.018243033 -0.26954454 -0.663994 -0.594867 0.5188716 -0.6156543 0.7901564 0.028621964 -0.33167833 0.25456327 -0.2965368 -0.1884734 -0.34664088 0.20018673 0.08792356 0.7512497 0.34002116 0.22125249 -0.6867322 -0.25107822 0.14036219 -0.29241097 0.30945057 0.57237923 -0.1815658 0.38976598 -0.5438962 0.1030699 -0.09624114 0.43911743 1.118758 -0.4106353 0.05557157 0.34071985 -0.4664569 0.15421279 0.3417441 0.40683478 -1.0196279 -0.1512067 -0.5064302 0.2092768 -0.18869145 0.10048763 0.51466656 -1.0127676 1.3799341 -0.57986087 1.0287775 -0.7699829 1.0447327 0.26565567 -0.37264696 0.056834366 0.2352447 0.48575577 -0.017744634 0.15920363 -0.55311024 -0.59406143 0.89023393 0.06595182 -0.59543234 0.06386905 0.23221806 -0.35221988 0.7610831 0.28222296 -0.5478202 0.22669429 0.19756933 1.3170986 -0.29061797 -0.32873562 -1.0082331 0.5712286 -0.6654824 -0.112582505 -0.6301739 0.38055083 0.8210449 -0.05332358 -0.15922058 -0.79100555
208 0.17177787 -0.12928575 0.049143925 0.25674614 -0.45591798 -0.12651594 -0.079640165 -0.30089235 -0.24711321 0.11563368 0.44595766 0.8774273 0.30146867 0.50205225 -0.7817088 0.14715841 -0.48612636 -0.724069 0.037973 1.094501 0.307645 -0.7075255 0.31360576 -1.0174888 0.33470932 -0.696272 -0.91584945 -0.97189075 0.26244026 0.6350567 -0.20814645 -0.42098752 -0.033808723 0.77214277 -0.25825098 0.09145366 0.24263176 0.16554518 0.29555035 -0.00031052443 -0.90128297 -0.7032388 -0.42405438 0.6802276 0.0075330874 -0.29015586 -0.6350181 -0.5823216 0.5265957 -0.6171968 0.7643476 0.041508894 -0.3549907 0.2450357 -0.30196828 -0.1968018 -0.3312993 0.23192266 0.056501813 0.74627906 0.33906695 0.19284064 -0.6518519 -0.24797453 0.11213154 -0.27033076 0.29387307 0.5645329 -0.16607402 0.39831007 -0.53330225 0.09915158 -0.09005485 0.43982172 1.1041985 -0.4459509 0.069270454 0.33768994 -0.47022685 0.13986799 0.36587608 0.39888993 -1.0329357 -0.10696765 -0.53331023 0.18759036 -0.19318458 0.09015568 0.54880637 -1.0125958 1.3501399 -0.61438984 1.0426276 -0.7806699 1.0222064 0.2244264 -0.36242005 0.018914998 0.2326204 0.47200233 -0.015475613 0.14689831 -0.5408146 -0.60887307 0.9065789 0.07287762 -0.55752367 0.077025205 0.22126605 -0.3635127 0.7239782 0.266122 -0.5151836 0.21238628 0.20573327 1.3421687 -0.26579577 -0.36139572 -1.008426 0.5533678 -0.6625643 -0.11355262 -0.6171565 0.33852425 0.80521417 -0.07516312 -0.20564587 -0.829881
8 0.30124316 -0.018571643 -0.28387845 -0.13394946 -0.11201332 0.20656173 -0.51501167 -0.26945934 -0.2552082 -0.08972959 0.61594826 -0.22610964 -0.29212984 0.26960254 -0.35223964 -0.2130126 -0.46928132 -0.254346 -0.19220501 0.3074739 -0.05031299 0.40285644 -0.023202116 -0.6512284 0.2891886 -0.30935284 -0.1967996 0.057789717 -0.16193902 0.6392689 0.91383666 -0.5853827 -0.37167296 0.51160884 0.2461543 -0.12121369 -0.056152772 0.23135519 -0.40145963 0.49771574 -0.048522018 0.5743955 -0.16533206 0.32515046 0.29701242 0.030108223 0.05847139 0.023862423 0.18886155 0.28371602 -0.27883017 -0.21157339 0.07829137 -0.13730857 -0.13987179 0.0917197 0.11863426 -0.11393956 0.4064709 0.25071648 0.19197954 -0.25196338 0.003884113 -0.045820568 0.45973966 -0.33414274 -0.52493846 0.122763336 -0.19673866 -0.43002442 -0.8398898 0.29074737 -0.26321393 0.6069205 0.023108475 -0.22485913 -0.19189745 -0.833776 -0.5771291 0.56936187 0.23454444 -0.058108617 -0.014323961 -0.066837996 -0.6071683 0.43018985 0.3542955 0.14505666 0.33315456 0.27322558 -0.058898307 -0.13288607 0.8223512 -0.3294497 0.6691393 0.20466849 -0.22776395 -0.20259242 -0.4898353 0.011024159 -0.16795361 0.21679308 -0.30093855 0.24689052 -0.006223228 -0.13767599 -0.02388024 -0.06269188 -0.12270046 -0.31874496 -0.008357295 -0.29909074 0.12044865 0.6553957 -0.5786752 0.12885967 -0.12506138 -0.14697282 -0.8059727 -0.01630271 0.3848034 -0.26677454 0.18466923 -0.39471152 0.5393444 0.88889605 -0.19798675 0.30504575
281 0.19470365 -0.2381424 -0.25952938 0.21378864 0.023746597 0.14762156 -0.19143896 -0.47554198 0.1349357 -0.11538557 0.15227889 -0.22631614 -0.40588415 0.34076223 -0.059206903 -0.36551875 -0.56712675 -0.1593602 0.22411878 0.4027734 0.1389369 0.16037048 -0.29442272 -0.45864433 0.10026449 -0.079535365 -0.3479765 0.20621923 0.06960364 0.5873335 0.58174694 -0.371184 -0.44534558 0.37209553 0.34510124 -0.031127622 0.00049059297 0.3642698 -0.5317964 0.34965003 -0.12124664 0.18396318 -0.16148013 0.55902684 0.1966954 -0.13843368 0.16496825 -0.07140948 -0.09825569 0.17550184 -0.28107956 -0.2508076 -0.08024606 -0.09155981 0.056684177 0.26029044 -0.045537792 -0.010596629 0.40621015 0.48395923 -0.0049594673 -0.060816947 0.039643083 0.024324577 0.4732005 -0.20544304 -0.38871974 0.055369038 0.19045705 -0.2946469 -0.9418288 0.2719019 0.031136176 0.31187737 0.0622431 -0.67988753 0.108651556 -0.7655312 -0.55907786 0.2717745 0.2160225 -0.19657978 -0.14270645 -0.07786352 -0.6894855 0.21779157 0.62217146 -0.12261921 0.32459748 0.09869964 -0.325818 -0.07425463 0.9057024 -0.42811376 0.5017385 0.19234516 -0.2261145 -0.37240112 -0.14321223 0.017937852 -0.26232216 0.40944126 -0.14813091 0.49016452 -0.015586624 -0.13215922 -0.11079136 0.16513075 -0.24505693 -0.47277468 0.02335914 0.09828742 0.13827528 0.76449174 -0.63853675 0.22359264 -0.037163828 0.11033064 -0.84975195 -0.13992919 0.7068909 -0.051019788 0.39784947 -0.08750905 0.40447843 0.90834016 0.10090848 0.3617059
1996 0.6965231 -0.06877016 -0.05504007 -0.11523456 -0.22663182 -0.06533435 -0.4234187 -0.13062324 -0.11664373 -0.19115928 0.8234467 -0.21694215 -0.015693855 0.10672862 -0.35080543 0.054331504 -0.56007266 -0.108778164 -0.25736022 0.23870958 0.1698168 0.40470415 0.284873 -0.44929013 0.082625866 -0.36272806 0.056985244 0.27954048 -0.36263907 0.4100832 1.1793648 -0.36675432 -0.081204005 0.3477267 -0.081957564 0.19376625 -0.19601998 0.3236638 -0.12597267 0.38446093 -0.091660455 0.59937847 -0.111672945 -0.0323958 0.19569583 0.18597066 -0.057512783 0.1775407 0.02654991 0.24494824 -0.07335742 -0.03324641 -0.0130503895 -0.04197608 -0.2895554 -0.07239702 0.11436996 -0.045697816 0.18732223 0.24743195 0.19662756 -0.18380441 0.16786052 0.15485634 0.1526299 -0.14759792 -0.47801834 0.2824481 -0.42213342 -0.27264512 -0.6418706 0.20338169 -0.081807785 0.45273545 -0.035754997 0.10638583 -0.27943873 -0.88801116 -0.31828073 0.29045802 0.2907118 -0.14698112 -0.12052509 -0.40375388 -0.453054 0.21038462 0.32327312 0.12612568 0.07298489 0.2031756 0.20641148 -0.41297516 0.6055227 -0.36823052 0.48811248 0.47519544 -0.27759996 -0.42216492 -0.7066008 0.27559155 -0.0983291 -0.21987583 -0.28625393 0.3725366 -0.07888527 0.051076725 0.2133512 -0.057645008 0.15702628 -0.47176528 -0.3285013 -0.19348489 0.34639806 0.53725725 -0.32544303 0.04884571 -0.16538365 -0.3598993 -0.86005324 -0.024924513 0.35486132 -0.37704808 0.15372328 -0.29535282 0.58962697 0.46981296 -0.51144445 0.26924172
269 0.46674365 0.22830454 -0.3250087 -0.13395037 -0.15447208 0.20447928 -0.59426475 -0.36772254 -0.4946717 0.19862212 0.8379594 -0.2654817 -0.41188407 0.5668941 -0.3527267 -0.24634977 -0.52700937 -0.58527714 -0.17757562 0.35374042 0.23511176 0.4546735 -0.20714287 -0.9837595 0.053158727 -0.038719952 -0.4005689 0.26190913 -0.13640007 0.8557871 0.9560405 -1.0187972 -0.5232081 0.76556456 0.361717 -0.37481204 0.24735783 0.040308774 -0.21916191 0.226049 -0.21264793 0.2610238 -0.32408503 0.20831908 0.5288749 0.09707836 -0.0013981069 -0.18176866 0.03848733 0.24030565 -0.26448193 -0.29543617 0.309536 -0.2229503 -0.09944736 -0.016324485 0.01656549 -0.32040542 0.40109468 0.31498158 0.25405568 -0.17622556 -0.22230871 -0.34082624 0.51430726 -0.60906434 -0.45272428 0.04275949 -0.4631896 -0.4805632 -0.89791167 0.29344952 -0.0737087 0.3371758 0.12417025 -0.44594172 -0.408321 -0.82485825 -0.35458028 0.5467396 0.025372433 -0.05885046 -0.017939297 0.31964898 -0.4442306 0.4647815 0.5082311 -0.119715184 0.7614823 0.11567892 -0.07237546 0.060803756 0.92663336 -0.24813573 0.6359436 0.34469533 -0.06709064 0.06188586 -0.5354459 -0.11034795 -0.17312212 0.14432278 -0.41566783 0.12888339 0.04246446 -0.349147 0.08180319 0.16139083 -0.14419217 -0.3777512 -0.0057534715 -0.0017783376 0.04289163 0.6472418 -0.7132211 -0.12309764 -0.2698717 -0.42893425 -0.56629986 0.020758541 0.15140508 -0.21976262 -0.13559332 -0.11587728 0.5195876 0.67705166 -0.13901101 0.4382306
9 -0.45651525 0.8193897 -0.35598648 0.24244896 -0.12255648 0.2937535 -0.5943603 -0.14435093 0.1906638 0.22300014 0.34706903 -0.023396524 -0.095401585 -0.1263824 -0.6135217 0.50270534 -0.5439949 -0.18577583 -0.3530845 0.81374854 -0.5129529 0.61079377 0.12430646 -0.6844073 0.48164016 0.08636532 -0.19866222 -0.34289768 0.6255269 -0.16818735 -0.2817795 -0.76993215 -0.11164755 0.7925942 0.055211097 0.026110392 -0.17701869 -0.5887084 0.38836274 0.12812984 -0.83447903 -0.6953362 -0.07983122 0.2695768 0.96307296 -0.52202636 -1.0251485 -0.51764137 -0.29644397 0.16144918 -0.54168624 -0.3604518 0.43007174 0.15879686 -0.33701342 -0.68132085 -0.4150422 -0.24934183 -0.09412609 0.36635223 -0.12303569 0.26257285 -0.45037675 -0.121292375 0.20026265 0.22722806 -0.35421503 0.25610343 0.18539642 -0.18108532 -0.1167317 -0.031497 0.08927457 -0.22970971 0.094533436 -0.36582553 0.44929478 -0.19909924 -0.443996 0.1615477 -0.08260831 0.13776916 -0.56887573 -0.26955736 0.04224782 -0.099351756 -0.19594207 0.25647733 0.51120174 0.033669632 0.5709047 0.39873013 0.44184563 -0.18767208 0.33011866 0.5092734 -0.51189137 -0.26045474 -0.79399914 0.39231122 -0.45942107 0.33108747 -0.6635615 -0.29797232 0.36139572 -0.76192886 0.22790864 -0.01247599 0.20406994 -0.37262762 -0.757349 -0.15826754 -0.19389829 0.7537935 -0.8258045 0.44177592 -0.18801536 -0.13804764 -0.49789596 0.20641139 0.52398723 0.07752299 -0.17018414 0.11771452 0.67698205 0.046205267 -0.47729552 -0.058590706
2614 -0.5330501 0.8894534 -0.6619995 0.29989845 -0.21157117 0.3806429 -0.22933897 -0.22767612 0.21606658 0.2264622 0.103658915 0.17869057 -0.016763492 -0.12390698 -0.7059447 0.35313192 -0.26064813 -0.15025748 -0.38225535 0.6902786 -0.48794654 0.75093204 -0.00052757375 -0.6675127 0.5736898 0.044647004 -0.28920022 -0.36509606 0.5611078 0.063711494 -0.29035076 -0.55535704 -0.011527415 0.6681822 0.058251914 0.14746526 -0.22150356 -0.5309887 0.40051302 0.08202548 -0.6322345 -0.62469196 -0.1552581 0.16886322 0.95039797 -0.5230648 -0.5939041 -0.68741447 -0.24533452 0.10148792 -0.28813782 -0.2462783 0.22561729 0.2460866 -0.24205428 -0.41871062 -0.52003884 -0.33985597 -0.09150232 0.3651375 -0.14803125 0.26361987 -0.33978087 -0.10911171 0.17097309 -0.09248794 -0.4450072 0.1303068 0.27794197 -0.22497928 -0.21933088 0.054535113 -0.109345496 -0.31105387 0.18979268 -0.32211837 0.25865424 -0.1486035 -0.29265717 0.08386805 0.02133749 0.088064134 -0.41870204 -0.15101197 -0.115444675 -0.15566061 -0.0849042 0.16040576 0.083976075 0.008598308 0.7097316 0.49903417 0.5139005 -0.23396339 0.18616413 0.43631202 -0.497449 -0.4739356 -0.7702868 0.27150652 -0.31883916 0.32499036 -0.56352365 -0.4974583 0.27258292 -0.64174014 0.17592035 0.08439807 0.20072958 -0.3823874 -0.81686646 0.026562134 -0.27144942 0.7509767 -0.7806577 0.42231685 -0.2516032 -0.06595564 -0.21303423 0.27604032 0.5882311 -0.03975192 -0.06611677 0.13069806 0.6004677 0.024173634 -0.35005862 -0.06372234
723 -0.5518703 0.90277666 -0.58112866 0.09980915 -0.25895604 0.21568748 -0.48568025 -0.2046547 0.30328214 0.18460715 0.3843271 0.010112269 0.05687305 -0.079274975 -0.7147141 0.46374166 -0.7418763 -0.08291322 -0.20352429 0.7310702 -0.581284 0.66456026 0.007100716 -0.735423 0.5730109 -0.027613534 -0.008364336 -0.3984504 0.5488614 0.09637831 -0.14094813 -0.75427246 -0.006619692 0.7801071 0.08153974 0.08742692 -0.12767653 -0.58559644 0.57224387 -0.0084396545 -0.7722489 -0.5519795 -0.072614126 0.42863548 1.1144366 -0.57039696 -0.7234972 -0.64470357 -0.2733799 0.14217043 -0.45907602 -0.33049238 0.32644886 0.108753406 -0.34239122 -0.4997099 -0.57814 -0.12465061 -0.077239014 0.22282955 -0.15015985 0.32384807 -0.44750315 -0.10504077 0.20587951 0.19462785 -0.37561548 0.101151004 0.21712674 -0.40092242 -0.10968617 0.09441003 0.010666277 -0.18046802 0.13186485 -0.32476667 0.4212936 -0.2884126 -0.3287749 0.14920428 0.009742315 0.22357625 -0.5139443 -0.11619827 0.02993516 -0.16505055 0.03891258 0.2744849 0.36313653 0.07490888 0.58419144 0.40107453 0.4800492 -0.29949453 -0.041910253 0.4711026 -0.6858399 -0.23938748 -0.7484123 0.3552311 -0.41648957 0.3363968 -0.85319096 -0.3725107 0.39326796 -0.5524532 0.114954874 -0.055042405 0.08389695 -0.40290275 -0.56588763 -0.0408179 -0.36355323 0.92225355 -0.729295 0.5083454 -0.2442434 -0.124947414 -0.43097568 0.2883518 0.60225344 0.027124101 -0.23881045 0.12519978 0.62404853 0.107853234 -0.5969847 -0.0838657
10 0.3694691 -0.2215634 0.11741958 -0.15400179 0.04109057 0.36269325 -0.01316983 -0.20335743 0.5103772 0.103637576 0.6782028 0.1342995 0.48991916 -0.23744369 -0.72710216 -0.23496504 -0.08008443 -0.7751048 -0.38764405 0.80358976 0.0482092 0.5448988 0.385607 -0.3476366 0.6097985 0.38759375 -0.37902838 -0.039486174 0.36621085 0.42328858 0.47088268 0.080095306 0.00018641092 0.39084122 0.14429975 0.36002678 -0.38236666 0.45162174 0.041572925 0.66489357 0.057291683 0.8160604 0.33742428 -0.50102943 0.18591309 0.07196701 0.13020816 0.21888131 0.21963239 -0.09287621 0.6313376 0.59209406 -0.88930875 -0.14345992 -0.64593965 -0.22012727 -0.2255641 0.25096604 0.8116546 -0.25121328 0.461944 -0.04096569 0.012717486 0.005531186 0.4743798 0.5527504 -0.6021925 -0.05237364 0.18816966 -0.19753602 -0.56010365 -0.12158642 -0.2986534 -0.078092605 0.36473528 0.06906564 0.035741657 -0.009411165 0.37814113 0.275035 0.23473468 -0.74639535 -0.3791834 -0.19506626 -0.22305824 0.08383793 -0.45321625 0.20820984 0.081818916 -0.1389022 -0.08032062 0.13351218 0.31088173 -0.38799497 0.6486772 0.37262797 -0.67452854 -0.22737496 0.26432917 -0.11572602 -0.478823 -0.29871708 -0.2729996 0.07841655 -0.24944901 -0.14137031 -0.2587185 -0.17589235 0.76378936 -0.9787744 0.20600829 0.10407005 0.2012258 -0.42864215 -0.47175872 0.050077904 -0.17898811 -0.42811188 -0.1275814 -0.04553969 0.14585692 -0.6305758 -0.12891148 -0.19417483 0.67705 0.08897574 -0.09938641 0.26135775
476 0.31529075 -0.23909824 -0.021115769 -0.21825558 0.0057652094 0.33508605 0.3883755 -0.03371187 0.14541146 0.0526502 0.48895627 0.1761701 0.13414289 -0.42325917 -0.5474561 -0.2952389 -0.18634786 -0.79232067 -0.1382523 0.6270228 -0.07846633 0.2348395 0.09875128 -0.25737825 0.41527885 0.23911814 -0.30905384 0.2502581 0.15894572 0.3204904 0.39218357 0.12738627 -0.21380676 0.38921064 0.2792047 0.4034684 -0.527372 0.34392208 0.12563045 0.51685154 -0.09106384 0.5638484 0.33184844 -0.33750927 0.11745916 0.06442583 0.029002532 0.43713364 0.039657217 0.055426 0.42045373 0.31100246 -0.627927 -0.1343792 -0.3093766 -0.095529005 -0.47394904 0.0041382755 0.6333142 -0.15711358 0.32627383 -0.08604813 -0.12538752 0.054743372 0.15217449 0.42010295 -0.61118454 -0.08581017 0.26735216 -0.19560198 -0.58892345 -0.15145169 -0.13406752 -0.18717062 0.25363183 0.108685076 -0.0145889325 -0.17588261 0.32143342 0.2735664 0.23529306 -0.42141885 -0.14413628 0.06873057 -0.22252284 0.040982444 -0.3653699 0.21902537 0.042591088 0.13638729 -0.016104072 0.046315152 0.15224375 -0.41234323 0.38125962 0.4326586 -0.332071 -0.13555028 0.109089755 0.05119382 -0.39496768 -0.26474375 -0.068308316 -0.22271414 -0.059312414 -0.1840484 -0.2902235 -0.095761515 0.41850716 -0.9484995 0.09492661 0.14662474 0.04519696 -0.30275205 -0.40810347 -0.14495085 -0.049081016 -0.31549636 -0.25460356 -0.08424 -0.063692905 -0.5580146 -0.12525791 -0.4410362 0.7012742 0.22547564 0.081984475 0.27976188
2545 0.3013035 -0.16239703 0.18183261 0.0043607494 0.11228047 0.44489592 -0.10908737 -0.09316273 0.48121825 0.06915652 0.79042095 0.25194877 0.60552806 -0.32758182 -0.6325817 -0.2255542 -0.08625628 -0.7431801 -0.27314788 0.8980774 -0.060238715 0.61872536 0.28794897 -0.30440065 0.71853447 0.42420274 -0.34615245 -0.16032103 0.38080555 0.35292903 0.5526905 -0.04227114 0.04979778 0.30988503 -0.0032743225 0.36100954 -0.29890177 0.6065419 -0.043436576 0.65067345 0.06298501 0.8989645 0.24325357 -0.48161176 0.02413854 -0.019176587 -0.122351766 0.21749714 0.31999776 0.08796929 0.51654255 0.49034113 -0.8790202 -0.20608063 -0.59873134 -0.21796326 -0.12310807 0.29433995 0.74023855 -0.28141546 0.33385423 -0.07102168 -0.056094695 -0.028080825 0.401296 0.5503845 -0.77990085 -0.057152532 0.059749387 -0.20837194 -0.5488543 -0.27258435 -0.3419269 -0.10680314 0.20345938 -0.028860256 0.058066405 0.0067268824 0.21724024 0.3737712 0.32460472 -0.7061131 -0.48243606 -0.2578365 -0.2838033 0.16117685 -0.45343557 0.31998783 0.09458616 -0.13301803 0.12390263 0.091353714 0.48300737 -0.38307196 0.66602397 0.3706235 -0.47710136 -0.22086646 0.2522697 -0.09314726 -0.5704764 -0.17118359 -0.35372698 0.118803866 -0.44127217 -0.053578798 -0.25930476 -0.14013803 0.79648715 -0.8184699 0.1644032 0.24649352 0.13805817 -0.2848969 -0.3464755 -0.048893612 -0.2808111 -0.46102878 -0.22851963 0.04520006 0.19010848 -0.5651945 -0.042958014 -0.118888944 0.8516961 0.04913385 -0.17367694 0.27956724
11 0.06838176 0.031928066 0.1528106 0.24862777 -0.2721273 0.01143976 -0.5010842 -0.059599727 -0.39371437 -0.55006284 0.2362591 -0.3455168 -0.010686712 -0.013167672 0.007188457 -0.3711277 -0.23882642 0.33787736 -0.34622112 -0.026255632 -0.70420635 -0.24414943 -0.25705376 -0.979199 -0.13384105 -0.46833682 0.0053382823 0.04072578 -0.20704444 -0.079462275 0.22030085 -0.7228666 0.24945094 0.08709163 -0.19252697 0.19146968 0.03549538 0.3512374 -0.0696541 -0.032859445 0.08698893 -0.108667895 0.0454881 -0.4081599 0.17631523 -0.28659505 0.10190673 -0.22973 0.28292897 -0.23915775 -0.42264262 0.077715635 0.59316534 -0.9523492 -0.50820976 0.31021506 0.29763728 0.17039178 -0.30300224 -0.14446875 0.065077655 -0.26047966 0.09921536 -0.49679452 0.028327823 0.7842419 -0.14103782 -0.15850894 0.23387046 -0.3695249 -0.48853746 -0.4610787 -0.3849603 -0.087577134 0.10876559 -0.8890638 -0.19289003 0.065987535 0.007050101 0.2746248 0.17124079 0.15910584 0.14008181 -0.34745225 -0.5421507 -0.5555452 0.08096995 0.2376681 0.014528276 -0.17972007 -0.042904183 -0.022952287 0.67554617 0.50814795 0.5711119 0.67735326 -0.015736671 0.20064941 0.22010763 -0.41118222 -0.73665535 0.030541798 0.21284135 0.7673674 0.5168281 -0.34868035 -0.01073338 -0.1295547 -0.20086046 -0.14307588 0.032717858 -0.34857148 -0.04953367 0.40193525 -0.13742892 0.3580895 -0.15903315 -0.5982089 -0.088379495 -0.19144958 0.5841404 0.27432036 -0.436216 0.06017309 0.21106684 -0.032338098 -0.19988695 -0.014493151
1655 -0.57636124 0.09925018 0.093447275 0.22248167 -0.25603953 -0.16033162 -0.16789933 -0.050391812 -0.45461148 -0.21045604 0.3174896 -0.21818577 -0.06996233 0.14982593 -0.19349015 -0.24884194 -0.07104527 0.40333903 -0.29578018 0.37149656 -0.49115747 -0.24196766 -0.19936897 -0.884192 0.14475577 -0.29756817 0.13573739 0.22177526 -0.29640126 0.08677304 0.22454704 -0.71786207 0.6523157 0.1561856 0.027982803 0.029927028 0.10932157 0.30834422 -0.18594673 -0.022569828 0.18852663 -0.16042027 -0.082274064 -0.22663508 0.504092 -0.1418322 0.14356206 -0.2046832 0.2476589 -0.32409868 -0.13263752 0.031302217 0.37800884 -0.8500363 -0.44299686 0.10938016 0.7224375 0.2193194 -0.39255473 -0.19873196 -0.011858769 -0.086763054 0.240834 -0.37226027 -0.13335116 0.6606751 -0.16381362 -0.33037555 -0.13100027 -0.2480527 -0.19207591 -0.54377824 -0.44528177 -0.21653599 -0.11222914 -0.969372 -0.029171668 0.06727954 0.14554586 0.26170275 0.02500696 0.004333313 0.58554095 -0.07301194 -0.27787295 -0.61080635 -0.059709113 0.02497248 -0.08017943 -0.41221532 0.051155575 -0.340539 0.5244206 0.4647709 0.3958311 0.45657188 0.02077541 -0.17712565 0.008477237 -0.453798 -0.27271384 0.07508373 -0.15308845 0.6470922 0.46957526 -0.26522726 0.1440209 -0.18869752 0.24604185 -0.14884472 0.027911596 -0.1070634 -0.10828557 0.017555436 -0.2839833 0.26041195 0.05672288 -0.5849162 -0.035850417 -0.21877584 0.44317928 0.24598137 -0.5413826 0.06483273 0.24944428 -0.19771452 -0.1062991 -0.19064124
1839 0.39938492 0.08312044 0.16616379 0.14669283 -0.27834308 0.106271274 -0.7909155 -0.011606995 -0.32741964 -0.73974186 0.03339776 -0.26902902 -0.18201761 -0.18105854 -0.060487736 -0.41423547 -0.21337403 0.12708895 -0.4595407 -0.07398927 -0.38857493 -0.32364735 -0.36233643 -0.8454491 -0.4177346 -0.43845734 0.066272676 -0.22438763 -0.22205022 -0.15546721 0.15085734 -0.69462955 0.024593927 0.103770345 0.0048631034 -0.026512608 -0.18905176 0.50715125 -0.12389591 0.009257736 -0.08156596 0.05200163 0.443428 -0.17284463 0.3858828 -0.22465074 0.07305632 -0.5646614 0.2848722 -0.30841312 -0.11296087 -0.013203881 0.4116446 -0.55685574 -0.65882504 0.5117512 0.11460623 0.15677069 -0.2226094 0.057021692 0.07414856 -0.37628993 -0.07978953 -0.58495754 0.31011975 0.77898264 -0.19163297 -0.34466392 0.28460443 -0.16512154 -0.85781693 -0.5074549 -0.58068806 -0.4425954 0.4433287 -0.82334745 -0.044525642 0.009903875 -0.25866115 0.2991196 0.14494635 0.19073418 -0.110619515 -0.20996122 -0.3232777 -0.68967324 0.071657635 0.25837097 0.06305945 -0.32446933 0.12602988 0.028011404 0.6182091 0.33306828 0.328648 0.58325773 0.07252151 0.42909282 0.48432884 -0.38531312 -0.8724102 0.03394245 0.27008727 0.8914694 0.31456146 -0.063320614 -0.2628807 0.115596004 -0.23989744 -0.24922246 0.070917174 -0.06523317 0.07559435 0.27756488 -0.1239107 0.26843655 -0.34590212 -0.21590944 -0.17590944 0.068251304 0.76113445 0.37136158 -0.3088818 -0.15515266 0.20118144 0.06151677 -0.122255 0.2696158
12 0.53216463 -0.7864657 0.07202083 0.09637672 -0.35213035 -0.48090646 -0.6114604 -0.8921685 0.13560222 -0.0878203 0.34325856 -0.031132704 0.504103 0.028656142 -0.4054208 0.04847887 -0.54813015 -0.3629009 -0.95827824 0.7842275 0.16489737 -0.17285149 -0.4628953 -1.1164469 0.5245396 0.051104624 -0.91634125 -0.3563454 0.67174643 0.5883323 0.17673597 -0.79994446 0.06940635 1.2410792 0.26448148 -0.7402555 0.75644594 0.46581617 -0.16587923 0.48921508 -0.1550353 -0.5923014 0.03767681 0.27563342 0.22950386 0.047037203 -0.8847416 -0.7162928 0.11013747 0.023285832 0.69180334 -0.3190224 -0.23211145 -0.47355533 -0.24181606 0.38777423 0.23793778 -0.010648199 -0.6379171 0.2997668 -0.48992488 -0.028876334 -0.48602158 -0.2792047 -0.41761988 -0.19911678 -0.21156466 0.8923977 -0.55508417 -0.2872484 -0.14531703 -0.4499241 -0.15787935 -0.12394461 0.5101144 -0.9027826 -0.24430585 -0.16946834 -0.7457333 0.687851 0.77950156 0.04918403 -1.2819631 0.3355029 -1.0488107 -0.77874684 -0.67037797 0.67189276 0.78109115 -0.39584908 1.214748 -0.49935082 0.18976639 0.28528273 -0.024272146 0.57458293 0.01810177 0.004522727 -0.082781225 -0.21963222 -0.3439202 -0.33561078 -0.69969344 -0.23971134 1.1434232 -0.5327592 -0.3073634 -0.18987247 0.4979948 0.17323321 0.36602172 0.16877317 0.30824196 0.8872009 -0.4769781 0.47606558 -0.294089 0.12091666 -0.41252795 -0.0925209 -0.4185752 -0.25260293 -0.6104411 0.6283668 1.1793033 0.05503274 -0.7912994 0.098794825
2661 0.470804 -0.7184134 0.039073944 0.08104017 -0.3389893 -0.44626477 -0.5776358 -0.84293157 0.13847896 -0.08891421 0.31154007 -0.05399965 0.44845918 0.026828792 -0.39666075 0.06950406 -0.50266397 -0.3438031 -0.9239389 0.7584995 0.16283675 -0.1533216 -0.4310704 -1.0592742 0.4955645 0.037436403 -0.8512201 -0.33845314 0.60539067 0.5346423 0.15689862 -0.76990557 0.039757036 1.1696801 0.24124867 -0.7024221 0.7043403 0.4221661 -0.15183166 0.45544606 -0.18490498 -0.5713558 0.027857045 0.26623198 0.22415054 0.056354187 -0.8567533 -0.6739566 0.08418303 0.022365985 0.67586315 -0.33777416 -0.2158813 -0.42111868 -0.2041012 0.35512477 0.1889969 -0.016294599 -0.5925276 0.27553228 -0.44765088 0.01778353 -0.4678146 -0.25414956 -0.37124023 -0.18086708 -0.20034218 0.8400817 -0.50958633 -0.26643655 -0.12374533 -0.4200545 -0.12606318 -0.11724156 0.49122396 -0.85714966 -0.23056568 -0.16488147 -0.73475164 0.6369295 0.71055186 0.036771335 -1.2092249 0.32415152 -1.0128571 -0.7495994 -0.6241655 0.65289086 0.73709226 -0.35807908 1.1547992 -0.44661748 0.19007176 0.28026927 -0.004907528 0.54222715 -0.0029090052 -1.2839733e-05 -0.073179245 -0.15083373 -0.32929057 -0.31585112 -0.65425545 -0.23826465 1.0655097 -0.50603336 -0.25909907 -0.16511145 0.45826784 0.16857468 0.31764066 0.18179137 0.27773133 0.8477133 -0.48978862 0.43729043 -0.27300602 0.12868312 -0.419788 -0.07697871 -0.3756314 -0.21227452 -0.55964893 0.62567025 1.1001164 0.06270996 -0.74460065 0.08575636
1001 0.4734063 -0.7229196 0.04139584 0.078584805 -0.32969207 -0.4647336 -0.562866 -0.8437744 0.14689185 -0.09588349 0.30338603 -0.06224503 0.4699142 0.025329435 -0.38417938 0.074462436 -0.5243745 -0.32361388 -0.93585455 0.7377952 0.16913359 -0.16663094 -0.43847004 -1.056625 0.51142114 0.043492522 -0.8707574 -0.3468799 0.63144654 0.53944737 0.15616737 -0.7906114 0.04698521 1.165348 0.25786462 -0.7070008 0.7014665 0.41899997 -0.16642946 0.45177037 -0.18145013 -0.55476457 0.036745463 0.27128032 0.21778709 0.056531765 -0.8488271 -0.6736491 0.099675275 0.005307526 0.67145413 -0.3093674 -0.21150596 -0.4349402 -0.21247302 0.35591918 0.19680718 -0.01914265 -0.59256214 0.2712432 -0.46360156 -0.0054429653 -0.4880854 -0.2570601 -0.38153464 -0.18866718 -0.18386321 0.8554961 -0.5054939 -0.27322325 -0.14599149 -0.4225244 -0.123210765 -0.09685886 0.47262457 -0.86466086 -0.23859046 -0.18630184 -0.7108738 0.63291836 0.72312623 0.03656559 -1.2025309 0.33545947 -0.99716556 -0.72973037 -0.6373338 0.65292627 0.7471522 -0.37540904 1.1628265 -0.44695503 0.18917271 0.2755892 -0.0045817727 0.52034664 0.016110424 -0.0066290023 -0.06798612 -0.14645898 -0.31619325 -0.31405196 -0.6614078 -0.2489308 1.078823 -0.5092814 -0.2608261 -0.17836802 0.46986023 0.16880243 0.31691295 0.16362101 0.28268266 0.8507964 -0.48507306 0.44460648 -0.27704954 0.13580461 -0.40286762 -0.080571204 -0.38285992 -0.20481496 -0.5729262 0.6055981 1.0982703 0.08227969 -0.74707025 0.07923421
1318 0.47222513 -0.7483365 0.056034774 0.07873535 -0.34520274 -0.47251087 -0.6039504 -0.88224715 0.14293402 -0.082679674 0.34375337 -0.034456003 0.47982395 0.02604498 -0.41257423 0.07164138 -0.5142645 -0.34868068 -0.9521666 0.78034055 0.1633044 -0.17302133 -0.44141397 -1.0883628 0.503483 0.04633674 -0.89579237 -0.34645644 0.6450679 0.5795028 0.18195795 -0.7684001 0.070093706 1.1945533 0.26475188 -0.7342512 0.7179099 0.44540656 -0.1831322 0.4848457 -0.18582866 -0.59829587 0.023317132 0.30321577 0.21731476 0.08092548 -0.8898936 -0.68809783 0.09020504 0.03392017 0.6802747 -0.31736547 -0.2460408 -0.43292812 -0.2211763 0.36997348 0.1945437 -0.013472648 -0.61381996 0.26927018 -0.49173057 -0.010225596 -0.49189875 -0.28039396 -0.4050224 -0.17165506 -0.20320272 0.86951137 -0.5047306 -0.27471298 -0.14470787 -0.42288545 -0.12092324 -0.11200676 0.50989485 -0.90575606 -0.23901714 -0.15935794 -0.73358667 0.65736383 0.73682547 0.027210247 -1.2533845 0.3182331 -1.0422475 -0.7849633 -0.65196776 0.69548404 0.7640751 -0.36250064 1.1972332 -0.45254666 0.1718708 0.29368922 -0.014361154 0.5452281 -0.015056021 -0.021959 -0.10744634 -0.16241151 -0.34263942 -0.35764354 -0.6940291 -0.24204646 1.0977238 -0.5225094 -0.28702733 -0.16723287 0.50546575 0.16392195 0.3155491 0.15859185 0.30759478 0.87922883 -0.50001234 0.44152185 -0.2971595 0.16043988 -0.42014584 -0.0674635 -0.38597038 -0.21430887 -0.5547628 0.63737303 1.1550224 0.052734017 -0.76889706 0.10711136
2662 0.50096166 -0.7629255 0.057044055 0.08485096 -0.32862166 -0.4882075 -0.60440034 -0.8765209 0.14251386 -0.09828511 0.3306274 -0.039120115 0.48188087 0.031561363 -0.40507552 0.05889933 -0.52120566 -0.34664944 -0.96058416 0.77760804 0.17767097 -0.18197113 -0.44503045 -1.098347 0.5161928 0.03162948 -0.9184972 -0.35937998 0.6437681 0.5610464 0.17757447 -0.8002443 0.060042407 1.2137612 0.26128206 -0.74410474 0.7202647 0.45397142 -0.17553312 0.47846124 -0.19303854 -0.5870479 0.058723524 0.2825118 0.22738808 0.05253205 -0.8669274 -0.7118192 0.09739659 0.010592403 0.6950866 -0.3244498 -0.23168932 -0.45821005 -0.22144444 0.36888102 0.21172898 0.004385332 -0.6382439 0.26412606 -0.48297414 -0.008837246 -0.4849184 -0.27804074 -0.39629373 -0.19089814 -0.20454428 0.87373716 -0.5368815 -0.25477755 -0.14268394 -0.4304938 -0.14451617 -0.12446684 0.5032419 -0.9004856 -0.24691327 -0.1534353 -0.74609905 0.64361364 0.7634223 0.027033364 -1.2414756 0.32584247 -1.041518 -0.78448284 -0.6510343 0.69624096 0.76952094 -0.3782615 1.2042863 -0.47418794 0.1920569 0.29426652 -0.0035189053 0.5487098 0.00626417 -0.0054828934 -0.08662866 -0.16611218 -0.3365249 -0.34625855 -0.70274955 -0.25377402 1.1264008 -0.5316206 -0.30884552 -0.16147415 0.4833904 0.16330738 0.33153066 0.17519408 0.30718607 0.8718257 -0.51579 0.4471396 -0.28938332 0.1370406 -0.41290495 -0.08898481 -0.3905885 -0.22372219 -0.5901048 0.64374423 1.1625721 0.08304218 -0.7838861 0.10317718
13 0.12334414 -0.0155092245 -0.112479806 -0.21595478 -0.06892796 0.090427585 0.45973238 -0.3335734 0.24357158 0.51238805 0.3895446 0.31173915 -0.27702957 0.29482168 -0.19988923 -0.3348122 -0.05181288 -0.5324558 -0.33870548 0.3327742 -0.4927423 -0.3631529 -0.13180439 -0.09817624 -0.061004866 -0.33067662 -0.16016218 0.5733568 0.22588614 0.28760955 0.26276162 0.014458414 0.595234 0.24727684 0.036447704 0.28316027 -0.16077451 0.18746883 0.6252355 0.5408474 -0.009628291 0.41304564 -0.19113137 -0.2940685 0.28433976 -0.20118658 -0.13841 0.16010123 0.13271129 -0.11425013 0.071968906 0.3054705 -0.18975373 0.07816352 0.13671333 -0.122312225 -0.0008456731 0.14879602 -0.3879275 0.21379441 0.3343632 -0.54282606 0.112250164 -0.4142547 -0.22918414 0.068246745 -0.21988465 0.3679346 -0.072696745 -0.34771422 -0.05442933 0.040934682 0.03965673 0.0132392645 -0.03800712 -0.30368966 -0.23666361 0.0773309 -0.054951534 0.45888188 0.37007874 -0.33478263 -0.18799348 -0.13062917 -0.23897083 -0.34787655 0.19603926 -0.55318016 -0.07246398 -0.58065814 0.076187335 -0.26430175 0.0120893605 -0.17971794 0.24035591 0.18051296 0.2616323 -0.62032753 -0.09509393 0.21636614 -0.3498148 -0.31592685 -0.21176852 0.6846985 0.75987184 0.043684337 -0.23930728 -0.35876995 0.12300318 -0.2842477 0.5600799 -0.035642006 0.38694206 0.4335564 0.050795242 -0.13104528 -0.28790602 -0.16720827 -0.19102918 -0.09153781 0.30668503 -0.14270078 -0.20373301 -0.17171283 0.4785847 0.14598645 -0.34235823 0.048342366
1810 0.2743461 0.25656593 0.14242361 -0.28328288 0.12828998 0.10982785 0.21351184 -0.6372844 -0.18435468 0.21114555 0.30365998 0.38342884 -0.056812897 0.26594216 -0.03501256 -0.33642438 0.13332397 -0.30199593 -0.3081854 0.63187945 -0.2894486 -0.2953521 -0.44248968 -0.3068583 0.12240534 -0.0663498 -0.27328968 0.6676613 0.05406006 0.05265564 0.19742592 -0.011843491 0.12439668 0.10434484 0.12133307 0.1306649 0.0130102765 0.40696463 0.19745621 0.41685688 -0.10156326 0.056633644 -0.09581115 -0.13309786 0.018013552 -0.07630716 0.014998963 0.2902849 0.40101594 -0.010707485 0.12814839 -0.008797476 -0.20933269 0.09676201 0.078508705 -0.3452004 0.22984292 0.061662693 -0.51802224 0.13859586 0.41012314 -0.49382427 0.1517921 -0.4988017 -0.08427869 0.24970916 -0.1927303 0.2331621 0.11552301 -0.32836378 -0.10819727 0.25180572 -0.06412757 -0.001839702 0.123181 -0.39991587 -0.067471944 -0.2705376 -0.18042816 0.21633483 0.40929514 -0.33130825 -0.05019081 -0.25641513 0.06994275 -0.22583464 0.5239112 -0.21509062 -0.083624825 -0.11975666 0.37987158 -0.43273938 0.08379827 -0.43560252 0.2799058 0.50778216 -0.17148502 -0.5465153 -0.44161046 0.21899801 -0.15327571 -0.12184277 -0.29526645 0.66807115 0.45399576 0.055395685 -0.44125804 0.13676478 -0.07022951 -0.09207889 0.14548694 -0.31977656 -0.026357569 0.37657648 0.43743417 0.11730485 -0.036496118 0.0065848255 -0.051890936 -0.21730573 0.4479816 -0.024461659 -0.06868733 -0.13730091 0.4689828 -0.19424586 0.1825671 0.20545287
1701 0.1015583 0.21866374 -0.32913563 -0.058802944 0.11461313 -0.18079042 0.18512505 -0.074602924 0.33559504 0.6994576 0.28271258 0.08702568 -0.06326159 0.20460829 -0.048637275 -0.19735758 -0.3738643 -0.40283945 -0.07042469 0.3960707 -0.26960358 -0.015742937 -0.26882672 -0.03706842 -0.04691265 -0.28355792 -0.16126047 0.34146324 -0.15709975 0.16589251 0.10267518 -0.14583416 0.28434688 0.227186 0.05374601 0.37738574 -0.3094129 0.10020017 0.743172 0.4755155 -0.038079504 0.14077447 0.17763028 -0.009089403 0.3161461 0.08615762 -0.12173696 0.088228896 -0.10494112 -0.116555184 0.15063208 0.30915865 -0.14205582 -0.039259657 -0.19049157 -0.14517653 0.041790947 -0.04755489 0.33919853 0.15028045 0.19448797 -0.118551135 0.21805555 -0.16405322 -0.12974495 -0.06778885 -0.19282344 0.2695678 -0.09285019 -0.2634301 -0.38330832 -0.1314758 -0.29515508 0.21749404 -0.24326368 0.14898969 -0.14057475 0.11137072 -0.10246514 0.15423597 0.3966744 -0.018547714 -0.18189794 -0.32965544 -0.51328164 -0.08534874 -0.0770619 -0.37483042 0.3324367 -0.2240622 0.31812438 0.011688063 0.00033537333 0.306394 0.44489124 0.2028079 0.032379605 -0.36311024 -0.0050010765 0.1607017 -0.22323042 -0.15980658 -0.295968 0.3060053 0.7342952 -0.028258054 -0.26589257 -0.4164625 -0.011985924 -0.10610609 0.30279037 -0.22910474 0.1526354 0.42618856 -0.060073588 0.00045668625 -0.4126872 0.0065726177 -0.23736978 -0.2000601 -0.05286272 -0.37517065 -0.47266254 -0.19929494 0.49901903 0.30850762 -0.2561803 0.026374714
14 0.18587603 -0.23260462 0.4636423 -0.29505268 -0.21485236 0.69325477 -0.32627192 0.2547947 0.07339806 0.10368476 0.1989809 0.5987167 0.058440827 -0.03027638 -0.46368366 -0.280043 0.15379365 -0.3883355 0.036246087 0.4681275 0.016256006 -0.074862435 -0.40506688 -0.26073426 -0.21269916 0.035809655 0.074108325 0.70542455 0.1785598 0.74482685 -0.10680008 0.215062 0.56020266 0.20920338 -0.16202362 0.51373863 -0.4545032 0.2981112 0.11464782 0.26196098 -0.30750868 0.25720686 -0.15216933 -0.14252694 0.13881435 0.14376052 0.4546091 0.00026910857 -0.05821394 -0.18844344 0.47370005 0.34334135 -0.031216223 -0.124210656 -0.36425102 -0.31315958 0.27004787 -0.0011955024 0.03372872 0.0030685652 -0.15025826 0.0078059705 0.063823536 -0.040766314 0.4973835 0.022560673 -0.31523976 0.41129142 -0.12834463 0.2034945 -0.265854 0.22464582 0.015669331 0.030704258 0.15933342 -0.52095807 -0.45737737 -0.2552986 -0.36826944 -0.15458933 0.16260888 -0.1992827 -0.19634214 -0.56330955 -0.56201625 -0.3611059 0.23381603 0.014538301 0.3578125 -0.5795626 -0.091023795 -0.55482775 0.32242015 0.36585683 -0.25058657 -0.09501669 -0.41897258 -0.15639712 -0.38914984 0.09886649 -0.050166063 -0.4403771 -0.42538345 0.6556344 0.6569948 0.15583509 -0.49143785 -0.32848594 -0.03773725 -0.47862393 0.38050684 0.02447625 -0.010669185 0.5890997 -0.2055945 -0.14453161 -0.13694328 -0.38991135 -0.5523422 -0.061084308 0.07869549 -1.0005175 -0.08314176 -0.21088183 0.096214 -0.058462914 -0.27914476 -0.19048245
2034 0.16961603 -0.22892806 0.36054996 0.22873363 -0.16321775 0.29886973 -0.15718527 0.045570582 0.13474101 0.023205206 0.15880366 0.65196556 -0.19391824 0.2064548 -0.3340406 -0.24715592 -0.14394845 -0.30668646 -0.060385544 0.78046185 -0.035381 0.13713945 -0.27742827 -0.39632624 -0.2317725 0.12377179 0.09380834 0.7004593 0.11314623 0.49074078 -0.0968484 -0.005236102 0.5846634 0.28775436 -0.119896576 0.19747923 -0.057196 0.2617774 -0.18229938 0.22092122 -0.39209786 0.17272738 -0.0074111046 0.09587111 0.45794752 -0.06438003 0.4188117 0.05490243 -0.0794713 -0.015709186 0.03083061 -0.051488698 0.26114398 -0.36559942 -0.24126506 -0.10040836 0.15878862 0.52968377 -0.31095064 -0.07101156 0.16069394 -0.19620046 -0.19094259 -0.19666032 -0.15587385 -0.12461819 -0.2634111 0.5078297 -0.24430975 0.07277484 -0.24057785 0.14668159 -0.2669179 -0.006999449 -0.37188032 -0.5032676 -0.19744031 0.004469951 0.18132928 -0.07850705 -0.31440485 0.09094899 0.118575975 -0.35172695 -0.25579482 0.049533024 -0.25015247 0.0030588557 0.28168893 -0.20739433 -0.13501903 -0.041813 0.49949124 0.20619245 -0.1177133 0.14443338 -0.30616587 0.05480444 -0.45576394 0.016113041 -0.38276905 -0.20135663 -0.12404806 0.55781513 0.17706248 0.03474207 -0.8505023 -0.31510994 -0.122235335 -0.08191833 0.3999625 -0.19177184 -0.42787874 0.09080242 0.08414134 0.3265993 0.008675777 -0.4815367 -0.109225035 -0.39444774 -0.15815064 -0.37140626 -0.3447106 -0.28123596 0.3438708 -0.18277253 -0.013629984 -0.08894218
2075 0.4553302 -0.1727418 0.46848875 -0.42957184 -0.23820968 0.5796844 0.10334877 0.025420884 -0.10456618 0.29700437 0.16808054 0.60075366 0.30901906 -0.13461973 -0.52827835 -0.19569725 0.22047476 -0.4927403 0.31927457 0.36450097 -0.059181374 0.22020757 -0.24501649 -0.26116356 -0.09128818 0.22858705 -0.14315082 0.60522366 0.07896521 0.67281115 0.09642244 0.115973264 0.49624786 0.32365716 -0.3174278 0.15732674 -0.6346661 0.45300564 0.48327354 0.029085863 0.24716388 0.2236138 -0.18156703 -0.05045135 0.4312215 0.2438835 0.41038486 -0.11470283 -0.011483205 -0.37437072 0.653118 -0.01448247 -0.30622414 0.07847956 -0.5604084 -0.40958363 0.47332156 0.018054152 -0.26216212 0.1633507 -0.34251714 -0.01947778 -0.060255587 -0.18490687 0.3362933 0.19854027 -0.4900784 0.48594913 0.04242638 -0.045802332 -0.6506641 0.11930399 -0.08554668 -0.05681143 0.30460876 -0.63567954 -0.4487505 -0.13301508 -0.51188356 -0.010519306 0.21630627 -0.28530297 -0.31782725 -0.50288504 -0.5585968 -0.5104927 0.63488406 -0.06848439 -0.011646781 -0.02915357 0.07128472 0.020388592 0.4575358 0.031633526 -0.22717695 -0.13642314 -0.2743793 -0.033206318 -0.44673273 0.18479054 -0.055023845 -0.4375867 -0.60073584 0.6918444 0.4285784 0.156577 -0.07015881 0.19068721 0.011986955 -0.88276905 0.23008937 -0.2642717 -0.044939235 0.5084396 -0.24926956 -0.27120227 -0.16514698 -0.13971691 -0.4078765 0.060713593 0.2399812 -0.8974667 -0.23815747 -0.07171281 0.24335623 0.15256989 0.046440676 0.20361197
158 0.29618675 -0.12540597 0.2163087 -0.042141 0.002210599 0.38477603 -0.011103036 0.09210594 0.16912113 0.11376495 -0.035565097 0.62545675 -0.14995025 0.047660664 -0.29710203 -0.35800454 -0.1669478 -0.4822408 0.041544393 0.3393702 -0.13093446 0.062361363 -0.21760215 -0.16547464 -0.13088374 -0.1102455 0.25475654 0.8047984 0.06307291 0.5113045 0.146545 0.021683851 0.71527344 0.31308353 -0.014406626 0.57670355 -0.44909656 0.35570404 0.4261812 0.0022241056 -0.1835254 0.30708432 0.108293355 -0.1367019 0.07166346 -0.18619314 0.21935388 -0.23421708 0.094523445 -0.44091272 0.38526303 0.16856168 -0.033557348 -0.009797819 -0.1505484 -0.2582749 0.32148752 0.13223444 -0.18405542 0.1652785 0.051488638 -0.015514166 0.20586717 -0.0234062 0.29423314 -0.23854043 0.045691557 0.69680524 -0.28823066 0.16332908 -0.549151 0.08368299 -0.17835702 0.43072596 -0.26769572 -0.51061827 -0.48978263 -0.42313486 -0.35362583 0.074135184 0.061475042 -0.016591636 -0.112550944 -0.45413467 -0.17986493 -0.44268516 0.08104402 -0.23013063 0.31621882 -0.5122941 0.054982927 -0.14963399 0.16335054 0.50702304 -0.046714935 0.111523345 -0.30396214 -0.35839227 -0.45649165 -0.11460535 -0.08782815 -0.006800128 -0.5745356 0.83388865 0.61602956 0.14510477 -0.37137154 -0.3920607 0.060840447 -0.4337013 0.21020281 0.07844983 -0.09400837 0.69066876 0.045835353 0.104558334 -0.292968 -0.35540152 -0.27979535 -0.23307322 -0.19663434 -0.81941545 -0.24776062 -0.03966528 0.1190553 0.032180138 -0.3531643 -0.06584803
2077 0.1458616 -0.16341159 0.24658915 -0.43832383 -0.34351188 0.59765834 0.08993282 -0.024952961 0.10744818 0.19331849 0.4038639 0.4540747 0.10103777 -0.20008092 -0.5644851 -0.2900809 0.22081564 -0.27760875 0.37559265 0.4307813 -0.2744112 -0.21612798 -0.5233985 -0.32913455 -0.21848015 0.25358987 0.10524768 0.23786904 -0.058145445 0.7724051 0.17812243 0.31964853 0.3280348 0.2243141 -0.11763098 0.086208604 -0.47720572 0.14117715 0.121703885 0.17540371 -0.036565755 0.14097196 -0.40096858 -0.030028975 0.359128 0.17727159 0.32060388 -0.037069876 -0.12491107 -0.4924326 0.6710906 0.048197057 -0.29872888 -0.064228326 -0.65282 -0.3038631 0.24919619 0.10249514 -0.18505985 0.14557086 -0.49288568 0.02093793 0.28171912 -0.13662226 0.55486214 0.14859559 -0.70149434 0.3639414 0.046670314 -0.09145143 -0.5203877 0.26648015 -0.15757887 -0.08448897 0.2926175 -0.28308994 -0.49685547 -0.102759 -0.42679235 -0.15741897 0.14988531 -0.13925092 -0.33125392 -0.17193238 -0.33264637 -0.34446293 0.31971443 -0.050418958 0.36501735 -0.24675481 0.06431614 -0.3382002 0.3996794 0.1956786 -0.13028932 -0.17504673 -0.3607503 -0.10400434 -0.3123928 0.11435369 -0.0294549 -0.27846098 -0.40398347 0.7540228 0.37751684 0.49470294 -0.27611145 0.19382536 0.15389326 -0.641114 0.111374 -0.50708264 -0.111111745 0.49511126 -0.35735744 -0.26180813 -0.04725156 -0.31701896 -0.7499032 -0.066734195 -0.1530847 -1.0082593 -0.06245293 -0.16727535 0.5169163 -0.0053758593 -0.040620167 0.017564619
2668 0.17723507 -0.070078254 0.4947011 -0.3434511 -0.16102546 0.56878185 -0.110923 -0.028864712 -0.10614112 0.258889 0.44086275 0.56075764 0.23170885 0.039069876 -0.74133927 0.02187307 0.1504443 -0.4620954 0.26404032 0.6010808 0.1586253 0.09906817 -0.36318818 -0.47002557 -0.16265768 0.07177944 -0.09757018 0.29216623 -0.255468 0.69446915 0.16437742 0.14311431 0.542056 0.35965902 -0.5117953 0.1823542 -0.7641958 0.5585235 0.3670274 0.33702585 -0.03056855 -0.038023826 -0.32461888 -0.16325466 0.15270671 0.08706312 0.3823754 -0.030698119 0.047774784 -0.17345764 0.2908461 0.20363529 -0.28578785 0.254744 -0.26655468 -0.13316996 0.45865008 0.005031135 -0.2505751 -0.21934019 -0.37797046 -0.1622968 -0.007955587 -0.24353713 0.46166617 0.10443951 -0.537781 0.20326407 -0.0882754 -0.03462368 -0.53315586 0.12539099 -0.12210664 -0.18173036 0.24057893 -0.22614522 -0.5098539 -0.22456783 -0.46369806 -0.03728336 0.37727085 -0.06907012 -0.44845054 -0.38831252 -0.46304742 -0.4143348 0.30688754 0.0044926037 0.31403452 -0.09222506 -0.011863332 -0.21981744 0.7095282 0.2845968 -0.110690646 -0.19514826 -0.58480877 0.02755158 -0.20234136 0.18179122 0.21559136 -0.25863084 -0.4994254 0.55863506 0.5534639 0.46772707 -0.042568177 0.24093568 -0.2448912 -0.74192345 0.36295322 -0.4180913 0.23676068 0.4491768 -0.15902941 -0.08898207 -0.042011403 -0.1991036 -0.4846299 -0.08345433 0.091877766 -0.75800127 0.062090956 -0.3789381 0.28299993 -0.06599188 -0.14911394 -0.1406223
15 0.22667582 0.10685706 0.008113782 -0.28416264 0.4128415 -0.4040679 -0.21665697 -0.23590243 -0.21501775 0.5546472 0.4805263 -0.21610321 0.08948909 0.5047998 -0.23507304 -0.0020955305 -0.83405775 -0.41591525 -0.2784212 0.5379508 0.18701784 0.05608015 0.5234718 -0.62022066 -0.2645112 -1.0153928 -0.16967301 0.06399956 0.23437661 0.38837054 -0.1164016 -0.116108924 0.06658772 0.5838966 0.13898605 0.23676357 -0.48445758 -0.4376859 0.28121004 -0.018762354 -0.464342 -0.38639003 -0.37546402 0.35332283 0.4093117 -0.4609617 -0.09098415 -0.2999079 0.1643767 -0.6900896 0.7826529 0.1305792 -0.24865152 -0.37935683 -0.46503076 -0.5358206 -0.20889787 0.1854268 0.036208503 0.11891769 -0.069279805 0.01283384 -0.0053278613 0.30007884 0.037989996 0.23830107 -0.17358354 0.32246557 -0.2829474 -0.13358991 -0.52019227 -0.09009286 0.43564448 0.14989997 0.31339505 -0.6283896 -0.5134835 -0.36840886 -0.3928244 0.30967653 0.31032768 0.114423245 -1.1884861 0.17026514 0.10310383 -0.75089407 -0.024323963 0.084941424 0.20720667 -0.37886152 0.6558935 -0.27220553 0.40401405 0.42324376 0.20729215 0.1640909 -0.11918283 -0.49653745 0.37385094 0.8826052 0.14167005 -0.92511725 -0.24151695 -0.08395084 0.43420386 -0.43407595 0.20512488 -0.23760764 0.004985378 0.6950244 0.8001528 -0.18680713 0.6308975 0.60016817 -0.72915745 0.43430096 -0.46943417 -0.3678747 -0.5559018 -0.5819901 0.20527373 -0.22351594 -0.9002309 0.018101575 0.99042135 0.2391893 -0.28330925 0.2415866
2367 0.39132866 -0.14803074 -0.26775387 -0.33904445 0.28962162 -0.31445593 -0.096170396 -0.06764793 -0.26522207 0.6457254 0.4071292 -0.10668263 -0.21050802 0.27014533 -0.13665032 0.066850595 -0.82522917 -0.026336454 -0.13719773 0.45154783 0.27139464 0.020440591 0.51621944 -0.53395426 -0.07007694 -0.88506436 -0.06915545 0.16901083 -0.031822145 0.3512693 -0.26871464 -0.11799019 -0.062846355 0.55139303 0.38384792 0.1913159 -0.7573966 -0.23567528 0.017731925 -0.10191877 -0.40049297 -0.42395195 -0.46160337 0.4824611 0.40720564 -0.503605 0.03838594 -0.32321975 -0.0040278826 -0.47902557 0.6960368 0.0023325824 -0.24804002 -0.46068376 -0.5454302 -0.47220185 -0.2354432 0.40552908 0.114417166 0.51073235 -0.23986872 -0.14785662 -0.09923997 0.11722249 0.29566497 0.092373885 0.07859375 0.13791873 -0.2597008 0.18045047 -0.42060775 -0.48511606 0.40206182 0.12743059 0.10518142 -0.28539717 -0.4458308 -0.26387218 -0.2794639 0.2793217 0.4061029 0.3026128 -1.0069906 0.1729865 0.28434473 -0.56410193 -0.13940932 0.18163678 0.10940716 -0.776414 0.49837667 0.06689501 0.2299178 0.54472655 0.13203512 0.11808791 -0.13019983 -0.29186025 0.25426826 0.8776777 0.30102396 -0.8553339 -0.10326531 -0.20125823 0.19812831 -0.35880974 -0.0329435 0.0053623146 0.26849613 0.2694852 0.93947685 -0.1374507 0.18458675 0.58087873 -0.6515746 0.29970255 -0.5216826 -0.3407763 -0.69371104 -0.6513609 0.09497424 -0.11386293 -0.95210445 0.0041375426 0.78024024 0.068285786 -0.25892144 0.21010105
1093 0.4661076 0.15642902 -0.054387704 -0.29094934 0.3605541 -0.53690636 -0.2372453 -0.23094898 -0.19921406 0.5277843 0.3919223 -0.15344435 0.012443583 0.6312868 -0.26674122 0.19566454 -0.82246405 -0.5374607 -0.030900339 0.60532486 0.07211997 0.19461492 0.47498256 -0.76117426 -0.29824457 -1.0762262 -0.19126827 -0.018921904 0.24840954 0.19201668 -0.26255324 -0.24358934 0.013207871 0.70940316 0.16823432 0.2248656 -0.47515655 -0.4726491 0.36979413 -0.050247435 -0.68449533 -0.41311598 -0.32488415 0.48654994 0.5492142 -0.5577155 -0.02056164 -0.414364 0.21763077 -0.70756286 0.698711 0.14955476 -0.19078244 -0.41507944 -0.414773 -0.59142727 -0.4167097 -0.00034728914 -0.013900597 0.20720324 -0.053502087 0.08638779 0.1137778 0.41471604 0.16263025 0.24141088 -0.24162018 0.3438651 -0.43863937 -0.08389632 -0.3099034 -0.1892524 0.41471773 0.17988843 0.357263 -0.5994047 -0.5042331 -0.52237904 -0.45221004 0.28778058 0.30813718 0.15301996 -0.8842661 0.14063159 0.09082753 -0.6686126 -0.044654384 0.10049214 0.25389633 -0.36966103 0.73197895 -0.12513517 0.58928853 0.40460196 0.07916793 0.18702692 -0.2929663 -0.43759966 0.34137547 1.0571523 0.14904298 -0.95226735 -0.4346312 -0.11468365 0.5430973 -0.3926799 0.101454996 -0.30649298 0.093157664 0.663968 0.96525896 -0.18019451 0.4642285 0.61961615 -0.5893555 0.33083242 -0.58368844 -0.33335897 -0.5675534 -0.5001363 0.08095388 -0.12345334 -0.9218998 0.20956679 0.933141 0.24701142 -0.3136668 0.25375533
1090 0.2218209 0.03559726 -0.21639107 -0.38158104 0.40467876 -0.47677663 -0.1143186 -0.28865594 -0.22553444 0.59397054 0.43234104 -0.20810029 -0.027002698 0.6161924 -0.20619889 -0.04321591 -0.7471675 -0.39394543 -0.09143416 0.4517188 0.096309595 0.06009659 0.5730072 -0.552385 -0.18812364 -0.9411313 -0.37839314 0.121981725 0.23412088 0.40304 -0.32579848 -0.16570841 0.04701777 0.69345653 0.33125162 0.13759892 -0.46976766 -0.36556974 0.29172042 0.16261391 -0.40339744 -0.37537915 -0.40112185 0.36857003 0.49984357 -0.49116576 0.0258223 -0.15582745 0.13013297 -0.5014192 0.69565344 0.046711124 -0.15952249 -0.3204049 -0.3414878 -0.47727764 -0.21746045 0.23583478 0.074155815 0.12514853 0.011641508 -0.102077186 0.20003654 0.28937215 0.1494108 0.27337304 0.028636275 0.23038654 -0.17744066 -0.10631587 -0.32623568 -0.1355763 0.56702054 0.23333856 0.06545305 -0.44625694 -0.4866139 -0.26557535 -0.31947997 0.43191782 0.2513343 0.0665063 -0.8663356 0.1530567 0.01013731 -0.6747606 0.09782167 -0.09152965 0.19751331 -0.47803494 0.53894943 -0.011664494 0.46048674 0.37327942 0.08004763 0.07950018 -0.2715384 -0.53227973 0.07024822 0.91196686 0.21910019 -0.9321173 -0.296423 -0.13030376 0.53176 -0.32657441 0.09751211 -0.16416512 0.22160934 0.7229324 0.7729062 -0.2508042 0.34614557 0.7660315 -0.8039848 0.40684006 -0.629398 -0.34477767 -0.5289483 -0.63804907 0.083744146 -0.13455324 -0.8027179 0.12113506 0.7872482 0.15608881 -0.437841 0.26501748
1271 0.33603388 0.13072118 0.037357528 -0.4003687 0.31068358 -0.50229836 -0.12999968 -0.19545497 -0.19880886 0.597206 0.49593025 -0.26964337 -0.03580022 0.4869648 -0.15395923 0.14422858 -0.85630506 -0.29379097 -0.2043521 0.545257 0.28198683 0.11368042 0.41153356 -0.66022855 -0.2708533 -0.9221304 -0.27384162 0.0710264 0.20014378 0.3043733 -0.13276528 -0.18738002 0.07359813 0.6289374 0.20453115 0.20738617 -0.54721767 -0.35448238 0.24187441 -0.022805518 -0.45713967 -0.39490154 -0.4444147 0.40531132 0.42859676 -0.46628848 -0.11043607 -0.24485591 0.22545496 -0.71208555 0.60810715 0.09767998 -0.084303364 -0.2700949 -0.58179575 -0.4782562 -0.32615864 0.11437594 -0.10022541 0.20320404 -0.12806463 -0.014047922 0.057633627 0.32240978 0.14727916 0.16266145 -0.0041524516 0.34173375 -0.41863215 -0.04117589 -0.34769562 -0.13623387 0.5311663 0.20355466 0.4161595 -0.63140243 -0.4252457 -0.41409114 -0.3467004 0.3658234 0.2223872 0.2784692 -1.0870928 0.067696065 0.04674833 -0.7309488 -0.018161215 0.09347216 0.40043968 -0.35949904 0.6065639 -0.2488933 0.45851204 0.41390818 -0.028564282 0.22256777 -0.13845576 -0.2635877 0.40723404 0.8890081 0.08895687 -0.9598342 -0.34035555 0.015774535 0.47255692 -0.41769722 0.2954604 -0.30712852 -0.042211313 0.6319396 0.9657811 -0.21904796 0.6276058 0.64593995 -0.7051545 0.2621195 -0.4904103 -0.47772428 -0.5601967 -0.6117139 0.09275924 -0.14486232 -0.9468376 0.031408854 1.0363497 0.2895005 -0.34541726 0.13510849
16 -0.14180689 0.37970883 -0.0788311 0.40357995 0.18997008 0.3011571 -0.11920944 -0.7093128 0.06031868 0.7653335 0.12983537 0.01826305 0.092172734 -0.43479514 -0.69167554 0.17102626 -1.12957 0.15017766 -0.44685394 0.68200463 0.26171446 -0.06425946 -0.1299295 -0.43921077 0.57598466 -0.18554854 -0.5904127 0.28825742 -0.83784276 0.389751 -0.113740996 -0.07146507 -0.21760283 -0.03533183 0.2779235 -0.25417697 0.044963755 0.348371 0.29762882 0.15324984 -0.4732237 -0.4060246 -0.11102976 -0.1321922 0.16001749 -0.1714491 0.012024038 -0.4510554 0.0668523 0.033659644 -0.16976233 0.17899424 0.39035007 0.24010251 0.061423637 -0.11645209 -0.8855216 0.1779716 0.19788653 -0.25794446 -0.28856382 0.16412112 -0.3549999 0.13236317 0.20184128 -0.056817308 0.25701115 0.13761202 0.09649567 -0.40250176 -0.45106 0.37572065 -0.58768374 0.888837 0.48201337 -0.19936062 0.30972093 -0.35908023 -0.23793422 0.29056883 0.0060588527 -0.031272583 -0.11421701 0.261784 0.03158286 -0.6250743 -0.103210755 0.23426513 -0.069348305 -0.2130465 0.54240084 0.57410204 0.5899287 0.082636416 0.375274 -0.07985867 -0.17317468 0.18604423 -0.39211738 0.3633077 0.30898494 -0.13508078 0.204314 0.3982269 0.3650051 0.39403293 0.24617855 0.34072593 -0.061908167 -0.3736291 -0.31121343 0.23669781 -0.054510705 0.6167728 -0.10770282 0.053251844 0.01435731 -0.48157582 -0.33377182 0.064586915 0.6114981 0.018842064 0.48151267 -0.002784001 0.41649386 0.17640087 0.121881865 -0.15109763
2444 -0.48409098 0.02414005 -0.41130725 0.5001798 -0.25461376 0.22520673 -0.008460122 -0.30556405 0.19995125 0.41705495 0.07162489 0.012724501 0.23567486 -0.43600014 -0.53242147 -0.016223654 -0.66448903 -0.06357214 -0.5373078 0.64092624 0.14803843 -0.15017107 0.14899075 -0.34271473 0.5005658 -0.058756594 -0.36638 0.2145399 -0.5374016 0.19069761 -0.3563009 0.09020462 -0.05840525 -0.10788023 0.12346882 0.01156459 0.019518137 0.18723814 0.40722987 0.009779411 -0.49514326 -0.10528534 0.10200254 -0.27981663 0.33167282 -0.38031965 0.25135055 -0.1702397 0.08211639 -0.21883611 -0.06867085 0.05389619 0.023282643 0.12949431 -0.325331 -0.23785768 -0.7373968 0.12677212 0.06412068 -0.12304379 -0.19399899 0.09105072 -0.58689463 -0.1268975 0.13565016 0.019798458 0.08778381 0.23893207 0.14301252 -0.1528748 -0.17959198 0.42913213 -0.56188744 0.72864765 0.11433199 -0.2116963 0.23316203 -0.2976467 -0.23603302 0.4654505 0.23149997 -0.11592133 -0.057294715 0.5088274 -0.032693464 -0.69288427 0.07386159 -0.2050713 -0.1725214 -0.33854634 0.6340694 0.66773176 0.5559184 -0.2586419 0.45630854 -0.004678261 0.058193725 -0.3041916 -0.39578366 0.5601071 0.37472075 -0.25241914 -0.115203604 0.38850576 0.28729838 0.55590785 0.10615097 0.22769926 -0.24644426 -0.2644962 -0.37166333 0.01353038 -0.7280333 0.41869554 -0.046453077 0.25339314 -0.24963708 0.042144623 -0.72963953 0.49230587 0.7409693 -0.2512646 0.3730365 0.039717972 0.50425524 0.23765974 0.28811792 -0.17881443
1632 -0.382379 0.52245986 -0.15932377 0.4282576 0.13117334 0.3874884 -0.23038277 -0.8017062 -0.06960462 0.6801361 0.22336686 -0.11535534 0.1118326 -0.44252905 -0.48566225 0.25604182 -1.3072648 0.23877752 -0.46518138 0.6080514 0.3557298 0.067518525 -0.08734155 -0.61675566 0.486044 -0.03537187 -0.53034866 0.0104950685 -0.6816778 0.47619823 -0.18116221 -0.18926212 -0.25190085 -0.18284036 0.2800512 0.02265811 0.05530681 0.40254986 0.064211726 0.025979053 -0.45414087 -0.359948 -0.092206694 -0.026054198 0.024117786 -0.06735016 0.023602212 -0.27056178 -0.17118862 0.20087378 -0.122632146 0.28485522 0.26923758 -0.04458202 0.24628639 0.18097177 -0.9274735 -0.14645104 0.1040357 0.009484082 -0.20475833 0.32383123 -0.2251489 0.24057148 0.15059084 -0.047648508 0.052889213 0.045677535 0.1192734 -0.47127858 -0.4442759 0.19381593 -0.42831808 0.7817762 0.38717932 -0.22962306 0.24685688 -0.4550193 -0.3462699 0.11906348 -0.15840644 0.015983874 -0.16423117 0.069489956 0.20886806 -0.6758309 -0.4043459 0.1847155 0.15079403 -0.28537324 0.70443 0.56441355 0.4197492 0.27334177 0.41840526 0.35886663 -0.43121764 0.06655568 -0.3155551 0.2604502 0.113986805 -0.14048566 0.2188916 0.4257558 0.26531214 0.22048935 0.18818033 0.19749673 0.16485237 -0.12694 -0.06613208 0.3457309 -0.0018491646 0.49652964 -0.23833078 -0.08217797 -0.11878729 -0.54086834 -0.26099208 0.25361472 0.62152666 0.08787722 0.44119656 -0.0309741 0.42130908 0.23187353 0.1338794 -0.15011424
970 -0.17228022 0.26113996 0.07124279 0.163641 0.010350127 0.34084144 -0.14099212 -0.42209002 0.2209954 0.52649176 0.3020617 0.123986036 0.2181851 -0.4286368 -0.6360109 0.33844602 -1.0791963 0.14940266 -0.23855504 0.53112113 0.11842637 0.063619964 -0.13417912 -0.6405742 0.3607157 -0.2337069 -0.4020611 0.23351766 -0.5526682 0.1586631 0.0820965 0.08079102 -0.07649895 -0.2907836 0.2785878 -0.07965542 -0.04059538 0.3782116 0.28505728 0.19693562 -0.44818285 -0.3535572 -0.049378373 -0.03540605 0.30124423 0.03843012 -0.1542427 -0.21730945 0.020773942 0.13931802 -0.06581504 0.0365288 0.54112095 0.37703392 0.13932921 0.032294065 -0.5316927 -0.05419973 0.36840862 -0.22473967 -0.3452672 0.19190446 -0.1955855 0.27831125 0.20286912 0.06216629 0.13677862 -0.015391372 0.16617693 -0.26366183 -0.28073287 0.2032002 -0.3401309 0.4743356 0.34026194 0.15237145 0.27415445 0.00901257 -0.1757061 0.4781931 -0.17410274 -0.33627445 0.00736836 0.08799725 -0.016182937 -0.14174642 -0.29098433 0.1213897 0.07189635 -0.014356105 0.32518142 0.3509209 0.68249595 0.09887838 0.56477773 -0.062441498 -0.43251026 0.024048403 -0.21458471 0.47232515 0.0883629 -0.026146406 0.2838418 0.44882253 0.495998 0.2005736 0.3038069 0.38304025 0.26887536 -0.5903595 -0.13951138 0.08426553 -0.015936997 0.61502427 -0.3488526 0.21737547 -0.006391786 -0.46085325 -0.6236446 0.1354249 0.46243927 -0.17658524 0.5400358 -0.12269436 0.22370134 0.41017732 -0.07306686 -0.10149104
2642 -0.22764407 0.3492973 -0.2029851 0.4627858 0.052441448 0.32451802 -0.15328276 -0.7735954 0.12537237 0.5243666 0.10145602 0.053276546 0.53271055 -0.4113022 -0.54322815 0.20925248 -0.9602897 0.48483244 -0.43678957 0.62390614 0.36111757 0.23333782 -0.15260199 -0.70034146 0.523978 -0.039078426 -0.53382576 0.34992462 -0.6784697 0.47279632 -0.31644472 -0.15323938 -0.13020723 -0.28507224 0.019903462 -0.31478757 0.038224716 0.3572055 0.2689823 -0.035871275 -0.6523177 -0.4604648 -0.33757266 0.041768122 0.16384946 0.06377921 -0.08309532 -0.46652955 -0.058810335 -0.046602756 0.012650944 0.10175267 0.46084338 0.18898973 0.2104504 0.08636503 -0.8288503 -0.08907507 0.41306302 -0.08300827 -0.26903677 0.12409563 -0.3890219 -0.021055365 0.16210803 -0.27914026 0.061957315 0.081229195 0.06531644 -0.5280999 -0.4598919 0.19804597 -0.43286583 0.77357495 0.7224456 -0.31077218 0.41090897 -0.29656693 -0.080865204 0.1248841 -0.017304936 0.27311793 -0.015715867 0.37424734 0.20013514 -0.8273883 -0.31943545 0.32829884 0.1103858 -0.1833864 0.61697453 0.26714343 0.53112596 0.2477029 0.30423126 0.066617444 -0.2624002 0.04300177 -0.5037788 0.23134977 0.2959222 -0.2947545 0.15706147 0.4218866 0.50446904 0.2137083 -0.19932929 0.155386 0.095093325 -0.5113861 -0.3011378 0.3705554 -0.18024425 0.5020594 -0.25852564 0.032856867 0.13451132 -0.57402533 -0.49453372 -0.24074702 0.21964009 0.006558476 0.59914166 -0.020928834 0.50122845 0.21672526 0.14402261 -0.2652941
