2708 128
0 0.14291853 0.07697208 -0.2864051 -0.03243762 -0.3694852 -0.20997278 0.01129413 -0.1283877 0.028860316 -0.39266008 0.37950027 -0.33303928 0.19380447 -0.22066714 0.28167245 0.19180168 0.029399026 -0.3099942 0.10992372 -0.8406114 0.2830605 0.21954913 -0.04653701 -0.36296463 -0.14278613 -0.21734104 0.056536138 -0.19096796 0.055716038 0.7393969 -0.3729349 0.060890596 0.11409021 -0.026566962 0.09362072 -0.5339368 -0.119766265 -0.10757481 -0.103053905 -0.13434184 0.20962527 -0.11310522 0.1382302 -0.6465725 -0.25170752 0.03183552 -0.095285445 -0.27990004 -0.0943931 0.09293389 0.088287696 0.02792187 0.17484069 -0.026665302 -0.16112064 0.42813766 -0.23752472 0.014956992 -0.27580768 0.42579234 0.012587893 -0.8787067 -0.2566251 0.18466985 0.3901038 -0.1257757 -0.38635424 -0.31503135 0.8499325 -0.1109091 0.51993036 -0.29679677 0.3251669 0.10113119 -0.30750468 -0.7520177 -0.9780685 -0.5293398 -0.5837128 0.43922687 0.21431589 -0.028827999 0.3280531 -0.20778713 0.1441229 0.07478307 0.32067266 -0.45831427 -0.31449115 0.18974815 -0.58659047 0.040111415 0.08114584 -0.28852925 0.19142693 -0.04451269 -0.12246428 0.3875873 -0.1216796 0.03334817 0.5452264 0.031294 -0.9390879 0.05929012 -0.17644459 0.30974427 -0.12975672 -0.06597351 -0.15120584 0.30504733 -0.31092373 0.33190307 -0.2778238 -0.31360534 0.047805704 -0.16668598 0.44629636 -0.55918735 -0.44147938 -0.16461681 -0.06808789 -0.1914152 -0.037419494 -0.44102556 -0.37814867 -0.37242517 0.68234503 -0.48016873
633 0.030512676 0.014192474 -0.2944921 -0.11492919 -0.36108914 -0.15045549 0.027521962 -0.13950032 0.08949262 -0.32859635 0.3086858 -0.21191025 0.12462967 -0.11320852 0.14355406 0.297614 -0.08024488 -0.30506453 0.07153318 -0.5342243 0.23913014 0.10910816 -0.028506948 -0.4222525 -0.10557682 -0.2287892 0.03559741 -0.29785216 0.1676913 0.5884295 -0.29505026 0.14515479 0.20954955 -0.18728104 -0.061530653 -0.411131 -0.15194343 -0.085998915 -0.08106887 -0.18075578 0.23783226 0.088893 0.13462579 -0.5747494 -0.19151254 0.14189515 -0.018126355 -0.19961429 -0.1118941 0.16696462 0.19536643 0.11527184 0.16776642 0.013338434 -0.10688818 0.28255346 -0.32843623 -0.066579126 -0.35214403 0.2673195 -0.13061306 -0.5410814 -0.29328203 0.24896058 0.40200576 0.03598428 -0.25069514 -0.26667628 0.5410769 -0.22299579 0.3471335 -0.25526184 0.09836971 0.03422068 -0.13724671 -0.59544486 -0.68791777 -0.4449485 -0.49020526 0.5016924 0.11558046 0.0402573 0.24684618 -0.16277921 0.3576492 0.029415479 0.16409679 -0.463478 -0.21403743 0.33266717 -0.34356162 -0.06554483 0.09101224 -0.35444027 0.1580711 -0.047738966 -0.111068934 0.31493908 -0.14835371 -0.10788232 0.36894134 0.07158415 -0.75106597 0.11986088 -0.008166276 0.2625487 -0.15008199 -0.1591688 0.054326124 0.12155766 -0.3180158 0.07531271 -0.18080965 -0.24233654 -0.1323884 -0.01115994 0.3982119 -0.21436785 -0.2539265 -0.08429315 0.006440686 -0.05421361 0.09621816 -0.55724573 -0.13990362 -0.24111967 0.56024104 -0.466486
1862 0.14770035 0.19608888 -0.25736925 0.010846584 -0.34682953 -0.18873434 -0.0039866483 -0.11475387 -0.044678014 -0.3521699 0.506371 -0.38872325 0.24246266 -0.14413947 0.3564593 0.12178661 0.08351143 -0.26885933 0.23149988 -0.69046974 0.25569597 0.14704463 -0.08157852 -0.34111172 -0.1121146 -0.18559693 -0.013883535 -0.120563 -0.09453143 0.71926486 -0.23348877 0.10692997 0.11173958 -0.1045022 -0.012630781 -0.4935679 -0.12745473 -0.26826197 -0.056184553 -0.06532667 0.17666091 -0.063240975 0.009185353 -0.7024567 -0.19253893 0.048913766 -0.15007277 -0.33961117 -0.09777725 0.19512762 0.066694655 -0.09038276 0.11065182 -0.05890933 -0.19620398 0.44691 -0.23548046 0.105305195 -0.3847744 0.4352906 -0.076495044 -0.7014126 -0.35686 0.11276984 0.35138264 0.035190385 -0.31101528 -0.3734183 0.7749482 -0.0018536705 0.42434162 -0.35117218 0.1533792 0.2360498 -0.28390405 -0.68271816 -0.7351375 -0.45298862 -0.37389874 0.40061432 0.12872946 0.071111634 0.39492708 -0.27792987 -0.030145105 0.10075601 0.3902612 -0.41021028 -0.30126578 0.30636987 -0.4355094 0.15629715 0.10644288 -0.28211457 0.19319539 0.03309881 -0.1349321 0.28700536 -0.053865977 -0.033969555 0.59415257 0.16566584 -0.8496787 0.1465478 -0.28056496 0.32292825 -0.17589523 0.08701432 -0.02684533 0.28703773 -0.32025436 0.31424612 -0.37408182 -0.27993327 -0.011523478 -0.2060162 0.43060377 -0.39167473 -0.3991147 -0.17646733 0.14272203 -0.29940122 -0.1030926 -0.359755 -0.35449457 -0.33600733 0.61986864 -0.45790127
2582 0.03730998 0.13590814 -0.19294873 0.003917967 -0.34512877 -0.16411072 0.0060188468 -0.17745903 -0.119549714 -0.27050766 0.4622259 -0.3198953 0.18083896 -0.25745866 0.2534657 0.05515445 -0.10831009 -0.20826904 0.11724581 -0.9151708 0.21610226 0.30799064 0.028269302 -0.28332794 -0.1810286 -0.19380194 0.012179124 -0.07405897 -0.05301509 0.75910467 -0.3648537 0.14924285 0.022831686 0.08222347 0.07721941 -0.5924316 0.028231034 -0.1396623 -0.09028376 -0.09512522 0.28577694 -0.1597328 0.04156477 -0.6486656 -0.110460445 0.005163861 -0.13191427 -0.22110094 -0.19714083 0.25059527 0.0066498336 -0.05625118 0.11558659 0.0051109153 -0.3056544 0.33825886 -0.0713801 0.1470948 -0.19316867 0.31798244 0.053895738 -0.9691048 -0.26980263 0.093291014 0.33992878 -0.17623042 -0.49753472 -0.4728786 0.85422075 -0.049187414 0.46477762 -0.32610515 0.2749576 0.19525015 -0.36914405 -0.6453769 -0.92640525 -0.4839465 -0.4106824 0.45627227 0.24390882 0.051947463 0.35462233 -0.30232894 -0.047955222 0.06934786 0.3734906 -0.35966703 -0.23305485 0.2609762 -0.51614785 0.16601957 0.12935206 -0.2755533 0.26160127 0.09500798 -0.039297 0.29535764 -0.06959628 0.067083836 0.5870463 0.06694952 -0.9028392 0.19921632 -0.22847252 0.41858482 -0.1210427 0.10946423 -0.14773455 0.2641727 -0.30792844 0.3833002 -0.2846288 -0.3993667 0.1180162 -0.21026862 0.43740937 -0.48747432 -0.60705453 -0.20916742 0.0890555 -0.34389856 -0.19790447 -0.2747337 -0.3723564 -0.33972925 0.6638348 -0.54221135
1 -0.4622675 0.18470733 -0.42818412 -0.28188047 0.5075667 -0.23878019 -0.057980813 -0.06844324 0.2151851 0.17654206 0.59518653 -0.80489445 0.1231298 -0.3655928 -0.40518814 0.10583041 0.2609739 1.0482659 0.36495584 -0.6065114 -0.12309549 -0.21063538 -0.4239649 -0.4545615 0.42480648 0.12477472 -0.30969122 -0.10047767 -0.012272219 0.5921867 0.5517147 -0.09288195 0.13944368 0.4131034 0.3279856 -0.6215236 -0.31058803 -0.17156844 -0.21319807 0.16662647 -0.10239853 0.07849589 -0.5070973 -0.48228368 0.11374123 0.022510676 -0.8142508 -0.24253783 0.17248654 0.0959694 -0.4660501 -0.08488612 0.2779446 -0.44474712 0.44805458 0.3160229 -0.5276296 -0.23104995 -0.0052642156 -0.55663896 0.018507075 -0.10834181 -0.10520852 -0.031575553 -0.2158335 0.5970538 0.014049802 0.41131115 0.17737423 -0.33543745 0.6630642 -0.1844717 0.30386215 -0.4142483 0.20447226 0.36611882 0.02439404 -0.4730954 -0.14113155 0.06444396 -0.0154309375 -0.24946758 0.27863324 0.2728477 0.19366874 -0.2504536 0.102950305 0.21519421 -0.31745788 -0.009928894 0.20525858 0.26555806 0.25150776 -0.5455779 0.51955485 0.57312304 -0.46073413 0.2246286 0.89301544 0.3557523 0.007049605 -0.4373851 -0.30669177 0.13849011 -0.11351693 0.5800775 -0.40344474 0.39285505 -0.23061666 -0.22451146 -0.2168944 0.19413829 -0.51003623 -0.9026232 0.278965 -0.26615986 0.12592722 -0.30249965 -0.16201681 0.08483665 0.45509484 -0.04116926 -0.28225318 -0.580428 -0.5802464 0.013086616 0.3877519 0.6387396
2 -0.33260876 0.19700612 -0.29029852 -0.16202652 0.42687497 -0.40562075 -0.10298348 -0.32076353 0.3236807 0.18094692 0.36742863 -0.5322429 0.15910861 -0.16354968 -0.028293056 -0.1551919 0.17426515 0.92510444 0.19788457 -0.35640734 -0.3691979 -0.09836491 -0.3145302 -0.15466383 0.3334133 0.18686287 -0.3823112 -0.09481919 -0.0924278 0.3089849 0.47788954 -0.20734228 0.03145835 0.40332276 0.039538946 -0.5960432 -0.38844475 -0.12714347 -0.18351632 -0.053141955 0.094257936 0.1282349 -0.28849164 -0.43234697 0.022768935 0.20058484 -0.70781684 -0.12537807 -0.062052995 0.10261232 -0.32527983 -0.052681774 0.20483756 -0.23060325 0.121044144 0.21859075 -0.35907337 -0.33092514 -0.020054018 -0.40078026 -0.020807622 -0.05555813 -0.30115592 -0.19543637 -0.008165181 0.14792784 0.025397398 -0.015895694 0.20934924 -0.32969844 0.58626217 -0.022231383 0.17772289 -0.27732745 0.15186347 0.07979623 -0.063800804 -0.37101927 -0.14451556 0.08429345 -0.06547244 -0.14344694 0.18027654 -0.10381972 0.14304037 -0.25691763 0.10464064 0.034804985 -0.07679839 -0.0581095 0.2896361 0.23376763 0.2587404 -0.3950455 0.4098402 0.43712923 -0.34962952 0.10846824 0.60142094 0.15142088 0.076282665 -0.32269922 -0.17252833 0.30060205 -0.1346828 0.6217033 -0.5472951 0.27905092 -0.2428123 -0.23628393 -0.33520132 -0.045741957 -0.4345152 -0.690875 0.113203965 -0.12807795 0.035520118 -0.21501426 -0.05831758 0.01859349 0.20869702 -0.019674618 -0.18595426 -0.44470543 -0.4022147 0.14054424 0.23496881 0.25074446
652 -0.42389718 0.11207803 -0.47241995 -0.3072555 0.3812509 -0.06900075 0.08104942 0.17887448 0.024075588 -0.052676998 0.74677837 -0.692098 -0.10620526 -0.48950726 -0.56289583 0.2099798 0.3585078 0.7236786 0.45857772 -0.68654245 0.03950283 -0.27805063 -0.22042625 -0.60439825 0.4607152 -0.01257046 -0.18943493 -0.008506388 0.11116658 0.5272019 0.48440206 -0.06444452 0.2211403 0.49004206 0.24631861 -0.2995557 -0.23067361 -0.18208332 -0.12122508 0.32102638 0.00034803778 0.2143229 -0.43124896 -0.530736 0.13455825 -0.11431502 -0.8286707 -0.25862607 0.30576664 0.034211263 -0.53078467 -0.12638502 0.26510137 -0.46516526 0.6148717 0.23004988 -0.23922719 -0.032728076 0.033111375 -0.69518614 0.129559 -0.058741108 0.13519117 0.031617213 -0.29312223 0.67101103 -0.060659926 0.5003406 -0.08439499 -0.3323457 0.5625641 -0.19224352 0.32966873 -0.4152519 0.28712216 0.41185766 -0.029013481 -0.31965506 -0.07735076 0.09091542 0.18673125 -0.34750122 -0.0041065826 0.51623154 0.005145177 -0.08440918 0.022135047 0.17704616 -0.42235312 0.03693346 0.14986369 0.19243085 0.2665851 -0.5167541 0.33940607 0.31489986 -0.49025115 0.2279775 0.82829285 0.48919356 0.035628073 -0.46799704 -0.3927765 -0.10494744 -0.084608525 0.53595304 -0.18642034 0.308256 -0.2563935 -0.23398785 0.025122426 0.30299652 -0.44934627 -0.8601903 0.4012937 -0.25241536 0.20586601 -0.16388479 -0.11929694 -0.10416819 0.69788265 -0.033257116 -0.28183097 -0.7048937 -0.48620954 0.10434815 0.50092256 0.7324007
654 -0.57294905 0.15635657 -0.42760468 -0.42252424 0.5834331 -0.14120664 -0.0028582716 -0.005882018 0.20865726 0.23942783 0.63996726 -0.87234 3.4435114e-05 -0.39354298 -0.45875785 0.08758115 0.19319437 1.0497229 0.5355489 -0.7229952 -0.20567621 -0.44688037 -0.4573142 -0.52304196 0.39309227 0.16924314 -0.26332477 -0.11054671 -0.014016601 0.7474588 0.6027745 0.122440554 0.09664661 0.4822259 0.45849222 -0.5773704 -0.24499707 -0.24393779 -0.1583063 0.3224039 -0.2600479 0.10953785 -0.49306396 -0.52714705 0.21142842 -0.11679871 -0.8745614 -0.2838362 0.15673083 -0.029592406 -0.49627364 -0.2121719 0.39099285 -0.4034295 0.59896064 0.46012878 -0.66400766 -0.08825445 0.06073243 -0.39872852 -5.9006918e-05 -0.3108042 -0.21796457 0.07276714 -0.17182268 0.5798774 0.0538972 0.5026447 0.13636295 -0.4777152 0.7303288 -0.17909016 0.3684186 -0.52268493 0.1608195 0.42988038 0.0025565713 -0.76228344 -0.0153712705 0.12834732 0.07220406 -0.24262914 0.37101525 0.34409687 0.23496631 -0.26117307 0.16886556 0.24743967 -0.43097368 -0.087316476 0.29884052 0.272748 0.36211663 -0.515988 0.68318856 0.6126561 -0.54463375 0.3505249 0.86458075 0.5047052 -0.04662665 -0.36540136 -0.2938972 0.14284973 -0.15875725 0.6357708 -0.47125816 0.51555866 -0.24027455 -0.13526769 -0.28215617 0.1959456 -0.5759339 -0.9750961 0.31257465 -0.2156936 0.1547232 -0.21517606 -0.21380624 0.1020248 0.62909395 -0.073700294 -0.22700834 -0.57069546 -0.731642 -0.115528405 0.41386178 0.6978908
1986 -0.02898412 0.03173135 0.15562733 0.20627844 0.14293046 -0.09715705 -0.15562975 -0.26766017 0.025184717 0.020113232 0.11194118 -0.33065918 -0.18371373 0.05207325 0.14345044 -0.0992792 0.0033551964 0.3617457 -0.115383975 -0.027214283 0.12294984 0.36689758 0.17482114 -0.072888 -0.018656759 0.037363917 -0.20918673 -0.17362654 0.051473197 0.23526166 0.16798668 -0.16939913 0.16056624 -0.011693606 -0.06657683 -0.18161274 0.14182565 0.19669136 -0.37895584 -0.0025267417 0.29002655 0.06535896 0.008767947 -0.45167404 -0.05631151 0.070180185 -0.32252342 -0.07732467 -0.08863163 0.14734018 -0.25246912 -0.2046985 -0.035040323 8.987565e-06 -0.16983065 -0.057676703 0.13042343 0.05304292 0.09180478 -0.06323883 -0.102265604 -0.22159702 -0.015896877 -0.19243962 0.17830624 -0.13706058 0.1759199 -0.17599164 0.15249787 0.041126218 0.16634576 -0.1698451 0.24198553 0.07727155 0.10928114 -0.013721909 -0.18035267 -0.14351676 -0.22132654 0.35591835 -0.12508708 -0.072469436 0.07136987 -0.39356017 0.07983788 0.09530014 0.2740332 0.109108776 -0.18342163 0.09232628 0.085455574 0.018879915 0.07757989 -0.15553075 -0.030780122 0.098413765 0.036663327 0.040644582 0.13433102 0.04455526 0.053913686 -0.09175471 -0.39597052 0.10100399 0.010363598 0.5184272 -0.17007698 0.14039998 -0.15141377 -0.06759104 0.06503514 0.011718706 -0.1816754 -0.1360476 0.015529003 0.020125616 0.2021383 -0.084119 -0.21622643 0.043111086 0.11126424 0.060596842 -0.17067178 0.08631669 -0.16225871 -0.044884175 0.036439702 -0.22208418
332 -0.42436683 0.15878758 -0.36678094 -0.35211638 0.6090083 -0.6136815 -0.53939676 -0.28169045 -0.059022315 0.17774257 0.085496895 -0.28901118 0.04634798 -0.03000434 0.049948167 -0.42769378 0.13753119 0.6287309 0.457529 -0.2412972 -0.44571787 -0.120651096 -0.46028343 -0.2257336 0.40428564 0.20197748 -0.18489082 -0.040187612 -0.32303408 0.19093324 0.2740181 -0.4006104 -0.083660625 0.52402 0.063484155 -0.2031982 -0.012428661 -0.19634384 -0.07141669 -0.09027246 0.088616446 0.09016682 -0.24869905 -0.68700624 -0.009775817 0.20093243 -0.5644754 0.13655879 -0.51530224 0.428218 -0.10031738 -0.14393179 0.064165674 -0.040443458 0.3061863 0.2808117 -0.1314051 -0.24121244 -0.08914239 -0.45409065 -0.1629574 -0.25176176 -0.604774 -0.3047655 0.17025934 -0.20086248 0.029083658 0.21837164 0.10341893 -0.28436413 0.3054946 0.13537103 -0.21375251 -0.2537676 -0.06866803 -0.055792242 0.038007166 -0.2451599 -0.07858894 0.22275004 -0.37147042 -0.24821448 -0.0019254392 -0.07247204 0.13142091 -0.37780255 0.17562327 -0.079033 0.20211959 0.016271766 0.42722175 0.2119467 0.011205537 -0.2827279 0.02268083 0.06457986 -0.18954922 0.21042605 0.5483167 -0.10677384 -0.13583001 -0.6284153 -0.14451624 0.37882558 -0.26770407 0.6794316 -0.47557664 0.028262869 -0.17450857 -0.076565355 -0.3266112 -0.33805877 -0.24274865 -0.7957775 -0.04091529 -0.24016456 -0.036828116 -0.20987397 -0.14885163 0.008357387 0.09956926 -0.048472434 -0.30110562 -0.3961892 -0.5697679 0.2534196 0.09826648 0.3052736
1666 -0.21218342 0.10129567 -0.39584422 -0.1261904 0.29204798 -0.11416344 0.26236922 -0.40811545 0.61002386 0.118099935 0.21470271 -0.42097124 0.34705845 -0.105314836 0.21467543 -0.10979937 0.33455876 0.7327614 -0.2115967 -0.108100645 -0.35667852 -0.017977446 -0.25640562 0.108343214 0.5444533 0.024870556 -0.6934855 -0.269056 -0.104124375 0.04295106 0.47624412 -0.15278706 0.22931845 0.49405104 0.07553216 -0.7189867 -0.4986808 -0.15089706 -0.028024066 -0.08767902 0.25570056 0.06765739 -0.25307187 -0.019704733 -0.06732927 -0.009353265 -0.43034276 0.0556552 -0.03685807 -0.18904606 -0.38290995 -0.28476226 0.014022782 -0.032066505 0.23427156 0.5307265 -0.03750944 -0.6531849 -0.1323434 -0.33019614 -0.18273963 0.20633055 0.00589765 -0.1870725 0.09777909 0.25400952 0.1153727 -0.43491188 0.37221387 -0.3047154 0.5281569 0.058016386 -0.14962713 -0.3568992 0.36825866 -0.12376987 0.039615486 -0.3080303 -0.21708222 -0.016333574 -0.1301882 -0.02279743 0.018191619 -0.24135706 0.41782376 -0.23034899 0.2826171 0.030732432 -0.15177919 -0.005105313 0.31913495 -0.048738997 0.3697838 -0.16797401 0.51194274 0.4475648 -0.42869332 -0.018171746 0.30093205 0.002028495 0.2305995 -0.22875562 -0.026835216 0.42300433 0.37379986 0.62329227 -0.05487116 0.0016871808 -0.21406254 -0.3786636 -0.54944754 -0.18530881 -0.3252623 -0.4706118 -0.023280956 0.06186283 -0.106215104 -0.23595563 -0.027751515 0.022852607 0.07358925 0.112928525 -0.20284414 -0.29880717 -0.32736027 0.21161431 0.05656161 0.17132388
1454 -0.2861957 0.2932252 -0.32895663 -0.34987643 0.5174047 -0.3384608 -0.12685238 -0.25447708 0.24999882 0.1874053 0.3372143 -0.6492761 0.29122484 -0.05799944 -0.039271567 -0.23415004 0.18003489 0.98431945 0.16309431 -0.39133066 -0.36973056 -0.12018554 -0.42600223 -0.12716275 0.37171197 0.43934533 -0.27389097 -0.12818956 -0.12080499 0.28176782 0.6712044 -0.10065354 -0.022015382 0.34637856 0.10756615 -0.5720049 -0.5175747 -0.12650238 -0.22230454 0.036977783 -0.013591469 0.13572367 -0.28316164 -0.45439455 0.012567535 0.019466158 -0.6794822 -0.1288644 -0.15872583 0.19090463 -0.38916585 -0.21230543 0.27816412 -0.34724444 0.3633186 0.19572908 -0.304706 -0.25515983 -0.12248085 -0.4909139 0.014775315 -0.35523796 -0.42287663 -0.3135877 -0.16256265 0.319687 -0.04189701 0.09926979 0.2748732 -0.35286468 0.7325547 0.06375021 0.1301033 -0.39647672 0.27773088 0.11145377 -0.10344934 -0.3900773 -0.15221998 0.052332744 -0.31192553 -0.19202948 0.10194433 0.061292302 0.25441784 -0.2618109 0.101142526 0.08724663 -0.07659908 -0.14533827 0.3549034 0.49634412 0.148046 -0.29260525 0.48616594 0.45158145 -0.4328698 0.19063583 0.768325 0.05885476 0.021950137 -0.20745772 -0.37537992 0.32504413 -0.19089215 0.6621308 -0.56920177 0.36310247 -0.32683876 -0.24740714 -0.3575606 -0.082113676 -0.22153302 -0.7303287 0.36313862 -0.13896036 -0.080941 -0.16832909 -0.259304 0.05025712 0.22910382 0.051103696 -0.11464401 -0.5021754 -0.6318573 0.022951268 0.4293769 0.39446798
3 -0.55466396 1.5316881 -0.06840185 0.14167297 0.8617055 -0.15308917 0.87455773 -1.3179338 -0.23283818 -1.7591592 0.91423196 0.6376677 -0.033335894 0.27587497 0.23276028 -0.40857947 -0.7547909 -1.5285528 -1.3162739 0.2075413 -1.826231 1.9433246 -1.6861639 0.06496022 1.2297207 -1.0763848 -0.9203395 -0.82292205 -1.4876174 0.7034881 -0.8767602 0.10330632 0.2800198 0.12698135 2.013096 -1.7779255 -0.18472013 0.20655781 -0.044327863 -0.058587283 0.6835574 -0.36855736 -0.6735973 -0.5963128 0.044772003 0.64299786 -0.11147897 -0.8710366 -0.3938407 0.6680214 -0.29730314 -0.631601 -1.0382992 0.62635064 -0.7065245 0.54208344 -0.2481046 0.3250774 -0.5309831 0.21306297 -0.7199089 0.19904104 0.5620672 -0.73963636 -0.094918154 1.0486908 -0.75522566 0.5741244 0.571551 -0.69094515 -0.2659265 -0.16248187 -0.08440354 -1.2934293 0.28938147 0.13723831 -0.7806926 0.064853005 0.79387015 1.801333 -0.4303045 0.712498 0.63202024 -0.78518957 -0.6089689 -0.009382361 -0.109189324 -0.9044562 -0.81023616 -0.30467823 0.073623665 0.30541492 -0.081364766 0.16900603 -0.62841547 -0.78598195 0.049551096 0.909367 -0.6803309 0.46936345 -0.05241858 -0.9471052 -0.7026864 -1.8548099 1.0786763 1.3599907 -0.41274214 -1.0526774 0.14846084 -0.26459125 0.6516608 -0.28270164 -0.15577222 0.47040275 0.32547086 0.43094873 -0.387365 0.6794584 0.98486596 0.017469745 -0.1264214 0.4239663 1.4028579 0.114748925 0.33919558 1.0442404 0.09829121 0.08625229
2544 -0.5460286 1.523093 -0.050551496 0.15669341 0.85891366 -0.14570837 0.9247183 -1.3200722 -0.23066503 -1.7623031 0.9174416 0.638477 -0.013386671 0.29917794 0.21111989 -0.40709502 -0.7743612 -1.5158273 -1.3186598 0.21602222 -1.8568786 1.9499018 -1.6941006 0.059343845 1.251305 -1.0740196 -0.94715625 -0.81481916 -1.4628208 0.7024898 -0.86157334 0.07534784 0.26282725 0.11840757 1.9991406 -1.7652197 -0.19739746 0.19379216 -0.027966777 -0.06777607 0.64538413 -0.38169914 -0.68748057 -0.5815927 0.033008467 0.6629643 -0.11779219 -0.86795497 -0.39551368 0.6653694 -0.30770925 -0.60320485 -1.046891 0.6375331 -0.7010775 0.55550265 -0.23396553 0.34451774 -0.5294019 0.20689902 -0.7205697 0.21769933 0.56858766 -0.72581196 -0.13500604 1.0376685 -0.762463 0.55598485 0.5510058 -0.65997225 -0.25494128 -0.1703383 -0.07254911 -1.2866983 0.30235893 0.107001334 -0.7829266 0.080037095 0.7870067 1.7647445 -0.45216775 0.72657967 0.6447651 -0.75485235 -0.63031167 -0.03387752 -0.10907598 -0.91379184 -0.8157304 -0.29210702 0.06617536 0.28432214 -0.07551976 0.1663744 -0.635962 -0.76926273 0.03603468 0.91087824 -0.6989484 0.45595467 -0.059780486 -0.91301215 -0.7206086 -1.7989821 1.1035458 1.3375602 -0.4040696 -1.0327256 0.18683098 -0.29083487 0.63440144 -0.23186645 -0.17240788 0.46410987 0.32089198 0.41933972 -0.36884525 0.6571697 0.95377827 0.017920682 -0.1199369 0.41472495 1.4056929 0.107214615 0.33865345 1.0303231 0.09256611 0.09294119
4 -0.016226778 0.038104437 -0.16842464 -0.31373113 -0.39783025 0.9666546 0.43084005 -0.4486178 -0.98739517 -0.27671844 0.089232534 -0.35228547 0.058198683 -0.055880915 -0.046419565 -1.1396681 -0.13709085 -0.40950528 0.20781647 0.4565087 0.43218097 -0.75266355 0.4936531 -0.2499283 -0.49897817 -0.23423475 -1.2337384 -0.71917444 -0.17391355 0.09688832 0.27636534 -0.2878049 0.23870574 0.7559733 0.18480705 -0.4375705 0.27072704 0.060579933 0.3426796 0.4129635 0.45368925 -0.28983277 0.3549731 0.09996238 -0.008331674 0.0386211 -0.06207038 -0.24274632 -0.73102486 0.0798481 0.36512357 -0.4018662 0.082959175 0.18379042 0.21575744 0.12920274 -0.45790952 0.38111672 0.35916376 0.43547347 0.27216592 0.30075967 0.7798567 -0.47469985 0.5723914 -0.41902852 0.55869645 0.019725246 -0.11321 -0.79159415 0.10385508 -0.22567026 0.71835685 -0.18577725 -0.34381694 0.07176464 0.09954865 -0.09070693 -0.55767554 -0.08983624 -0.07671655 -0.28056064 -0.027381686 0.47792697 -0.079335906 -0.46244353 -0.013844805 0.08467059 -0.22350323 -0.08522782 -0.58888525 -0.3107274 -0.08199431 -0.54513943 -0.46518776 0.54520696 0.43355408 0.4118643 0.6124546 -0.22518456 0.31054488 0.7033764 -0.96774817 -0.55292624 0.15230978 0.30748558 0.30887476 -0.11529081 0.24415569 -0.3349994 0.03055078 -0.4460512 0.15227187 0.18384239 0.27700397 -0.038131475 0.48068523 0.3978721 0.31082162 0.23398024 -0.086643815 0.13522 0.31365034 -0.019056233 -0.92880505 -0.5675003 0.5277014 0.05551244
2176 -0.08827091 -0.07366789 0.03047465 -0.27708074 -0.2432049 0.9075363 0.5057491 -0.4555917 -0.7574443 -0.18177949 -0.012131023 -0.41845566 -0.04537599 -0.15302888 0.028428707 -1.110159 -0.082001634 -0.4058227 0.0063345428 0.5377312 0.6177668 -0.7742631 0.62038994 -0.20196612 -0.6370305 -0.07389561 -1.1027669 -0.6431116 -0.18960449 0.19704497 0.17718787 -0.26270902 0.3331141 0.6841721 0.30057082 -0.49350312 0.36030445 0.13035032 0.24935798 0.3000042 0.44383466 -0.37875924 0.29107118 0.18210857 0.08299071 0.14413066 -0.09865598 -0.28800842 -0.862755 -0.05758546 0.34544572 -0.43341213 0.16386963 0.16518126 0.47655833 0.1413225 -0.25071803 0.33631572 0.35098776 0.3594327 0.24586459 0.26255703 0.63497466 -0.44475982 0.59763896 -0.47375906 0.41303438 0.06286786 -0.0485716 -0.8422842 0.06242078 -0.25004798 0.6617081 -0.17430499 -0.3466488 0.099348865 0.034064766 -0.061778754 -0.61451155 -0.04839926 -0.078403614 -0.1975372 -0.07278081 0.272811 -0.15837029 -0.38449758 0.16851193 0.2827985 -0.2278372 -0.21447815 -0.6261192 -0.24410833 -0.35249567 -0.4886307 -0.41129315 0.46430004 0.6203356 0.5608584 0.50545686 -0.15920773 0.2363523 0.56457835 -0.82831424 -0.46971267 0.2280919 0.31639034 0.3458932 -0.23765016 0.29725334 -0.32713905 0.2131529 -0.50678456 0.18595569 0.11209504 0.2600393 -0.2149594 0.41874564 0.5915536 0.19808084 0.32499653 -0.093491174 -0.0032284895 0.2596729 -0.005375062 -0.8403607 -0.660273 0.3559852 -0.017513368
1016 0.054238427 0.012466575 -0.022267694 -0.19914176 -0.4005838 0.969259 0.53785706 -0.4082415 -1.0608817 -0.20707475 -0.009521218 -0.4384622 -0.023755478 -0.12521717 -0.035071842 -1.190637 -0.034961108 -0.54032904 0.1141152 0.5397421 0.6215918 -0.80286086 0.65046334 -0.22914052 -0.652322 -0.21637908 -1.3258401 -0.83186823 -0.18264489 0.1321633 0.32894906 -0.36699682 0.40003964 0.7396832 0.26511648 -0.43577468 0.39011726 0.038838774 0.36898154 0.30864397 0.3742806 -0.24233973 0.37078178 0.28246906 -0.036118712 0.07512208 -0.09162689 -0.23961976 -0.79706836 -0.095412925 0.43050936 -0.47256008 0.093214974 0.27192134 0.36333928 0.11904201 -0.39155254 0.4708445 0.44464707 0.45774513 0.22568354 0.37330067 0.75646883 -0.45688197 0.6260421 -0.5031384 0.4557232 0.024350563 -0.029866198 -0.82489675 0.16354819 -0.17704107 0.71692795 -0.27311048 -0.4140594 0.23018554 0.03967302 0.03236277 -0.54378325 0.026571244 -0.15980718 -0.16862875 -0.0077751433 0.30009076 -0.1467845 -0.42840713 0.16662475 0.22608629 -0.23519087 -0.17967851 -0.62263644 -0.36445695 -0.23544998 -0.6328097 -0.49424466 0.5592793 0.62023836 0.5796481 0.6357657 -0.19052406 0.32243338 0.7921726 -0.9047981 -0.6149889 0.2742774 0.33448613 0.36737552 -0.25691432 0.19385552 -0.50440943 0.13393964 -0.4706196 0.23688515 0.22540376 0.19909355 -0.13229796 0.38228464 0.4152068 0.32451022 0.40881175 -0.10881489 0.16899964 0.35869327 0.07683756 -0.886811 -0.6431788 0.3872463 -0.02577179
1761 0.13273871 0.04624026 -0.05167275 -0.28366604 -0.26973855 0.5796802 0.102748305 -0.37006116 -0.8347886 -0.32891262 0.10892783 -0.36205685 -0.018790621 0.07751987 -0.20255007 -0.89505494 -0.026390355 -0.2317983 0.24834536 0.4199384 0.3894311 -0.2411333 0.08306294 -0.18916124 -0.1663566 -0.17662796 -0.8597194 -0.40529513 -0.18169974 0.005927182 0.10149776 -0.13301925 0.14890441 0.51682484 0.19502406 -0.18678531 0.17689988 -0.074111156 0.4090049 0.5394404 0.14630112 -0.24316084 0.16447215 -0.05668314 -0.10522369 0.040919594 -0.031102356 -0.17213303 -0.3838243 0.19038084 0.10029596 -0.29090068 0.019009644 0.24015017 0.11925061 0.0002330257 -0.41836125 0.4250368 0.36142975 0.4088054 0.3568994 0.24272446 0.543595 -0.41083214 0.40598634 -0.3543317 0.42552787 -0.08225521 0.12287083 -0.43732634 0.2233416 -0.22512653 0.45517805 -0.100556634 -0.27750656 -0.026866827 0.006408126 -0.09403206 -0.34640533 -0.006350598 -0.22973503 -0.35101974 -0.053530738 0.30296218 -0.1471172 -0.37953994 -0.04820283 0.022996772 -0.117015794 0.071187064 -0.5308089 -0.48264796 0.19387923 -0.2241888 -0.2262082 0.25273892 0.19180307 0.1968779 0.5315094 -0.31837055 0.14500843 0.5252944 -0.5254964 -0.38152882 0.005169615 0.1393077 0.13479869 -0.09307991 0.09976018 -0.20250615 -0.03570205 -0.37235543 -0.0083449595 0.1898865 0.1949884 0.020685902 0.2875796 0.3063248 0.14255273 0.024798477 -0.1596208 0.16738187 0.43723053 -0.114757836 -0.6936797 -0.3247035 0.42701358 0.008086168
1256 -0.04363855 0.029324632 -0.058855686 -0.35829625 -0.38566452 0.92859143 0.44239303 -0.5260608 -0.8754146 -0.24387467 0.08594612 -0.3576122 0.015942058 -0.086888194 -0.09830027 -1.1420949 -0.105116665 -0.475723 0.2263357 0.5238448 0.6309852 -0.81094503 0.5294951 -0.2268887 -0.59701014 -0.20489684 -1.2791067 -0.7355977 -0.20583282 0.16214861 0.23006983 -0.26921776 0.38318327 0.7225185 0.2743852 -0.45251217 0.31395882 0.04425645 0.4155484 0.30485356 0.40563717 -0.38460532 0.27389446 0.08226677 0.031016802 0.12018955 -0.07589697 -0.2121131 -0.7890182 -0.053121094 0.32141113 -0.44985998 0.19069324 0.10833093 0.3434729 0.11208954 -0.38944024 0.5022056 0.37403816 0.41922128 0.28213936 0.29296997 0.7690814 -0.50720954 0.6341784 -0.5228107 0.46815768 -0.0047986694 -0.004556802 -0.89435863 0.13139792 -0.26516694 0.62463826 -0.21621035 -0.3783774 0.1643223 0.011670876 -0.06937949 -0.5586756 -0.106987394 -0.15875193 -0.30589968 -0.013133619 0.33595553 -0.16989796 -0.4190839 0.0027793765 0.16905728 -0.21961373 -0.08137265 -0.6915941 -0.36747473 -0.20567691 -0.56909364 -0.40544477 0.43232283 0.56358814 0.45416525 0.6149342 -0.24015589 0.28707057 0.68185896 -0.915954 -0.4885237 0.242639 0.19675067 0.28376555 -0.1415822 0.33346906 -0.40058804 0.111172676 -0.48936617 0.1730022 0.18184327 0.3405919 -0.08382184 0.50176543 0.5134986 0.31931934 0.34870404 -0.14111452 0.18403243 0.4681373 -0.031647626 -0.9048112 -0.65797055 0.46596444 0.0815603
2175 -0.11795213 0.13243455 -0.15354072 -0.3729036 -0.48949286 0.9539516 0.4198654 -0.46710506 -0.8534806 -0.34404626 0.031187557 -0.31982717 0.045090593 -0.11224608 -0.09309218 -1.0616128 -0.13943282 -0.3675713 0.17836443 0.55244327 0.5713971 -0.6717017 0.537796 -0.1850951 -0.5124634 -0.20227253 -1.2368402 -0.6990705 -0.24839619 0.099432684 0.12741831 -0.29247296 0.2200293 0.639004 0.28887936 -0.44185928 0.34880888 0.010758056 0.26959667 0.40190753 0.527685 -0.27070975 0.37883368 -0.006933245 -0.04257868 0.08925486 -0.0589043 -0.1520231 -0.75847846 0.015891766 0.30334926 -0.45841292 0.14169455 0.08565649 0.32304806 0.22283903 -0.44075978 0.3953077 0.33424148 0.45002618 0.36421475 0.25308242 0.77075225 -0.53068155 0.64659435 -0.5355166 0.5535219 0.020795768 0.054020036 -0.808126 0.20748398 -0.20726714 0.6892599 -0.16131374 -0.3774297 0.07835635 0.06464994 -0.022446658 -0.5614059 -0.19927123 -0.19161025 -0.3352221 0.05972549 0.39909124 -0.17080508 -0.39951274 -0.09583538 0.08816346 -0.15893804 -0.061479226 -0.6126281 -0.37506247 -0.12384593 -0.49030864 -0.32770404 0.50798863 0.4275192 0.29059172 0.6504892 -0.141874 0.1810697 0.7698114 -0.95888036 -0.49415213 0.19276491 0.30725116 0.27042273 -0.14337792 0.31650555 -0.30017743 0.13716532 -0.348041 0.17533351 0.19469517 0.4159 -0.09835072 0.45687774 0.4357925 0.2964469 0.37422153 -0.18903324 0.17672962 0.43909755 -0.07148464 -0.92364067 -0.5833455 0.4968849 0.09592505
5 -0.5154069 -0.72159475 -0.3216621 -0.15801573 0.27521703 -0.46154928 -0.3760586 -0.14787641 -0.54205686 -0.32196257 0.12315028 0.019987302 -0.058093812 -0.01224944 -0.15844034 -0.27490577 -0.059100915 0.5598211 -0.18179183 0.5371317 -0.3142324 -0.06751456 0.4557684 -0.3364239 -0.21410267 -0.68988603 -0.43379945 -0.59727865 -0.08705997 -0.29558432 0.2275402 -0.025472483 0.10955574 1.1558955 0.36265272 -0.057270702 -0.1375831 -0.23763454 -0.07929188 0.40430453 0.20863186 0.08980082 0.6382996 0.07220808 0.024700677 0.18593904 -0.5955423 -0.20102192 0.07915824 0.38444382 0.54823047 0.57589054 0.20781985 0.8652931 0.42614824 -0.43440315 0.36659873 -0.059576977 -0.8079446 -0.17046855 0.5762513 -0.3148423 0.3714492 -0.19166304 -0.03790981 -0.24248108 -0.56338865 0.4761825 0.67369574 -0.29055095 0.756005 -0.07696518 0.11611947 0.3219026 0.35810062 0.16903543 -0.8017271 -0.30505568 -0.3875475 -0.027574917 -0.7334923 0.24550107 -0.4682837 -0.3181689 -0.08767073 0.19231382 -0.55294394 -0.2417492 -0.026287654 0.10664363 -1.2224742 0.43386072 1.2079111 0.07349193 0.51528543 -0.34151736 -0.2988099 -0.48869523 -0.12586555 -0.66780865 -0.031102832 -0.042397663 0.46886972 -0.9116191 -0.011326568 -0.04658579 0.8055498 0.8307246 0.49265265 -0.048792485 -0.258932 -0.43329862 0.10556556 0.326629 0.2718622 0.25894612 -0.1923015 0.45510292 0.5655774 -0.4560405 -0.36372653 0.06763247 -0.14229481 -0.2568999 0.2505442 0.34379214 0.540156 -0.44239846
1629 -0.3246825 -0.7256577 -0.12736115 -0.17095925 0.11887521 -0.44596243 -0.26295257 -0.28288636 -0.50070006 -0.2229615 0.018614793 0.12058512 -0.0018554752 -0.07836378 -0.3210996 -0.16640845 -0.04513961 0.554561 -0.23504648 0.46650144 -0.44377068 -0.023385838 0.50790656 -0.2620251 -0.06704655 -0.6679363 -0.24283051 -0.54321146 -0.089000665 -0.18815108 0.1533753 -0.13694108 0.21368593 1.1522253 0.36581883 -0.03762834 -0.103514194 -0.1984053 0.09671035 0.56560767 0.07025424 0.16931565 0.57491666 -0.058253743 0.038121935 0.37858415 -0.40184447 -0.21584383 -0.0108881695 0.4719399 0.539934 0.44530857 0.32477805 0.84420896 0.27458453 -0.4968123 0.4033733 -0.09204337 -0.8386698 -0.06322872 0.53290313 -0.40230405 0.32323736 -0.16507272 0.08186187 -0.10368011 -0.44016987 0.47450638 0.6561637 -0.19486843 0.65252215 -0.034894597 0.09645377 0.22174026 0.26024196 0.24694547 -0.8474174 -0.1842506 -0.40994582 -0.18041092 -0.6631569 0.22397107 -0.48830873 -0.19861048 -0.1778915 -0.01960037 -0.527645 -0.3406089 -0.04557046 0.17973907 -0.9069197 0.18801397 1.1993787 0.17541097 0.5486517 -0.32102668 -0.43995994 -0.40835935 -0.07828962 -0.6450767 -0.10937624 -0.14771079 0.4534516 -0.78067434 -0.03733638 -0.053681638 0.88304543 0.95076936 0.44847295 -0.101193465 -0.27421623 -0.50360507 0.24624284 0.34650856 0.1958928 0.17315759 -0.090672396 0.6278457 0.5103822 -0.31319183 -0.4230776 -0.05284807 -0.06695509 -0.3099374 0.17734875 0.36423388 0.5212996 -0.38189095
2546 -0.32776037 -0.4367866 -0.1704657 -0.3933379 0.38267368 -0.20218228 -0.50273824 0.060689125 -0.6409827 -0.23255265 0.058807433 -0.052855633 -0.08740539 0.043837715 -0.060405046 -0.39803687 -0.0266646 0.52577335 0.017510667 0.49709594 -0.01019849 0.087160826 0.33261284 -0.2246411 -0.17912321 -0.39500573 -0.31428093 -0.49252585 -0.061509866 -0.24163507 0.11574148 0.08123242 -0.14533979 0.5084251 0.4459024 -0.1498712 -0.2739832 -0.18122585 -0.09066849 0.30462396 0.45426413 0.22440588 0.26029247 0.25723404 0.008548599 -0.047121823 -0.7614419 -0.13533059 0.26902843 0.08653876 0.27622452 0.40365157 -0.15862942 0.4538871 0.3614968 -0.34184724 0.0043962123 -0.18877546 -0.38019547 -0.2363694 0.4701796 0.0019862968 0.43399465 -0.094366014 -0.2829867 -0.30057034 -0.45902368 0.21852246 0.42404592 -0.4096265 0.41633078 -0.16192852 0.061517462 0.20848113 0.34644434 0.18655594 -0.40824988 -0.38238665 -0.18955965 0.12423621 -0.52072775 0.16818672 -0.3602102 -0.38141465 0.09535339 0.19268097 -0.49204338 -0.17113179 0.005579917 0.08755297 -1.1624632 0.49639344 0.804433 0.03056413 0.50969344 -0.23146604 0.069809675 -0.32451528 -0.014750452 -0.52058554 0.2121853 0.12929775 0.36703092 -0.8767939 -0.12619007 -0.23135854 0.55289227 0.3928985 0.21436597 -0.044794086 -0.44835016 -0.2995121 0.15011038 0.18292508 0.21579997 0.29001927 -0.2714475 0.26336128 0.39063877 -0.54675007 -0.13760515 0.27716386 -0.13742463 -0.38876697 0.13988575 0.31281033 0.6310542 -0.35503557
1659 -0.5664804 -0.7065563 -0.23262395 -0.22191425 0.17112702 -0.5392126 -0.29426932 -0.279174 -0.4796613 -0.27687082 0.13015378 0.10997311 0.035046738 -0.15800099 -0.20979394 -0.22379495 -0.040667966 0.5422756 -0.29212147 0.58188695 -0.42252722 -0.07058328 0.54596806 -0.2887686 -0.16563916 -0.7679557 -0.2912257 -0.57615685 -0.108840644 -0.25779068 0.22255577 -0.12408872 0.22351016 1.2627312 0.4101261 0.004107836 -0.007975062 -0.24635898 0.05169148 0.49615675 0.12924287 0.14085066 0.67719054 -0.0074027376 -0.042213965 0.37389553 -0.44259578 -0.2604191 -0.012745163 0.4644849 0.61354417 0.4816342 0.32251304 0.83941495 0.4173185 -0.5344351 0.46121758 -0.014452109 -0.91324884 -0.18721443 0.6422266 -0.3798727 0.292044 -0.21819963 0.019408101 -0.17600968 -0.5658663 0.5333325 0.74869055 -0.22985004 0.7010739 -0.005155223 0.14666744 0.26268616 0.28275496 0.27789292 -0.9848788 -0.2476678 -0.45189726 -0.040372424 -0.7453345 0.26907533 -0.50332874 -0.15009528 -0.09794423 0.12363205 -0.59072053 -0.25876093 0.013007918 0.20277788 -1.1322018 0.3762006 1.3028482 0.08901843 0.5998988 -0.33248731 -0.4885632 -0.4127651 -0.045137025 -0.73776215 0.056625295 -0.07360331 0.5005045 -0.79303396 -0.052011907 0.023043206 0.9495947 0.9261886 0.5017387 -0.08654328 -0.3018216 -0.553467 0.1244871 0.36778563 0.24025933 0.23442845 -0.09817736 0.55676246 0.4604064 -0.39489323 -0.4026743 -0.03947898 0.013214977 -0.32839862 0.3013024 0.29541495 0.6126378 -0.41381967
6 0.21971962 0.087181315 0.04628354 -0.15841292 -0.31391713 -0.18743534 0.5014836 0.13623074 -0.24322791 0.27753872 -0.2229664 -0.007407205 0.015751839 -0.06771841 -0.30957222 -0.1206927 -0.05481008 0.2820867 -0.26454058 0.11528029 0.24790862 0.07202188 0.05811886 -0.11475455 0.41150895 -0.13948955 -0.21752964 -0.2617773 -0.06782345 -0.40706056 0.26446688 -0.3814906 0.24486804 -0.09360918 0.15407334 -0.5350319 -0.34977156 0.104209006 0.33515176 -0.08960318 -0.053495083 -0.16006549 0.061342318 -0.18756989 -0.0028829305 -0.08826915 -0.31069326 0.001314273 -0.18211013 0.11214424 0.048411213 0.08294045 -0.008666793 0.28606007 0.50896 0.09941888 0.2673451 -0.062192433 0.2253712 -0.61959356 -0.26715544 -0.26254284 0.09056999 -0.11991381 0.17154984 -0.2653413 -0.030285198 -0.19163138 0.4752949 0.02590635 0.00031693873 -0.07047532 -0.5101989 0.32989705 -0.061899465 0.2597306 -0.650137 -0.1783455 0.3952876 0.037174 -0.18978634 -0.2365749 0.16462684 0.19580138 0.09389226 -0.19018318 0.46466446 0.14630382 0.063486 -0.19480062 -0.25096 -0.41813916 -0.13409191 -0.082273774 -0.2791591 -0.22992799 0.19226593 0.37008035 0.21094838 -0.08136676 0.12891738 -0.6922458 0.11809916 -0.6121946 -0.106150694 0.11152864 -0.045625437 0.38774472 -0.036601968 -0.20020936 0.41021603 0.09214256 0.27711827 0.16135858 -0.53374344 0.047800787 -0.48716062 0.46835393 0.20389779 0.33751556 0.3771143 -0.1191086 -0.03900555 0.15521239 -0.5670687 -0.21135491 -0.28641173 -0.18338536
1416 0.2625272 -0.15749419 0.096064635 -0.27772212 -0.24097891 -0.044565085 0.30281052 -0.008764675 -0.12600142 0.13108364 0.17619807 -0.19855997 0.033401158 -0.03198224 -0.44911662 0.07808255 -0.27536556 0.15385742 -0.4597053 -0.18979275 0.30800352 0.27470207 0.1772578 -0.06801048 0.39648855 -0.34005895 0.03932349 -0.05361845 -0.13861729 -0.23870224 0.42277095 -0.006999869 0.18264104 -0.09220556 0.054264 -0.4866771 0.052880526 -0.019026741 0.27149314 0.09279486 0.0059302067 -0.43232358 -0.0763686 0.078618445 0.043824174 0.017868133 -0.2634157 -0.10816614 -0.061531965 -0.07964851 -0.093772285 0.072368026 -0.1226729 0.21004333 0.52843714 -0.13627523 0.19751126 -0.17776968 -0.034896947 -0.65645695 0.006148046 -0.26756275 -0.29209253 -0.047023352 0.0041114055 -0.4488116 -0.15556182 -0.16270098 0.49586204 -0.3092178 -0.10717144 -0.04171233 -0.24540225 0.14443955 -0.0697234 0.18804206 -0.5360067 -0.104235575 0.2085499 0.029937373 -0.17687269 -0.287598 0.096502565 0.1032407 -0.042816814 -0.31933987 0.33986735 0.15425545 -0.05149139 -0.42945057 -0.15442744 -0.03857569 -0.031707328 -0.012718992 -0.4145288 0.085143164 0.08422495 0.15567325 0.3214884 0.10736451 0.11421561 -0.34219158 -0.03224992 -0.28233227 0.050885182 -0.13373488 -0.017574212 0.3911648 -0.33842382 -0.05544165 0.09372547 0.015636243 -0.07456224 0.11677035 -0.44234136 0.27282867 -0.17841858 0.4721576 0.19524127 0.113380864 0.49953517 -0.14475103 -0.1178968 0.099321455 -0.47962758 -0.050250627 -0.1318671 -0.1332141
1602 0.09186401 0.2034605 0.088693574 -0.4559082 -0.30360982 -0.18242693 0.23403198 0.24868126 -0.205313 0.3602795 -0.105662994 0.2054898 0.005574429 -0.15128726 -0.3407912 -0.2580575 -0.022759143 0.4584655 -0.30464515 0.00044773598 0.17085184 0.2611557 0.0626521 -0.061246432 0.19134825 0.054872453 -0.28792018 -0.17065835 -0.0883205 -0.28736117 0.30256292 -0.32956722 -0.031602755 -0.113593094 0.26410648 -0.2861683 -0.1744367 0.087784186 0.44982317 0.111423545 -0.07583654 -0.11839879 0.09387367 -0.26024884 -0.030377956 -0.041987788 -0.40077084 0.018396035 -0.26546425 0.07925823 0.005383344 0.19838029 0.07483454 -0.10406119 0.2742572 -0.10919735 0.39525285 -0.23916204 -0.08806387 -0.4805839 -0.2613048 0.0005426362 0.03168562 0.019751208 0.25848737 0.053690314 0.017334342 -0.17701972 0.5414143 0.25086793 -0.4189242 -0.12042392 -0.47042295 0.35664034 -0.2591784 0.07095747 -0.6079517 -0.20009957 0.12991808 0.051651645 -0.08753239 -0.12544313 0.35179502 -0.06054345 0.06169256 -0.121525615 0.34086293 0.18318942 -0.07252386 -0.13228314 -0.41978338 -0.26443675 0.0034713263 -0.2968251 -0.40482283 -0.26801974 0.33264863 0.3605646 0.094741836 0.124525614 0.37088993 -0.63447905 0.0030871646 -0.68120164 0.061671987 0.09261975 -0.076958105 0.086528 -0.07398901 -0.3271631 0.11730204 0.18004957 0.57266617 0.2803306 -0.24592274 0.25072387 -0.349263 0.6726666 -0.10076146 0.19350474 0.38942578 -0.17185466 -0.0031433983 0.012508653 -0.4489017 -0.13021907 -0.26878747 -0.10315663
1042 0.20556338 0.06652448 -0.03988386 -0.3026498 -0.32711205 -0.25864625 0.437921 0.17559727 -0.005365568 0.14468707 -0.18498343 -0.07649727 -0.32118046 -0.13174422 -0.2821317 -0.30092332 0.0060630264 0.0633284 -0.072261006 0.099240154 0.045735467 0.042219203 0.043183632 -0.25904837 0.59761935 -0.18460499 -0.16926509 -0.22675407 -0.15566112 -0.63307106 0.2623721 -0.3374763 0.15568621 -0.13747708 0.13051414 -0.4694622 -0.2987459 0.088195026 0.1765808 0.014254657 0.006286803 -0.27303427 0.15152924 -0.3794082 -0.054833956 -0.23672181 -0.13615288 -0.12029417 -0.14493321 0.05978585 0.033781197 0.008746585 -0.13162574 0.29264495 0.36804107 0.06404737 0.15554401 0.23726384 0.14435388 -0.69210017 -0.18199618 -0.33178455 0.21754077 -0.1770664 0.3000698 -0.23504835 0.19167574 -0.0009909827 0.42301598 0.06052274 0.049784105 -0.014013753 -0.4639627 0.47069624 -0.057716105 0.29027304 -0.6293398 -0.108871445 0.34703466 0.11610368 -0.19955634 -0.17062883 0.08849748 0.15017325 0.09989774 -0.1522747 0.37432995 0.09714674 0.1980629 -0.11394953 -0.42839938 -0.572179 -0.32500914 -0.06726297 -0.07083503 -0.2686701 0.16847742 0.28436232 -0.06160844 -0.12592927 0.28368488 -0.6774077 0.28460512 -0.5219137 -0.2645893 0.29211628 -0.013612768 0.2852234 0.09119551 -0.29956535 0.56631273 0.13776866 0.3331695 -0.13704725 -0.75190413 -0.179939 -0.5656863 0.38806802 0.12522414 0.27178597 0.19119316 -0.121468924 -0.15145542 0.15075073 -0.46157444 -0.12563019 -0.36731353 -0.33617857
373 0.22498862 0.15082112 0.025555445 -0.15694179 -0.30329588 -0.3398425 0.5822692 0.2193422 -0.22172724 0.12469311 -0.3155703 -0.14591554 -0.0725331 0.03570784 -0.3146305 -0.09673369 -0.12502094 0.21933965 -0.18972456 0.08897346 0.22019893 0.01871441 0.0917348 -0.20962842 0.5587209 -0.16798937 -0.22974296 -0.31507054 -0.021160582 -0.53789055 0.25797552 -0.40507826 0.24668555 -0.18965521 0.16299413 -0.58276975 -0.40907636 0.20540157 0.16235873 -0.0014814007 -0.0026897294 -0.23967272 0.022858733 -0.21669503 -0.0113265095 -0.28793946 -0.11384356 -0.14965932 -0.25774536 0.13038355 0.09177892 0.044160377 -0.0863017 0.5141769 0.57985187 0.09915291 0.3057368 0.057526212 0.22048804 -0.6179641 -0.30682042 -0.35054225 0.20926744 -0.10792756 0.21397659 -0.3814513 0.18715878 -0.08973506 0.4134793 0.10842127 0.13368626 0.034595206 -0.6056172 0.415113 0.0073041497 0.2762726 -0.73737466 -0.028587107 0.5610081 0.020159777 -0.16641982 -0.37207207 0.08364243 0.3412128 0.13307 -0.27127126 0.43176258 0.16207248 -0.008057408 -0.15267286 -0.24870473 -0.6601692 -0.26819876 -0.057268485 -0.13551621 -0.35670558 0.02790946 0.2078452 0.13467926 -0.16055422 0.2232941 -0.7808596 0.15527266 -0.7284764 -0.30919567 0.31014577 -0.0096396785 0.42562455 -0.020805296 -0.3419183 0.5504157 0.11438357 0.33348897 0.16570213 -0.53001356 -0.07101497 -0.6956326 0.35322493 0.19699594 0.4483047 0.30604404 -0.07664351 -0.046445582 0.18050131 -0.5100593 -0.12528394 -0.32153344 -0.12604424
7 -1.0413107 1.0835394 0.9837741 -0.762659 1.3359681 -0.7131153 1.4253207 -1.0408207 0.36955947 -0.8971506 0.5057449 0.57289374 0.44977817 -0.21504675 -0.47167346 -0.9019198 -0.064914584 -0.05420927 -0.88641346 -0.004382795 0.20209102 1.3724874 -0.82283473 -0.79011786 -0.13125177 -0.62539345 -1.6450979 -0.2709917 -0.6887157 0.7089976 -0.4570332 0.5008037 0.087497406 0.6266422 1.2190593 -1.2056508 0.17059618 -0.5531004 -0.66515785 -0.10448976 -0.4780072 -0.6230862 -1.2942265 -0.06705109 0.34025916 0.035670944 0.026005223 -1.0148636 0.717783 0.5139528 -0.61762744 0.11346251 -1.6216913 0.15824477 0.4551457 1.0292526 -0.3381799 0.34337154 0.10569233 -0.6320049 -0.20814155 -0.14240421 -0.17908683 -0.408495 0.6678547 0.4132846 -0.79673225 0.07277059 0.7467869 -1.2065474 -1.0486474 0.042290892 0.27261922 -0.33835548 0.7755044 0.35257754 -1.4977593 0.49088317 0.84796 1.5873835 0.22802326 1.5775932 0.37646118 0.41122264 -0.21781394 -0.86603445 0.04235697 -0.060916513 0.46017453 -0.22720462 0.06778851 0.17838721 -0.33404362 0.25013924 0.42634004 -1.1914887 0.17623775 0.86920375 -1.2931584 1.3992261 -0.43192628 -0.15970793 -0.9528546 -1.2581148 0.37380564 2.0729651 -0.9757715 -0.5132382 -0.40196282 0.34466654 1.0534003 -0.36882728 -0.5482874 0.23511125 0.44303817 -0.010821462 0.5467025 0.11242995 -0.269946 0.16287448 -0.5029993 0.46530026 0.49450722 -0.24160412 -0.47459278 0.38740185 0.3545834 -0.6403914
208 -1.0433443 1.091 1.0003896 -0.77413446 1.340859 -0.70439744 1.4332983 -1.0436232 0.352028 -0.89822364 0.5009584 0.57578975 0.45315552 -0.21271434 -0.471786 -0.90676534 -0.075618185 -0.067473374 -0.89265317 -0.0030801415 0.18979819 1.3692079 -0.84028894 -0.79133135 -0.1273186 -0.6320588 -1.6420852 -0.28011456 -0.691544 0.7112768 -0.4741568 0.4976721 0.09146285 0.6177122 1.2035416 -1.2196326 0.15021774 -0.53900886 -0.63259995 -0.11690601 -0.47823888 -0.62816525 -1.2748888 -0.09202168 0.3486807 0.031709336 0.030810742 -0.9983192 0.7172718 0.51174885 -0.6387364 0.121750936 -1.6267604 0.14653526 0.4519068 1.0062532 -0.34245297 0.34235215 0.09062796 -0.6199401 -0.23035432 -0.1348229 -0.16991203 -0.40240848 0.6867224 0.4073254 -0.7912276 0.063791804 0.75781083 -1.22076 -1.0410964 0.043839455 0.2584588 -0.34586546 0.7670802 0.35937265 -1.4875078 0.49296507 0.84659827 1.5793463 0.23736493 1.5919529 0.37317085 0.40897667 -0.21244726 -0.85068595 0.047279514 -0.038045503 0.4725264 -0.21676204 0.069357246 0.17839523 -0.33510664 0.25110516 0.42905167 -1.2005066 0.16670413 0.86175996 -1.3025212 1.4118614 -0.42425638 -0.15256418 -0.958986 -1.246552 0.37517238 2.06663 -0.97259206 -0.51019657 -0.40178135 0.34727052 1.0649582 -0.37513658 -0.5452343 0.2243642 0.44829345 0.0011337426 0.5437709 0.11463035 -0.28289747 0.16364643 -0.513805 0.4935894 0.47896507 -0.26002327 -0.46018043 0.38102445 0.36615387 -0.6288047
8 -0.3878385 -0.14611015 0.5628953 0.18073046 0.017557682 0.010002493 0.1809694 -0.1616894 0.40064007 0.1938938 0.23153576 -0.904892 -0.21838656 0.040941503 -0.28628463 -0.28130594 0.2738266 0.27633548 0.030918337 0.29650065 0.4307436 0.15786125 0.44559306 0.30434176 -0.477359 0.21483691 0.049052 0.1266936 -0.20768856 -0.07487433 -0.13713494 -0.26392472 0.044128466 0.46240887 0.037860066 -0.025749622 0.40318933 0.30233452 -0.31029752 0.03570251 0.92145693 -0.26608709 -0.011734132 -0.21683954 0.026370846 0.4812788 -0.65457505 -0.43572444 -0.25779676 0.2060902 0.09337824 -0.30255276 -0.7202208 0.22125694 -0.10769437 0.18368179 0.03445282 -0.22379819 0.9535439 -0.64212954 0.040011574 -0.30089864 0.4309013 -0.2540287 -0.15673707 -0.43869093 -0.047899548 -0.67318535 0.47590274 -0.122606814 0.10237168 0.15149884 0.24133825 0.2148362 0.007272486 -0.5156927 -0.3666501 -0.12053186 -0.054664403 0.2646041 -0.35790318 -0.36030382 -0.278301 -0.06881772 0.30581546 0.069673866 -0.003758381 0.2815682 0.1297599 0.16213255 -0.2726145 -0.10621095 -0.27594972 0.0077531226 0.49590662 -0.19446391 0.15134358 0.5229552 -0.12991358 0.2587276 -0.44100648 -0.21918571 -0.540272 -0.119206026 0.17741038 0.2539341 -0.17813091 0.29208347 -0.07416401 -0.29421246 0.581278 -0.13094914 -0.0743053 -0.14413552 0.32910958 -0.29403996 0.30382207 0.78664184 -0.60848075 0.43464047 -0.07668455 -0.005780151 -0.14572054 -0.17953703 -0.1191535 -0.47672766 0.62003225 0.094265305
281 -0.28430638 -0.23042944 0.330157 -0.13174902 0.014687685 0.073003724 -0.03019713 -0.17565693 0.26509905 -0.09925284 0.35543635 -0.6239248 -0.31259584 -0.024671009 0.1106817 -0.48665312 0.06824479 0.11557172 -0.05770767 0.5019288 0.7487621 -0.18774624 0.29231143 0.34666425 -0.64424026 0.32619694 -0.2634888 -0.09088521 -0.34708965 -0.038708564 0.09508295 -0.050243173 -0.0978186 0.3571547 0.24746598 -0.36810032 0.13623513 0.2989979 -0.1310966 0.21972042 0.6809514 0.13699655 -0.120121144 -0.07377303 0.10456713 0.2188572 -0.72165895 -0.41187075 -0.19770421 0.10863641 0.22127223 -0.21486202 -0.34419993 0.034531604 0.22650784 -0.008116603 -0.0030701167 -0.40045848 0.5536177 -0.32459766 -0.12160537 -0.07047865 0.10820866 -0.39114913 -0.11049131 -0.17607298 0.24432099 -0.6051813 0.169645 -0.13481846 -0.23906389 0.2177899 0.27293843 0.30470145 -0.12819311 -0.31065965 -0.15743482 -0.37279126 -0.3619517 0.2519562 -0.02422081 0.004130361 -0.17094302 -0.14830045 0.13910617 0.1470448 0.04375729 0.08068273 -0.09343167 -0.106287554 -0.30442494 0.07830254 -0.4105403 0.10666968 0.43451402 -0.06102407 0.16918977 0.4963005 -0.23786208 0.22048673 -0.34865725 -0.03340126 -0.21867634 -0.043272685 0.12924546 0.11251016 -0.1607695 0.078758575 -0.014313311 -0.088894665 0.44809046 -0.27491224 0.020237189 0.15183935 0.27554256 -0.28283978 0.18044053 0.5502966 -0.23449974 0.26844963 -0.02038501 -0.06146588 -0.07103005 -0.12385733 -0.044306044 -0.59188724 0.5248835 -0.037117776
1996 -0.53845537 -0.13634758 0.5141305 0.55826896 0.08441455 -0.008269139 0.3814506 -0.17205799 0.38695368 0.41436255 0.43891236 -0.66404873 -0.087821335 0.11558472 -0.17355046 -0.10626697 0.3891896 0.15271233 0.20844102 0.14315164 0.15824455 0.31660736 0.7023175 0.15174359 -0.27185777 -0.08430772 0.12495007 0.1596351 0.14091101 0.05246964 -0.11721633 -0.21630633 0.13013223 0.120457835 0.028323358 0.099356316 0.30876675 0.4211984 -0.6496759 -0.21574128 0.8536191 -0.33581036 -0.0202333 -0.2225549 0.2461224 0.4329354 -0.88895446 -0.18716998 -0.13613331 0.35271657 -0.3142719 0.07821047 -0.94178104 -0.10774058 -0.16868974 0.13322729 0.13436921 0.05671519 0.84410346 -0.53651583 0.19223592 -0.34362805 0.6216886 -0.31585792 -0.26007697 -0.37864068 -0.19026132 -0.37000436 0.6320737 -0.07254306 0.20152187 0.16123225 0.27853113 0.12726295 0.19921596 -0.24189593 -0.548203 -0.36185235 -0.19494681 0.445842 -0.19192396 -0.6079624 -0.07678804 -0.25553977 0.23210908 0.036366332 0.22354634 0.3459858 0.37748805 0.2636391 -0.32441106 -0.24999644 -0.33964583 -0.019616319 0.2584994 -0.15050328 0.017876156 0.2739335 0.16957945 0.23481573 -0.31140393 -0.34825227 -0.5773647 -0.10108794 0.22617795 0.43532833 -0.06567943 0.07801319 -0.08655234 -0.34848493 0.29698247 -0.35216874 -0.06940224 -0.16871186 0.41633365 -0.03440963 0.38364094 0.39191467 -0.58636886 0.20671657 -0.33803388 -0.004008548 -0.12652414 -0.3263027 -0.3234964 -0.22599985 0.33616814 0.037684537
269 -0.55646497 -0.2608601 0.45283583 0.006099358 -0.18018189 -0.27513713 0.12440358 0.16067238 0.5047241 0.3093552 -0.12760927 -0.9033317 -0.2039629 -0.329445 -0.3642727 -0.19173995 0.23841989 0.09438677 -0.013675066 0.094828956 0.5142448 0.16436592 0.33051702 0.28107014 -0.43418533 0.32400128 0.18549573 0.16797432 -0.33722514 -0.074241295 -0.22602567 -0.7575473 0.11038736 0.72949773 0.06901019 -0.17832327 0.27348724 0.28866154 -0.072383955 0.21126318 1.2022227 -0.29181135 -0.023017712 -0.24082409 -0.21446998 0.56881666 -0.5548149 -0.63222563 -0.511601 0.28622407 0.27272108 -0.5895043 -0.5227146 0.5311342 -0.110878356 0.104857326 -0.07159577 -0.5667215 1.0046118 -0.79340416 -0.11089149 -0.5176581 0.34090197 0.11148258 -0.017904907 -0.40921307 0.22395156 -0.76606995 0.41047534 -0.016024873 -0.046335604 0.31536683 0.121727005 0.22605976 -0.008449802 -0.8832408 -0.25665984 -0.046083607 0.10094451 0.15574552 -0.3234005 -0.53278494 -0.51828545 0.17993096 0.4654137 0.2965802 -0.23883402 0.13175985 0.016135179 0.005744899 -0.3840657 -0.10760857 -0.08630215 -0.21018936 0.71709687 -0.32366034 0.29266107 0.57139367 -0.43899396 0.22314231 -0.687901 -0.071844816 -0.648088 -0.12513758 0.3004993 0.2699065 -0.21235092 0.6684249 -0.09920611 -0.31452984 0.92969924 0.018032778 -0.12747277 -0.3093495 0.0696954 -0.5661702 0.21583433 1.1125231 -0.5532259 0.90270925 -0.16703407 0.07576531 -0.41637966 -0.13446283 -0.07075479 -0.3929251 0.9263916 0.0024980337
9 -0.41826436 0.37374488 0.3776962 -0.46537042 -0.4444095 -0.7106788 0.48979214 -1.1799382 -0.48599312 -0.32927662 -0.2903858 -0.25311077 -0.10520066 0.42702946 -0.44740683 -0.17317507 1.1510789 0.48634028 -0.20146622 0.18090172 0.26623031 -0.17023163 -0.61556923 -0.85454935 -0.066154934 0.18066835 -0.21974948 -0.65028733 -0.52682024 -0.20182186 0.17953014 -0.52978545 0.04367366 -0.2698048 -0.021599956 -1.2501084 0.34967834 -0.612067 0.47197255 0.6916837 -0.49484247 -0.3490951 0.29399085 -0.3170852 0.44058523 -0.28394413 -0.38594016 -0.09249194 -0.659598 0.2428287 -0.8148104 0.73364776 -0.048567038 -0.00014535415 0.0011106216 -0.5513113 -0.4203564 -0.50408787 0.074122846 0.71986306 -0.21681388 -1.0421942 0.23479494 -0.58638203 -0.40094012 0.5063911 0.31903902 -0.21348521 0.1408792 0.537903 0.36843532 0.13376053 -0.8617966 -0.56556416 -0.32205424 -0.09817289 -0.014217712 0.2095173 -0.44852412 0.31389368 -0.83445877 -0.15638874 -0.11510439 0.02838835 -0.0524019 0.84841824 -0.9191565 -0.80803204 -0.45032603 -0.036845926 -0.048690178 0.17498353 -0.31975138 -0.07982178 0.036558345 1.1321248 0.18913953 0.026897946 0.08412713 -0.335989 -0.49755377 0.17510173 -0.03087996 -0.6155261 -0.69752824 -0.18768783 -0.37424263 -0.3240926 -0.3743036 -0.2489253 -0.36902562 -0.4456153 -0.09620178 -0.28472394 0.48882356 -0.2437178 0.7002861 0.49153507 1.0002453 0.5128869 -0.18145472 -0.21692523 0.23295577 -0.37836707 -0.09073883 -0.7673595 -0.25127488 -1.0559824
2614 -0.28635603 0.29857296 0.3427422 -0.33267796 -0.35615942 -0.81506836 0.40996984 -0.9057153 -0.47877708 -0.18419376 -0.38449228 -0.1969055 -0.10489636 0.4154717 -0.38425654 -0.1394371 0.8575473 0.559646 -0.2445855 0.16441454 0.29682976 -0.06686321 -0.46332282 -0.7094673 -0.0069137285 0.29474095 -0.27453288 -0.58109933 -0.45591134 -0.21237499 0.08519497 -0.30845407 0.07015191 -0.24359444 0.011947934 -1.1120392 0.36739543 -0.6514979 0.47136515 0.623062 -0.42660463 -0.23898064 0.20078617 -0.27585208 0.56058013 -0.2280914 -0.43258417 -0.19804193 -0.64744925 0.3075649 -0.79245394 0.5625312 -0.094514266 0.10638702 -0.01539862 -0.5554444 -0.3957168 -0.463255 0.09776795 0.6491949 -0.2982677 -0.8974847 0.3943896 -0.47510734 -0.2808214 0.32191747 0.39511937 -0.25729632 0.021466786 0.49264148 0.34009358 0.12407151 -0.80319846 -0.553887 -0.21318796 -0.08572078 -0.10437543 0.014693816 -0.46830374 0.21581616 -0.68731225 -0.273983 -0.09757067 -0.11683425 -0.06528743 0.6480933 -0.6572313 -0.5679999 -0.24350508 0.06484688 -0.009976864 0.11126824 -0.22504854 -0.10774216 0.07371533 0.9763731 0.33579868 0.014796328 0.044443987 -0.33978516 -0.5577325 0.18813568 -0.0018545951 -0.38955626 -0.6074708 -0.19912817 -0.31162456 -0.26299343 -0.34364805 -0.1493482 -0.17473833 -0.3481447 -0.16716264 -0.20468563 0.45422095 -0.31384 0.560021 0.4256222 0.78298575 0.45637277 -0.154752 -0.09258259 0.18262796 -0.30512732 0.032770757 -0.6761942 -0.10765333 -0.8232556
723 -0.46903318 0.4896556 0.45904717 -0.46907085 -0.44320342 -0.6792936 0.422758 -1.0939682 -0.48634583 -0.27840233 -0.2600014 -0.16358235 -0.06558742 0.42452446 -0.4878677 -0.18527614 1.0377823 0.5423328 -0.25993547 0.2374944 0.32903588 -0.24671386 -0.5525522 -0.8262759 -0.08145831 0.19151375 -0.23852617 -0.6592575 -0.5345641 -0.21852219 0.15165666 -0.51747376 0.06640894 -0.31680647 -0.030119268 -1.2337321 0.3337173 -0.6529007 0.3969124 0.6407244 -0.49035338 -0.26564798 0.2565584 -0.2629909 0.5341759 -0.2703962 -0.47468078 -0.079069756 -0.6690309 0.34125003 -0.8472813 0.73864114 -0.072257675 0.042178757 -0.006254772 -0.5581023 -0.38586834 -0.51198906 -0.02922536 0.71794844 -0.23038495 -1.1062335 0.37192735 -0.4642683 -0.38940609 0.4798377 0.3518398 -0.37450963 0.080627024 0.5473534 0.32772252 0.13288037 -0.9358166 -0.5516727 -0.32802248 -0.06959509 -0.08052806 0.18611158 -0.45041144 0.27874592 -0.7241643 -0.34432256 -0.12882403 0.0024023175 0.062461413 0.80694187 -0.9063083 -0.7623226 -0.4487129 0.10742638 0.048427228 0.19179401 -0.28412375 -0.06999013 0.14522862 1.0732608 0.23665872 -0.02813567 0.13522208 -0.39363453 -0.60191613 0.26383826 0.034388717 -0.65477 -0.4939785 -0.1870399 -0.41704288 -0.38787803 -0.42049727 -0.33687797 -0.3144936 -0.44292483 -0.17226326 -0.19988088 0.54477596 -0.21365777 0.7648869 0.52727187 0.8983745 0.54095566 -0.09888654 -0.21234582 0.23259756 -0.31102392 -0.10151449 -0.6645639 -0.23881593 -1.0887482
10 0.4615829 -0.021720117 -0.9390024 0.19389696 0.6166776 0.10650345 -0.36992252 0.24256603 -0.0045200577 -0.43911985 -0.2513432 -0.3875055 -0.02645862 0.77035993 0.6253023 0.10930234 0.8254592 0.4420969 -0.08941591 0.25501794 -0.48671454 0.52350414 0.2458121 -0.12687156 -0.27296546 0.05160226 -0.18343762 -0.40252966 -0.78223455 -0.084071204 0.10039284 0.7653473 -0.094207734 -0.14451234 -0.050285187 0.08648962 0.25777102 0.14205325 -0.5662449 0.24486807 0.119886234 -0.4789892 -0.2950975 -0.8144517 0.61235136 0.23643744 -0.7262913 -0.05006853 -0.13823715 0.3765068 -0.046417523 -0.3989151 0.16839696 -0.23739964 -0.44210055 -0.111461684 -0.4741077 -0.42843303 -0.08721623 0.11421797 -0.10782479 -0.62056595 0.70759034 -0.49536625 -0.042981304 0.25593787 0.026704405 -0.15566757 0.2446961 0.049439996 0.3831514 0.016970195 -0.2824794 -0.2984429 -0.25658187 0.4259639 0.50987417 -0.29656562 0.054615375 -0.47541913 -0.36227077 -0.16013534 0.3156319 -0.33743575 0.14076348 -0.13115981 0.09302951 0.31135654 -0.080307335 0.7604538 0.28367054 0.1627923 0.40140972 -0.9614576 -0.24858518 -0.0012816095 0.1301704 0.6433293 0.32917595 0.4635183 -0.31577915 0.3777761 -0.49767908 -0.5392218 -0.49492002 0.57639754 0.049223352 0.6183082 -0.12871055 -0.025409594 0.69575137 0.3286364 -0.001991622 0.11131293 -0.28324896 -0.13411859 0.012236142 0.12168814 -0.61771923 0.036734067 0.3792595 -0.21498498 -0.5075925 -0.38873547 0.27728337 0.077601045 0.48010367 0.26376224
476 0.32743573 -0.052474532 -0.6698109 0.28585333 0.5038877 0.047136974 -0.35128698 0.12771402 -0.037885614 -0.1524231 -0.08562653 -0.33551705 0.016418392 0.4394442 0.4422806 0.10523325 0.41441604 0.3453545 -0.10830459 0.19607233 -0.10880256 0.42414853 0.20254913 -0.122666 -0.24360853 -0.036611978 -0.10998655 -0.29755938 -0.5682386 -0.02758128 -0.05516617 0.30666727 -0.058037486 0.022179231 -0.13384123 0.019451747 0.28846622 -0.010391906 -0.4547733 0.23141178 0.10611331 -0.5087573 -0.1993978 -0.5418928 0.34261578 0.35885695 -0.51992613 -0.0037028175 -0.029137593 0.27692267 -0.060899675 -0.34862086 -0.003750233 -0.16334872 -0.37201044 -0.12885705 -0.31189093 -0.17102924 -0.11250838 0.066342324 -0.06886259 -0.55643207 0.39162368 -0.38893726 0.12753408 0.07289233 0.032442566 -0.3043181 -0.06542983 -0.064514205 0.26330972 -0.026238201 -0.16971704 -0.19369982 -0.07838729 0.43598 0.3406765 -0.19253278 0.05421189 -0.17775287 -0.034242325 -0.0033124208 0.10579911 -0.4036037 0.013852338 -0.0015032027 -0.048359744 0.17303589 -0.15988891 0.54978746 0.16994967 0.22661671 0.2633432 -0.6980231 -0.118694894 -0.05464436 0.14446115 0.26789287 0.3058835 0.33790419 -0.1168679 -0.055255853 -0.28486958 -0.35620558 -0.46028632 0.45942995 0.0025297473 0.3187975 -0.09446835 0.058381274 0.3700552 0.24953169 0.040552735 0.048643515 -0.2093477 -0.07256709 0.011631445 -0.018316202 -0.33770317 0.050246794 0.20477724 -0.05120687 -0.29323822 -0.18656787 0.1402433 0.15718602 0.2638778 0.0033759242
2545 0.54802585 -0.0461462 -1.1417947 0.14887312 0.67671114 0.05215801 -0.34678552 0.3403289 0.024937017 -0.39574057 -0.3363223 -0.5176267 0.023798263 0.957042 0.65932846 0.26082134 0.90862465 0.48930174 -0.03848857 0.33853042 -0.57610166 0.4907463 0.21279556 -0.17626534 -0.3116258 0.05048428 -0.26028645 -0.4677726 -0.8570132 0.009907647 -0.014486264 0.9449275 -0.04496229 -0.2349507 -0.102573566 0.16992049 0.28576928 0.10563727 -0.52269816 0.24127927 0.17243017 -0.57564545 -0.4044111 -0.9060974 0.63748014 0.2864291 -0.79319805 -0.042754352 -0.13743953 0.44847274 0.07492946 -0.43984675 0.3154913 -0.10768917 -0.46713778 -0.11681139 -0.5943737 -0.5947961 -0.09893535 0.09781046 -0.12472562 -0.60832906 0.7808819 -0.5602282 -0.05676201 0.31247568 -0.01454238 -0.23139215 0.22594462 0.049995977 0.39093462 -0.0018036778 -0.2874186 -0.27033588 -0.24276584 0.52844054 0.48154777 -0.3964831 0.08664673 -0.5407861 -0.48280522 -0.17989571 0.34925964 -0.357696 0.13364789 -0.20810513 0.16079113 0.4143348 -0.196041 0.7802228 0.3655255 0.0881556 0.41237247 -1.0158496 -0.24887896 -0.0001347147 0.17119834 0.7533553 0.3994193 0.5578887 -0.423241 0.46228358 -0.5682407 -0.6615456 -0.5744839 0.51095825 0.035538666 0.6382368 -0.13849506 -0.015857788 0.8157198 0.34603474 0.030240858 0.17148827 -0.2869884 -0.04809785 0.014002395 0.11980428 -0.68346107 0.08589038 0.43230453 -0.30409452 -0.40732774 -0.4738703 0.21241222 -0.048491355 0.61859345 0.3144143
11 -0.12509762 0.16574682 -0.5389599 -0.2935228 0.13702679 -0.16155872 0.4512737 0.29661053 -0.4409881 0.13655013 -0.30804014 0.139571 -0.16533253 0.07538889 0.06806228 0.16657655 0.40238324 0.07536481 -0.45678332 -0.22376165 0.3854702 -0.1250849 -0.061325036 0.12472339 -0.49041015 -0.08146633 0.15033099 -0.3344029 -0.009027995 -0.321567 0.33186296 -0.06344651 0.05053747 0.07310738 -0.10294764 -0.32521307 0.53430194 0.21303606 0.26733536 -0.092888914 -0.12726374 0.3075631 0.073878385 -0.45785335 0.009094642 -0.21736027 -0.08788131 -0.19027963 -0.16802852 0.24029025 -0.04604799 -0.6976812 0.38951516 0.03593966 0.73901427 -0.356925 0.17971042 0.07536394 0.30685338 0.032708447 -0.030248556 -0.43234786 -0.36661187 0.11310105 -0.076623246 -0.32220158 -0.4286773 -0.19304913 0.17022142 -0.37162 -0.0074512637 0.2760245 0.077753015 -0.07502599 0.08174 -0.120778956 -0.20477362 -0.018043071 -0.13319024 0.30889714 0.096843265 -0.0026291225 -0.046282705 -0.20891859 0.19315496 0.028576441 0.3714999 0.5500977 0.08118313 -0.16406131 -0.47319105 0.01701305 0.11133183 0.042410716 0.029536054 -0.30929714 -0.07357827 0.3694015 0.17201383 0.069439694 0.44847396 -0.28165343 0.020626117 -0.18899459 0.25283512 -0.0027294839 0.06597637 -0.29133883 -0.01083195 -0.26149094 -0.25333995 -0.5271692 0.26123068 0.4232614 -0.28085124 0.041413747 -0.15449321 0.63293576 -0.2527399 -0.006038185 -0.17497438 -0.24344596 0.18921381 -0.15658519 -0.21067572 -0.08489071 0.0065246667 -0.16518779
1655 0.0022240528 0.12479805 -0.4393768 -0.22053583 -0.028612945 0.09773213 0.41053447 0.19552802 -0.31272686 0.04692073 -0.26827767 0.19710127 -0.19004993 0.0767244 -0.104282536 0.14774069 0.15535483 0.12810926 -0.46404794 -0.32023093 0.22957392 0.07249086 -0.08707773 -0.034671936 -0.30228534 -0.111873336 0.2426278 -0.31923163 -0.07346853 -0.4231343 0.079377994 -0.21532191 0.035330616 -0.036853064 -0.01133292 -0.37746325 0.67328244 0.06706153 0.22623758 -0.09663389 0.07049529 0.3676536 0.2094118 -0.22184975 0.10186765 -0.11039037 -0.1508588 -0.06366191 0.009956522 0.055496544 -0.0013413846 -0.60492873 0.17835985 -0.08022147 0.47708973 -0.15520684 0.29270735 0.119157545 0.07796582 -0.0343699 -0.16423868 -0.35804972 -0.23515633 0.122088484 -0.32025233 -0.28177178 -0.16047634 -0.072950505 0.08023441 -0.5534153 0.05179177 0.14978532 0.019185659 -0.17506567 0.030561937 -0.12568836 -0.31098047 0.18456803 -0.010970215 0.25582823 -0.011064449 -0.044335354 -0.0607639 -0.22134298 0.20226407 -0.18870586 0.25769818 0.4281048 -0.0050079906 -0.28472817 -0.22489244 0.0052809175 0.22963281 0.06552384 -0.08594563 -0.32879096 -0.25131553 0.3501847 0.16305415 0.014358992 0.40936577 -0.14229222 0.053481616 -0.06487216 0.25657925 -0.0029925855 -0.047273584 -0.2855028 -0.04025456 -0.0797716 -0.18716927 -0.508871 0.06941591 0.26364732 -0.25599876 0.114198044 0.08326867 0.43114617 -0.14491192 -0.15853669 -0.35023934 -0.06618916 -0.02638369 -0.16239774 -0.0806737 -0.10462432 -0.032879304 -0.07595438
1839 0.022887252 0.1471454 -0.43287152 -0.43504044 0.22028749 -0.349879 0.5400001 0.24304177 -0.3996773 0.07421502 -0.33443746 0.11531832 -0.17633025 0.15258555 0.015401292 0.21608251 0.47227314 0.17660187 -0.256033 -0.19572748 0.45677668 -0.34620306 0.023262179 0.101219095 -0.6112204 -0.18421781 0.009900286 -0.33006868 -0.018293422 -0.078220986 0.3353657 -0.090014495 -0.031893432 0.17823184 -0.0059491703 -0.31069234 0.44260404 0.22922175 0.22235866 -0.19478326 -0.18529886 0.2545485 -0.007515229 -0.24935149 -0.045132205 0.012491307 0.04859708 -0.27031606 -0.011619134 0.3004341 -0.028222224 -0.7091066 0.46390945 -0.06632843 0.71899587 -0.36881024 -0.07421475 -0.021608198 0.06639527 0.11906405 0.027091168 -0.42714247 -0.35241705 0.30019313 -0.035249177 -0.31755203 -0.39600617 -0.24134715 0.13967937 -0.17344336 -0.07729585 0.15149261 -0.012350458 0.11499011 0.016361011 -0.08205391 -0.14762259 -0.29572758 -0.20404245 0.30682644 0.16325894 0.0048491233 0.0061816224 -0.19690993 0.27243388 0.033934172 0.2548207 0.5899307 0.16711894 -0.061547797 -0.5525911 -0.013157121 0.013321873 0.03403564 0.03394715 -0.32059985 -0.17638019 0.2807202 0.09875836 0.20121637 0.36029202 -0.4614918 -0.22501642 -0.29788804 0.25592712 -0.14215441 -0.012557587 -0.17833282 0.13339138 -0.4526431 -0.12937692 -0.3968351 0.46387577 0.43180525 -0.4048742 -0.09567109 -0.2800526 0.6558898 -0.12179518 0.16236626 -0.1859425 -0.35518718 0.20869137 -0.0034911348 -0.39164513 -0.08253113 0.2783098 -0.16966198
12 -0.16034816 1.0973501 0.7849707 -1.5632198 -0.26214913 -0.73078287 0.73344475 -2.5145626 -0.8713366 -1.1807925 -8.371073e-05 -0.26128563 -1.1344754 0.48184887 0.8219458 -0.56857264 1.2292606 -0.8879459 0.07824152 1.1154568 -0.075088486 -0.96805066 -0.18589924 0.39894307 1.0109553 -0.09522753 -1.030811 -1.0203878 0.5516077 -0.31916794 1.2862514 -0.07518099 -0.8731205 1.1854904 -0.4086401 -0.66411376 3.3692844 -1.2542373 -0.7856217 0.7348964 1.8546664 -1.3794674 -1.0655628 -0.09374305 -0.5907422 1.6092676 0.71055335 -1.5450342 -1.4918888 -1.221628 -0.007177152 0.5031105 -0.3573277 0.28611562 0.7824734 0.52536035 -1.7953244 0.033570446 -0.77854663 -0.7255965 0.11173294 0.2014238 -0.13880892 -0.21965197 0.95180136 1.3241159 -0.11314732 0.9460766 0.7654717 -0.39146394 0.4156717 -0.61103433 -0.9784725 0.14246269 -0.30663052 -0.51558286 -2.4361527 -0.26257807 -2.018054 0.017548278 -0.088865586 -0.48081052 -0.52150947 -0.49358615 -0.3939238 1.4650509 -0.4857811 0.72072035 -0.5788563 1.0210797 -1.0737635 -0.27407962 -0.7697355 0.20741536 -1.4080455 0.0069246804 -0.675372 -0.42117357 2.0648997 -0.4718111 -0.30601668 0.37508687 -0.4790663 -1.9539164 1.6574284 -0.4942389 -0.58582354 -1.1991285 -0.24073948 -0.49722856 0.054750156 -0.6661032 -1.0914564 0.70011 -0.37100783 -0.9126392 -0.4275671 -0.40823504 -1.0083475 0.74085724 0.17873459 -1.472117 0.5866129 -0.84884506 1.2056085 -0.05416393 0.37021008 0.38426167
2661 -0.05602407 0.994308 0.8175747 -1.4920627 -0.39641377 -0.7493834 0.5647604 -2.5000725 -0.8435776 -1.1023463 0.0327903 -0.18202494 -1.1398933 0.4928349 0.88852865 -0.76221555 1.2508602 -0.81357354 0.072024815 1.1028785 -0.022983694 -0.8264121 -0.30492947 0.2922667 1.0768411 -0.08999994 -1.066909 -1.0459774 0.58510417 -0.21449782 1.3974794 0.069650196 -0.8984925 1.1507096 -0.39106807 -0.64710766 3.3362734 -1.1254681 -0.8293717 0.8473485 1.9369341 -1.3053414 -1.0607523 -0.10557176 -0.5510018 1.614631 0.6711255 -1.5800312 -1.5101643 -1.3047831 -0.06394061 0.56086713 -0.3800925 0.17167538 0.78442764 0.55740446 -1.779437 0.13556258 -0.8964641 -0.7855425 0.04384431 0.19205976 -0.119192965 -0.24906929 0.89294076 1.3439658 -0.016523544 1.038343 0.777955 -0.50629425 0.35633472 -0.3826206 -0.93451643 0.18161598 -0.3504199 -0.56656975 -2.3677578 -0.22623326 -1.957125 0.02133672 0.0054380293 -0.59503305 -0.56022704 -0.48088682 -0.38626087 1.3722092 -0.4377681 0.69069487 -0.4707102 0.9625429 -1.0841393 -0.28618434 -0.72404003 0.13929042 -1.4144188 -0.16051836 -0.6648952 -0.43763092 2.0519798 -0.39819154 -0.32513195 0.3431355 -0.4264135 -1.9003735 1.4558258 -0.4961119 -0.5959915 -1.2344564 -0.17074256 -0.5287013 -0.0016317925 -0.6586919 -1.0061005 0.6553717 -0.29965243 -0.9495867 -0.4152079 -0.45919156 -0.9678939 0.6777341 0.20471258 -1.4784683 0.56346625 -0.66968185 1.2933657 -0.121808626 0.3949378 0.46523783
1001 -0.075912155 0.95614004 0.8454366 -1.5132434 -0.27317524 -0.82251453 0.5733365 -2.433499 -0.6977095 -1.1072029 -0.018587213 -0.22032174 -1.1051872 0.5754265 0.9940756 -0.8471984 1.1816361 -0.80664414 0.055864498 1.0533936 -0.028141782 -0.9171521 -0.12267156 0.28815165 1.073993 -0.121054165 -1.0710697 -1.053364 0.45827928 -0.20608814 1.4640822 0.0668528 -0.8385033 1.1869019 -0.31100896 -0.58408445 3.46303 -1.1290617 -0.7935726 0.8856812 1.9221776 -1.3951604 -1.0288013 -0.16087534 -0.59326047 1.6632087 0.6723556 -1.5567602 -1.439874 -1.3164458 -0.08026589 0.7612449 -0.28817698 0.19748645 0.78323865 0.54672253 -1.8188299 0.29409885 -0.8733926 -0.7990679 0.20225123 0.3778469 -0.060405962 -0.2157532 0.84475446 1.3439207 -0.043574326 1.0196292 0.7644378 -0.64737743 0.31133974 -0.39772466 -0.8960024 0.085477225 -0.40848437 -0.49285713 -2.5700579 -0.23640858 -1.9507372 0.14389387 -0.09328776 -0.45957485 -0.5894143 -0.6290043 -0.42262596 1.4238973 -0.4815614 0.64637315 -0.60539025 0.93570673 -0.9988458 -0.26108932 -0.8057702 0.2827503 -1.3387276 -0.05403391 -0.7818057 -0.48469245 2.0270581 -0.3945745 -0.13204953 0.40449843 -0.5345139 -1.9898003 1.4871322 -0.48873964 -0.6327052 -1.1920891 -0.15272531 -0.5003984 -0.04818413 -0.67089486 -1.103745 0.6654769 -0.34562257 -0.90921515 -0.37487218 -0.49573052 -0.9566271 0.67702955 0.21373755 -1.4348637 0.57008666 -0.68453205 1.3462212 0.0157222 0.39420936 0.41170993
1318 -0.06054842 1.0640696 0.9012867 -1.4705327 -0.40242124 -0.7438341 0.58056045 -2.4802415 -0.83518875 -1.1938382 0.13510308 -0.25746796 -1.1525415 0.42168167 0.8910837 -0.69326466 1.2185211 -0.8764487 0.015157369 1.0991017 0.005173136 -0.9278903 -0.32779574 0.30036357 0.9948739 -0.09432516 -1.0844465 -1.0102655 0.59084713 -0.36031562 1.3795735 -0.029849133 -0.89846057 1.1245217 -0.40521777 -0.7015406 3.357923 -1.1480238 -0.8561737 0.8414745 1.9479221 -1.3203102 -1.0626498 -0.12959476 -0.6174306 1.6174071 0.6434537 -1.532168 -1.5096772 -1.2786261 -0.050905384 0.6184751 -0.38205898 0.23800357 0.82808155 0.5577651 -1.7716142 0.11254779 -0.7958723 -0.81476974 0.052632753 0.28590226 -0.057441235 -0.18965073 0.94086933 1.3154294 -0.09132648 0.98079383 0.8240629 -0.4489234 0.35846397 -0.47122234 -1.0159377 0.12739265 -0.32254916 -0.48498055 -2.494624 -0.23254661 -2.0228786 0.0144157475 -0.06828997 -0.57305294 -0.5486968 -0.48164144 -0.3960216 1.4971881 -0.49184498 0.72613996 -0.4723726 1.0191108 -1.1020281 -0.2545341 -0.8496442 0.20363232 -1.3349882 -0.024488317 -0.6820701 -0.5101189 2.1107285 -0.37631518 -0.38458318 0.3973492 -0.45098284 -1.9091512 1.593633 -0.4110081 -0.5802537 -1.1816947 -0.22609484 -0.56378365 -0.04303676 -0.70682377 -1.0569954 0.66204345 -0.34002346 -0.9453147 -0.54595935 -0.41517475 -0.9454118 0.707307 0.18101124 -1.4864463 0.6092175 -0.74764174 1.1964993 -0.03573672 0.34558383 0.35259545
2662 -0.030370148 1.0546861 0.8308975 -1.5622642 -0.3981498 -0.72665215 0.60095525 -2.4901874 -0.8746207 -1.1852759 0.011935518 -0.28822094 -1.1919641 0.547149 0.8942401 -0.7623145 1.2988461 -0.8063362 0.047367737 1.1048238 -0.0029671267 -0.88378584 -0.20674245 0.4150099 1.0282654 -0.103691116 -1.014638 -0.98345363 0.5387213 -0.30032086 1.3575393 -0.041772053 -0.81872475 1.1972277 -0.38350022 -0.6372917 3.4238372 -1.1937141 -0.72678834 0.85794353 1.9277962 -1.3925818 -1.0434945 -0.15204965 -0.64912623 1.6509267 0.7246038 -1.538329 -1.5130044 -1.3154873 -0.051407866 0.66260004 -0.3003074 0.24031283 0.8057671 0.49826035 -1.9026198 0.16048604 -0.76091355 -0.81766355 0.14587559 0.3424976 -0.066214725 -0.1364868 0.87345535 1.35907 -0.09767232 0.9730387 0.7979914 -0.4556133 0.38669378 -0.52319664 -0.98387814 0.16585648 -0.35995728 -0.49621746 -2.567832 -0.26540434 -1.9748461 0.03952797 -0.11184533 -0.4882595 -0.55567306 -0.52690214 -0.36074135 1.4833057 -0.55722064 0.6746247 -0.62272495 1.0124754 -1.0653504 -0.23816286 -0.79063857 0.3004299 -1.3747224 0.026762675 -0.76936895 -0.47126186 2.056575 -0.4094665 -0.28876582 0.35938704 -0.48465842 -1.9140674 1.6416087 -0.5109249 -0.54511136 -1.2054476 -0.18417105 -0.54165554 -0.06634934 -0.628768 -1.0781437 0.71076703 -0.33076015 -0.95884454 -0.50657594 -0.4521986 -0.97003 0.75854045 0.15601239 -1.4630203 0.5732337 -0.7626661 1.2233843 -0.08154011 0.43754762 0.39600852
13 -0.048772395 -0.21698476 -0.028864918 -0.1543884 -0.25693098 0.01354252 0.12567525 -0.21125594 0.26587522 -0.11605807 -0.22111756 -0.10077224 -0.08527481 -0.11292487 -0.043018315 0.27396715 0.12614429 -0.05872185 -0.06288137 -0.14833413 0.24136753 -0.24147831 0.02030401 0.09639059 -0.092148446 -0.11834964 0.050194755 -0.27837512 0.08366034 0.28802776 0.1857662 -0.023453282 0.06628851 0.12298909 -0.124105446 -0.0085930675 -0.14060184 -0.070589826 -0.253586 0.012466837 0.34332702 0.37471023 -0.075105816 -0.6135496 -0.110737026 0.059937373 -0.20055336 0.020744707 0.0201606 0.3012059 -0.033600084 0.053180225 0.31371677 -0.0101616355 0.15235028 0.3494928 -0.14800344 -0.15162393 -0.17390804 0.12741466 -0.008551864 0.0421345 -0.06923348 -0.11075346 0.20658556 0.00728189 -0.39676327 -0.012271707 0.27949253 -0.008218326 0.051302444 -0.15674932 -0.1981214 0.082830004 0.1703916 -0.18912391 -0.2724296 -0.18799652 -0.057680946 0.21778008 0.17131552 -0.1226839 0.19501793 -0.26383787 0.29642078 -0.3503291 -0.05827026 -0.419733 -0.17470773 0.26822054 0.19695777 -0.3811696 0.07341797 -0.189619 0.019286392 -0.044716515 -0.09387178 0.3276613 0.031088246 -0.09554905 0.14418134 -0.058379017 -0.2641739 0.037576623 0.08889105 0.25923115 -0.08773882 -0.25267258 0.027144816 0.22050434 -0.01604348 -0.2731387 -0.10079302 0.18741506 -0.25660074 -0.015053764 0.17349198 -0.020606957 0.05051398 -0.11392517 -0.09444752 0.27729854 -0.08765899 -0.44262847 0.02053488 -0.13602938 0.18028112 -0.38315102
1810 -0.02904388 -0.29261586 -0.042970877 -0.14902562 -0.030730957 0.28318062 0.21220815 -0.2297174 0.3283033 0.13033462 -0.18518929 0.07317335 -0.35542765 -0.24759924 -0.06391969 0.10441395 0.25014108 -0.051323444 -0.21075322 -0.3341373 0.084311344 -0.110308595 0.031054912 0.19863772 -0.1844966 -0.077720486 -0.013008906 -0.20369269 -0.03164485 0.10406112 0.23990569 -0.110403195 -0.16977607 0.31595847 0.026335627 -0.030149873 -0.06437392 0.023374785 -0.19596505 0.14752217 0.30948842 0.3641762 0.051412586 -0.36216736 -0.09568649 -0.06094432 -0.32928082 0.059417546 -0.015310325 0.37986502 -0.052523788 1.5383761e-05 0.05503567 0.073837586 0.12349462 0.23476192 -0.08270321 -0.18654908 -0.13596413 -0.09119191 -0.07990129 0.062146436 0.015733736 -0.3350125 0.03808298 -0.027843732 -0.37457672 0.09226259 0.17300303 -0.010552743 0.12977365 -0.1372847 -0.15965109 0.046299484 -0.051443696 -0.14678471 -0.2143827 -0.31479678 -0.107535765 0.18347555 -0.014711575 -0.32013068 0.08719873 -0.2969297 0.42027357 -0.42255363 -0.2483278 -0.13002805 -0.07535009 0.1176658 0.31653664 -0.42846853 0.06641082 -0.20343077 0.10810103 0.027672995 0.10667729 0.33722502 0.19181219 -0.0072035384 0.050586455 -0.14510766 -0.021454116 0.08268076 0.3318819 0.4882095 0.02771778 -0.16732417 -0.06696573 0.28209648 0.046914 -0.5350099 -0.26903316 0.038968086 -0.25457498 0.0055598333 0.29239434 -0.07802265 0.21263133 0.08689668 0.018365841 0.32778534 -0.20817378 -0.22439247 0.050340742 0.004600248 -0.023182109 -0.2735303
1701 0.042662404 -0.19187959 0.07239415 -0.106326625 -0.17508186 -0.12827453 -0.08257307 -0.02315766 0.06899763 -0.16937274 -0.0137946205 -0.27536097 0.16669981 0.058778908 0.13616875 0.13249297 -0.050290685 -0.21017726 -0.07014178 -0.16966727 0.22276965 -0.067790225 -0.17827891 -0.09089592 0.0029576055 -0.19399305 -0.07985876 -0.16937879 0.042090684 0.22639258 0.07331474 -0.05137193 0.33441743 -0.1701623 -0.00045091473 -0.1226934 -0.16675359 -0.06038868 -0.22373535 -0.14569029 0.24106115 0.17216814 -0.19197361 -0.54036367 -0.13809747 0.1924881 -0.1410713 -0.059983872 0.07576279 0.08557996 0.08764983 -0.05106975 0.061791386 -0.04452331 0.0543214 0.23550309 -0.14689638 -0.07998681 -0.23033637 0.124061584 -0.06475664 -0.06457917 -0.11887319 0.06833618 0.29839477 0.016318753 0.024405833 -0.28265032 0.3985897 -0.12377303 0.19555302 -0.20549765 -0.006048075 0.048174836 0.14809753 -0.29476118 -0.31725195 -0.08323998 -0.052644882 0.41658214 0.04181322 -0.043735668 0.15028301 -0.20569927 0.10004527 0.0018401236 0.10179373 -0.374765 -0.06879648 0.2928201 -0.026208974 -0.1357189 0.111764126 -0.26218787 -0.09425806 -0.041731037 -0.1897169 0.057940654 -0.094036244 -0.18312125 0.11445476 -0.11862901 -0.4401497 -0.02875651 -0.05661916 0.1357318 -0.09844476 -0.12104788 0.06292319 0.048120182 -0.1612747 -0.16708466 -0.0031775094 -0.03956458 -0.21393818 0.13227932 0.28225318 -0.049972247 -0.16833101 -0.08940635 -0.065899044 0.16265751 -0.05551785 -0.39798164 -0.0919539 -0.19182976 0.24425875 -0.19030644
14 0.26402682 -0.10001372 -0.0087030055 0.14814831 0.3200333 0.14941546 0.45100275 -0.5359241 0.04002802 0.14700301 -0.2044333 -0.24323831 0.24347603 0.16061936 0.031501353 -0.35481143 0.08808715 0.093467124 -0.20327687 -0.24127841 -0.121845074 0.20362046 0.10824144 -0.24902514 0.2347874 -0.11284501 -0.32078403 0.0815599 0.25094238 -0.017185517 0.025404477 -0.5764 -0.027030222 0.09078841 0.4075733 -0.33271927 -0.20636787 -0.033192072 -0.3894555 0.13821581 0.065084524 0.11833371 -0.30675355 -0.26185632 -0.120303124 0.35703763 -0.5778207 0.1852689 0.11027965 0.14054683 -0.39435777 -0.030171858 -0.22203697 0.16378187 0.2744728 -0.1342631 0.036942296 0.03426616 -0.3360668 0.06392483 -0.35600576 0.02691764 -0.14379555 -0.2856313 0.2319284 -0.027120776 0.12655477 0.18399245 -0.091641515 -0.022437826 0.11137864 -0.0183345 0.24747284 -0.06837777 -0.12806354 -0.119426906 -0.0906136 -0.25796902 -0.55491745 0.19146782 -0.04600189 -0.087795064 -0.07058851 -0.05593185 0.6136064 0.13964984 0.34262443 -0.07112982 -0.17711197 -0.00302219 0.4536194 -0.10038814 0.1911253 -0.19219178 0.24979514 0.10569776 0.25856525 0.43137038 -0.28046325 0.26319906 0.3332484 -0.103484675 0.16041908 -0.008712117 0.07422052 -0.055684492 -0.0037057796 -0.020204177 0.015593407 -0.111172944 -0.1259945 -0.5805217 0.25183865 0.004298249 -0.66581565 -0.3212632 0.70417917 -0.13166234 -0.44564945 -0.5788583 0.07928911 -0.19014645 -0.3496221 0.08380458 0.17445199 -0.23429778 0.09046752 -0.30878067
2034 0.3789529 -0.28018948 -0.2199191 -0.19404832 -0.2547325 0.06813545 0.1660225 -0.1526121 0.18053797 0.05932063 -0.20119803 0.205521 0.2579816 0.024333695 0.04824793 -0.17056307 0.13168958 -0.058935393 -0.043277934 -0.3900695 0.06813688 0.083599 0.18487923 0.0719741 0.22475941 0.0581279 -0.4388729 -0.1266918 0.27607632 -0.026149116 0.14894791 -0.13921495 -0.3173682 0.27775612 0.17188884 -0.23551163 0.03922384 -0.13665208 -0.17751358 0.17081216 0.23818119 0.14063758 -0.27458027 -0.11314237 -0.07167126 0.069175765 -0.4129943 0.05613153 -0.12558606 -0.010918566 -0.38460675 -0.068996005 -0.29709163 0.19974524 0.15338655 -0.059668608 0.09671988 -0.0030156672 -0.036530465 0.14610349 -0.27432346 -0.13027813 -0.1086431 -0.27219555 0.14780101 0.09922234 -0.15841675 -0.17971817 0.17032072 -0.011690345 0.11928602 0.16418464 -0.14481138 -0.39140937 0.17918858 -0.12848532 -0.05241252 0.081318036 -0.3232974 0.15017857 -0.23298474 -0.019688455 -0.04030612 -0.085029975 0.26160035 0.105521254 0.16035785 0.06214127 -0.06475235 -0.054011106 0.05670275 -0.039705608 0.20533527 -0.24635662 0.3110455 0.034929056 -0.13267322 0.18922411 0.18769147 0.27051255 0.16827542 -0.021887362 0.18629047 -0.10965409 0.07337946 0.1963131 -0.05908726 -0.18958834 -0.076897405 -0.07270273 0.018423602 -0.4493528 0.09384627 -0.122124426 -0.35020787 -0.04531607 0.24619575 -0.08161354 -0.2215342 -0.28714043 -0.13088854 0.11727197 -0.39176372 0.18007472 0.00036597802 -0.12851968 -0.14883517 0.20941024
2075 0.112710916 -0.040692396 -0.07024132 0.2972653 0.64887655 0.15244977 0.41864794 -0.5925378 0.078357406 0.092593886 -0.08672714 -0.3463653 0.06661563 0.22946799 0.08567686 -0.39000794 0.14858441 0.11650703 -0.1742628 -0.18666792 -0.17780289 -0.014500842 0.1315019 -0.25167057 0.16919185 -0.14264458 -0.32524234 0.08526529 0.15803544 0.033682495 -0.078734204 -0.68598527 0.096053034 -0.0015307158 0.3661087 -0.29298368 -0.27094293 -0.08175142 -0.3384246 0.30542362 -0.0022502856 0.06945569 -0.3110542 -0.2655945 -0.26904923 0.47251523 -0.70112985 0.1454276 0.05986808 0.1299632 -0.2128428 -0.039402504 -0.17310923 0.15285036 0.18369098 -0.16867557 -0.06396963 0.15417396 -0.21569338 -0.08172928 -0.31153226 0.31124905 -0.021945758 -0.3641705 0.31101677 -0.066429645 0.14295803 0.25055912 -0.34001887 -0.013313757 0.043195833 -0.16208133 0.38258192 0.10162033 -0.10436281 0.096219115 -0.093392305 -0.35595563 -0.5999975 0.15581764 -0.027471427 -0.2932481 0.05675972 -0.19549334 0.73456717 0.06354448 0.2783758 0.006579857 -0.29080576 0.19392698 0.54812485 -0.27930135 0.014047317 -0.264705 0.20294711 0.034196183 0.58245987 0.35496324 -0.39593604 0.1578623 0.26513714 -0.102006346 0.11213608 0.0096053425 0.14036731 0.043992534 0.1601676 0.14874597 0.106377244 0.019341659 -0.039428174 -0.8049247 0.24459049 0.07324706 -0.6842909 -0.35953555 0.8979057 -0.028110424 -0.32361916 -0.5165695 0.09069809 -0.2561284 -0.3506919 0.04584091 0.23373425 -0.17136414 0.276702 -0.36524618
158 0.2632343 -0.12909369 -0.21756718 0.059067067 0.07182658 0.12964185 0.13668235 -0.31302184 -0.005639959 0.08804543 -0.111564115 -0.09464397 0.36086252 0.07889498 0.023741093 -0.12742801 0.03610226 -0.13166521 -0.14500247 -0.42874706 -0.03035389 0.0081035895 0.00090256426 -0.16040304 0.26354754 -0.0059391772 -0.316699 -0.08153576 0.28672832 0.07291782 -0.06023354 -0.30106008 0.043411553 0.0856402 0.28321242 -0.31647176 -0.13601623 -0.11971717 -0.36785096 0.06762257 0.08865933 0.19219281 -0.43904012 -0.2539515 -0.31864935 0.18878187 -0.47036508 0.1960212 0.051201966 0.1628109 -0.26276073 -0.106601626 -0.16773501 0.15762451 0.304245 0.04187446 0.08705829 0.030787244 -0.25153232 0.2015739 -0.27355656 0.045323867 -0.11546776 -0.35956576 0.20116313 0.012190204 0.043985154 0.1373595 0.15368114 -0.11339011 0.140431 -0.15359508 0.22805755 -0.042563386 0.16650039 -0.2571603 -0.18420133 -0.13332961 -0.4683967 0.2436646 -0.09144733 -0.11864421 -0.05583383 -0.16827497 0.5179567 0.025297204 0.22066438 -0.21400209 -0.1590878 -0.037008744 0.20169611 -0.29269826 0.091416344 -0.30911973 0.18041484 -0.009547649 0.020894872 0.33436427 -0.24806733 0.2305676 0.36716217 -0.12668988 -0.1541636 0.13038045 0.019204136 -0.08928204 0.03203967 -0.16575989 0.03851897 -0.108220115 -0.12741451 -0.5788614 0.06710692 0.0028814166 -0.5121075 -0.15849888 0.5551312 -0.23558335 -0.2286323 -0.40746737 -0.03194117 -0.07824085 -0.31652147 -0.08786436 0.08781497 -0.20831747 0.16201413 -0.11091979
2077 0.08476697 -0.06104502 0.06602237 0.15014556 0.6083568 0.16361754 0.51585454 -0.56401324 0.03879174 -0.031245504 -0.13901706 -0.46186793 0.07348493 0.1540843 0.035526503 -0.5556623 0.026590655 0.20776668 -0.30057892 -0.048639666 -0.14009912 0.05676107 0.25187624 -0.3092599 0.18948337 -0.2069327 -0.29612568 0.20554206 0.1750177 0.15638758 0.062133096 -0.58435714 0.13520488 0.034793504 0.403112 -0.2667572 -0.25083795 0.17519824 -0.28058767 0.23830922 -0.034117363 0.03981503 -0.13379206 -0.37485456 -0.13272831 0.3333014 -0.5766557 0.2422047 0.13805503 0.13776807 -0.23830445 -0.02684318 -0.2032868 0.15694773 0.22647744 -0.18686183 -0.03667966 0.12602283 -0.37200043 -0.076100744 -0.23069431 0.09463531 -0.032638285 -0.1854384 0.23212099 -0.09128132 0.10673768 0.34962764 -0.22157802 0.04647961 0.021862036 -0.06601717 0.47472855 0.090169646 -0.024496336 0.042460933 -0.1841368 -0.31394455 -0.573557 0.22371078 -0.10046011 -0.06679708 -0.17059498 -0.11689636 0.7512311 0.18512987 0.40542525 0.02008587 -0.22042166 0.015578041 0.60261554 -0.23758456 0.13937463 -0.20583597 0.30305904 0.018483143 0.44391826 0.40569013 -0.32187617 0.26538965 0.2206948 -0.10721518 -0.05952353 0.045760132 0.15034486 0.0764979 0.048387382 0.068367586 -0.02576312 -0.060043108 0.013309105 -0.5864495 0.28677642 0.12577401 -0.45986676 -0.41404074 0.7508745 -0.082221486 -0.52735305 -0.47621733 0.1459295 -0.23866424 -0.36234722 0.0006135506 0.23027508 -0.25847912 0.098239474 -0.47964245
2668 0.0073179603 -0.21085577 -0.10884063 0.2652731 0.51667583 0.31696078 0.7586384 -0.6924007 0.0669204 0.18521407 -0.12500636 -0.3566389 0.033051226 0.1460063 -0.03057072 -0.43596137 -0.009651916 0.09653696 -0.20368764 -0.063469194 -0.12891488 0.07929537 0.088769525 -0.37189242 0.28572676 -0.27138475 -0.4973033 0.1143085 0.04866914 0.024233742 0.017360058 -0.74920756 0.0974039 0.02647379 0.45985043 -0.24279357 -0.15389425 0.11114712 -0.36173007 0.33107287 -0.0284347 0.14235087 -0.13897839 -0.35852784 -0.25937393 0.44382238 -0.57034165 0.18261403 0.21208942 0.23262149 -0.3002338 0.13337219 -0.22280608 0.16561614 0.2182553 -0.038648322 -0.2082519 0.14864443 -0.29476935 -0.058170766 -0.23332137 0.18286754 -0.13698086 -0.3660397 0.23713957 -0.0855032 0.1579869 0.42693353 -0.22019915 -0.06350213 0.18853985 -0.05649815 0.43513617 0.06978005 -0.221124 -0.02209068 -0.2950067 -0.50887173 -0.60329765 0.14880818 -0.11490211 -0.12346747 -0.0070532956 -0.18492208 0.66098315 0.21135014 0.31327316 0.0076377676 -0.11688078 0.070321396 0.6369163 -0.07950205 0.041948147 -0.17888252 0.22749722 -0.055840466 0.34989625 0.43035603 -0.4212964 0.104418606 0.21303797 -0.0868103 0.13994823 0.0032834937 0.10558953 -0.07549007 -0.008792548 0.055102102 -0.048831183 0.11944694 0.03765918 -0.60313165 0.21001448 0.12287145 -0.6269195 -0.3082482 0.75256956 -0.29636884 -0.6114037 -0.4027973 0.17809345 -0.22129884 -0.4737285 0.11191042 0.17741024 -0.24736567 0.2550887 -0.51581544
15 0.0928419 -0.17690983 0.1590219 0.39111334 -0.15657887 0.056282617 0.11472753 0.11469076 0.144004 -0.75594217 0.93157166 -0.28296566 -0.0021231838 0.41245705 -0.60125977 0.06835929 0.30130297 0.36038062 0.08264939 0.83642244 -0.16986848 0.05744056 -0.15830936 0.3149493 0.3143268 -0.009949669 0.13545604 0.007875696 0.41560334 -1.4153031 -0.31501323 0.03953999 -0.19278674 0.10715426 -0.14703925 -0.8675749 -0.21858552 -0.56756973 -0.16804515 0.7913484 0.82004523 -0.59231144 -0.11578213 -0.62970734 0.3709576 -0.2838506 0.08826409 0.9416374 0.94396305 0.14105761 1.0142275 -0.94470066 -0.5465433 0.3855914 1.1383985 0.45674574 -0.38060847 -0.24220605 -0.48541796 0.28177062 0.61805207 -0.22643852 -0.40086335 -0.081352875 1.5169069 0.2894603 0.39922905 0.06578601 0.21000329 0.024618048 -0.7999758 -0.37385067 -0.43944994 -1.1072326 0.43703926 -0.8926867 -1.2446504 -0.15421736 -0.3343599 1.2529935 0.8088789 -0.9091179 0.3143704 -0.46122852 0.63207424 -0.090858914 1.0413208 -0.07523111 0.33655256 0.70583034 -0.3569476 0.39998922 0.3100917 -0.11162054 -0.14484774 0.21544422 -0.19953687 0.09294946 0.14981107 0.031464167 -0.10380878 0.2114827 -0.7366645 -0.5985304 -0.8957481 0.2377201 -0.6075685 1.0341825 -0.058588836 -0.49345645 -0.37279993 0.25045732 0.85911155 0.1928637 0.13253154 -0.882242 1.0305054 -0.6071092 0.5405689 -0.03625891 -0.951122 0.1402669 -0.18873966 -0.012949467 -0.15228316 -0.12930217 -0.9302906 0.31798512
2367 0.15188561 -0.15355584 -0.094509006 0.40908644 -0.1787269 -0.073274955 0.24415655 0.26892155 0.12902346 -0.605102 0.87777406 -0.15301964 0.027910236 0.36363685 -0.71686345 0.12329363 0.11936891 0.22086763 0.058640555 0.6799329 -0.1738599 -0.02633422 -0.1608223 0.29518136 0.1563316 0.07406344 0.09323977 0.041287307 0.253035 -1.1252158 -0.513689 0.1800599 -0.09740054 0.12756345 -0.050020855 -0.8650147 -0.25856853 -0.5521718 -0.122549795 0.51109135 0.70907694 -0.6004732 -0.032651037 -0.594285 0.43661392 -0.30154124 0.01896412 0.6161092 0.81826425 0.15945673 0.75227237 -0.7689748 -0.43657824 0.30338478 1.052986 0.4258082 -0.2780321 -0.34562203 -0.49739018 0.22141524 0.43807042 -0.41364446 -0.2780353 -0.21351998 1.2605158 0.10736065 0.21623231 0.049215794 0.28786317 0.06521195 -0.8284542 -0.26691988 -0.39360875 -0.96999896 0.29399884 -0.79671127 -1.1758518 -0.0643093 -0.30157298 1.0946068 0.75821877 -0.8955819 0.21360868 -0.46317106 0.4684087 -0.20129113 0.90402883 0.05858061 0.1073182 0.52336556 -0.2969553 0.4092959 0.2925879 -0.21231207 0.0433582 0.29775852 -0.26697004 0.19590074 0.015665187 -0.032344706 -0.17432275 0.3471868 -0.67724055 -0.4229017 -0.8733863 0.30215666 -0.4999739 0.86615324 -0.0021507964 -0.32436067 -0.29660517 0.32711196 0.793374 0.27808523 0.149008 -0.8522994 0.7747906 -0.465017 0.45881444 -0.006017621 -0.83265066 0.16266377 -0.22373079 -0.006885198 -0.14674175 -0.17377456 -0.58303326 0.2664239
1093 0.16882367 -0.18005063 0.12550612 0.46093994 -0.13457961 0.11569473 0.18272847 0.094864406 0.11514181 -0.7043132 0.85129696 -0.21200985 -0.05187004 0.54899126 -0.5507939 0.14113042 0.33702567 0.39283168 0.17653687 0.6497289 -0.10545933 0.003469645 -0.19234593 0.31800926 0.2649874 -0.0012523991 0.1447383 0.033075668 0.480223 -1.2538142 -0.29982004 0.13004015 -0.099354364 0.107813396 -0.14148872 -0.75685275 -0.27283552 -0.64816034 -0.07962347 0.72006947 0.8649672 -0.66544753 -0.13501507 -0.5712635 0.41217718 -0.26907042 0.016689882 0.9280889 0.9810052 0.22646135 0.86200285 -0.9235876 -0.5245052 0.45476705 1.1065005 0.29046437 -0.42721003 -0.36194307 -0.56257087 0.3332319 0.60703826 -0.2930825 -0.34533572 -0.08952083 1.3542612 0.2887675 0.29537305 0.112878606 0.1821535 0.005913786 -0.7466021 -0.34589493 -0.43610105 -1.0482663 0.36593342 -0.9086584 -1.2930976 -0.17329887 -0.41269967 1.1523741 0.7157861 -0.8457733 0.4125611 -0.5484515 0.59080666 -0.14713804 0.9935658 -0.13132513 0.3093943 0.7281228 -0.38528222 0.49042135 0.2856166 -0.17345591 -0.15023202 0.29025337 -0.18561564 0.09458109 0.16467273 0.02968146 -0.20643938 0.24339049 -0.69877553 -0.5682771 -0.90475935 0.33382025 -0.5643102 0.9321414 -0.09423584 -0.4787558 -0.23923822 0.15764244 0.87289107 0.16042556 0.029424645 -0.86204463 0.96530604 -0.51864964 0.47411418 -0.012313217 -0.9540855 0.2066729 -0.18186465 0.044142086 -0.19334619 0.009254878 -0.8403201 0.2806034
1090 0.1725288 -0.2687398 0.1144421 0.5361322 -0.13178521 0.03148362 0.22057407 0.17267717 0.10123937 -0.6685665 0.8952548 -0.16383645 -0.02732365 0.4147031 -0.59673285 0.13168494 0.2847475 0.3640344 0.07167866 0.7162874 -0.0950512 -0.15902755 -0.12503622 0.26621103 0.1678567 -0.010738953 0.08383862 0.07673677 0.3050774 -1.2430036 -0.43590274 0.067196324 -0.09277125 0.114913486 -0.14256144 -0.7621984 -0.4147492 -0.5021857 -0.08300862 0.63983935 0.7784542 -0.6166002 -0.18480544 -0.6746098 0.41687337 -0.28210655 0.0062319646 0.918179 0.97305304 0.16083664 0.8392042 -0.90136176 -0.44929007 0.38071516 1.009994 0.45331067 -0.35618442 -0.29875025 -0.62151355 0.22748353 0.5184548 -0.25720945 -0.392472 -0.12428513 1.3532057 0.22694042 0.2910429 0.0014443087 0.21212684 -0.01684705 -0.7589124 -0.3851026 -0.44741276 -1.0610114 0.50462663 -0.9113272 -1.225779 -0.19952525 -0.36092612 1.1249193 0.8485659 -0.8852786 0.35880053 -0.5551863 0.63858676 -0.058392882 0.77049613 0.07990538 0.21509828 0.6680061 -0.3927685 0.544996 0.24427508 -0.10973159 -0.17189677 0.22586405 -0.2333495 0.13647537 0.11349132 0.006357882 -0.27626863 0.20235674 -0.79811776 -0.50324225 -0.8751539 0.25412443 -0.5796052 0.9242118 -0.079255395 -0.4677691 -0.1847599 0.15978296 0.82951796 0.18821342 0.073560044 -0.76037407 0.8812644 -0.51561636 0.398215 -0.049632177 -0.9241039 0.27588618 -0.29260272 -0.075797684 -0.119151354 -0.053922936 -0.6203084 0.25303978
1271 0.10835716 -0.24115725 0.11702492 0.46397308 -0.17420569 0.0332261 0.18184155 0.1540528 0.11850232 -0.70377535 0.92367154 -0.20536101 -0.030658621 0.51570165 -0.63403094 0.0974498 0.24138772 0.4232537 0.08682485 0.7334025 -0.21804301 0.051493566 -0.12692796 0.28738388 0.28564116 -0.07667942 0.17074373 0.04570792 0.39469132 -1.2838693 -0.28543383 0.16664076 -0.08502245 0.031051202 -0.015607619 -0.8229499 -0.24070284 -0.5197087 -0.09032126 0.74722016 0.81064206 -0.5640463 -0.23404825 -0.54835856 0.3872457 -0.23102795 0.1286699 0.87912786 0.975349 0.14026226 0.8988858 -1.0636806 -0.5344273 0.4409213 1.1949352 0.3227804 -0.4040105 -0.27257174 -0.5001827 0.22671376 0.5522725 -0.26120016 -0.37997195 -0.122270815 1.370379 0.30244774 0.3593967 0.16609357 0.24885915 0.13558765 -0.7366917 -0.40239963 -0.3639741 -1.1320521 0.44950798 -0.93001723 -1.2943832 -0.17855357 -0.41475725 1.2303925 0.68624866 -0.93299365 0.4967334 -0.6516656 0.6470815 -0.10345167 0.9677356 -0.08962107 0.32858846 0.7418103 -0.38818544 0.48774898 0.3448847 -0.0904947 -0.2043964 0.30458114 -0.23166803 0.11357563 0.1791121 0.04279003 -0.16233058 0.23574682 -0.7856623 -0.6673308 -0.9228481 0.29000574 -0.57305163 1.0110064 -0.03464463 -0.41232193 -0.29004112 0.17285362 0.9603245 0.17583807 -0.013858777 -0.8573886 1.0047001 -0.5109214 0.527482 0.042844772 -1.0303347 0.20984694 -0.19928911 0.07172034 -0.12991942 -0.055117417 -0.94248015 0.36833182
16 -0.09945781 -0.13592915 0.36844534 -0.47333983 -0.09709111 -0.11516287 -0.050196644 -0.19032906 -0.8168952 -0.025625601 0.097606234 -0.33310464 0.04904478 -0.39073998 0.32023683 -0.4417236 -0.09724233 0.032765675 0.23168607 0.4354257 0.06555504 0.24457313 -0.12488124 -0.49689713 0.042869955 -0.196829 0.35148308 0.0031914576 -0.10845626 -0.17691013 0.030756086 -0.11938288 0.07519865 0.013749685 0.24115352 -0.3281559 0.1978897 -0.01991493 0.40782857 0.2983448 -0.26296777 0.10344014 0.09547496 -0.6155935 0.3071328 -0.38796958 -0.7307668 -0.42138693 0.36142212 0.42016977 -0.16385897 -0.3550748 -0.21822439 0.036115047 -0.10863298 -0.14459948 0.12080413 0.23796453 0.13852534 0.05265415 0.19617519 0.50336975 0.20697846 -0.34065 0.76755 0.17337734 -0.27811086 -0.21667759 0.0598257 -0.22082739 0.06901908 0.30255637 -0.09867421 0.03317448 0.19141328 0.2618019 0.42036736 -0.08684715 -0.020816037 0.30210304 -0.6072058 -0.33749655 -0.116525784 -0.37030792 0.01598278 -0.24101652 -0.62580425 -0.37576738 -0.10930799 -0.065933645 -0.42233315 -0.29429778 0.1913367 -0.026327262 0.87515736 -0.22409023 0.044808645 -0.516055 0.6543226 -0.082699776 -0.12955223 0.108240366 -0.30786723 -0.6195399 0.6091277 -0.26534668 -0.16886766 0.6510172 -0.26591256 -0.14961918 -0.16544977 -0.15915349 -0.13537902 -0.077905074 -0.038190708 0.28452286 0.015381287 0.3796215 0.42125192 -0.15081431 -0.15518509 0.1721506 0.049878795 -0.26277843 -0.4046047 -0.19624805 0.30745354 -0.30351567
2444 -0.2817781 -0.348772 0.117908746 -0.34896764 -0.2427175 0.03289145 0.3205808 -0.17297001 -0.6440359 -0.15992053 -0.16595946 -0.5053049 0.042989578 -0.15375614 0.035782784 -0.06335746 -0.10906414 0.03408871 0.18425083 0.18020631 0.26693878 -0.074337974 -0.024490396 -0.044751476 -0.07736929 0.025687976 0.1941773 -0.14736006 -0.39483672 0.016320799 -0.050685834 -0.011278618 -0.093291216 0.3528633 0.30288106 -0.48143262 0.31564525 -0.039916534 0.3372711 0.54542446 -0.26429477 0.084261134 0.09437551 -0.53017193 0.036393695 -0.32606936 -0.41286266 -0.022460604 0.27789128 0.27685365 -0.11615318 -0.25076878 -0.2698138 0.15261453 -0.3177738 -0.22067535 0.28044388 0.1852352 0.011730554 -0.080175675 0.0838485 0.600972 0.14429013 -0.4861719 0.9526734 0.21335194 -0.06218938 -0.021746958 0.13726424 -0.17809336 0.028338786 0.01707258 0.17211488 0.08703085 0.09192576 0.40835196 0.4935356 -0.038676374 -0.3000102 0.27894145 -0.52964675 -0.4662321 -0.1720928 -0.23648587 0.006357741 -0.14218427 -0.41102198 -0.26017657 0.0029883632 -0.09383547 -0.11247006 -0.31219319 0.14787702 0.0525471 0.5304014 -0.074568 0.035146553 -0.45985782 0.36300954 -0.23166615 0.068981946 0.017714165 -0.35978654 -0.37976208 0.088855065 -0.19504315 -0.33586454 0.40235233 -0.050737344 -0.17546849 0.19610278 -0.31554312 -0.080809034 -0.056955665 0.022227328 0.3269363 0.083750546 0.35933706 0.39073762 -0.033361282 -0.26347587 0.030186253 0.23606254 -0.49552965 -0.13465999 -0.30680677 0.10056365 -0.32589042
1632 0.10345152 -0.066819936 0.38765717 -0.41043046 0.10535957 -0.18102413 -0.18112737 -0.10800861 -0.7653304 -0.05452579 0.13670327 -0.24756026 -0.046305094 -0.47115633 0.22875546 -0.3947094 -0.022656994 -0.091020934 0.19381164 0.4880185 0.25259236 0.19187328 -0.092804916 -0.81403846 0.055942502 -0.2436642 0.29553744 0.087143816 -0.05321782 -0.38807437 -0.009975217 -0.12611543 0.2732703 -0.14219429 0.3220523 -0.26842827 0.029906541 0.027992884 0.540467 0.2890476 -0.22788036 0.09395327 -0.093957074 -0.58345556 0.48497137 -0.3335172 -0.74347925 -0.52064055 0.35245296 0.6344105 -0.18512125 -0.21104494 -0.26466396 0.20646115 -0.18920696 -0.043864254 -0.08588051 0.23581484 0.19226797 0.15601222 0.24365878 0.3218345 0.2052865 -0.30572116 0.69507563 0.064384185 -0.35367215 -0.3814054 0.10529526 -0.1828333 0.048795313 0.48770258 -0.27704692 0.0059957425 0.042551532 0.17113794 0.22151726 0.02442102 -0.057913423 0.2318326 -0.5130261 -0.19956149 -0.08197688 -0.14327636 0.088325955 -0.2098666 -0.7081392 -0.4642109 -0.063884266 0.051727857 -0.4224992 -0.2655265 0.16631684 -0.07167687 0.8947907 -0.19271469 0.052785657 -0.46444497 0.5422712 0.060222395 -0.11758568 0.3064026 -0.3559591 -0.4564314 0.9070394 -0.211916 -0.1823247 0.41092452 -0.2528971 -0.04064215 -0.26540738 -0.110365085 -0.27443182 -0.0385616 0.049373556 0.13711326 -0.043617755 0.2916772 0.3388956 -0.104226 -0.37497225 0.19323525 0.027234582 -0.2361192 -0.39202148 -0.26670063 0.35914987 -0.31639686
970 -0.007392415 -0.014557854 0.1337758 -0.34027666 0.016063549 -0.028631331 -0.2071175 -0.12599245 -0.72285676 -0.29325053 0.07086873 -0.36421037 -0.018583266 -0.15588903 0.24264254 -0.36866948 -0.06600167 0.19532904 0.16495715 0.42984563 0.24754472 0.20737316 -0.10307516 -0.46285468 0.15056953 -0.24142824 -0.019272355 -0.05924509 -0.0259828 -0.14769705 0.012912695 0.06422951 -0.048399705 0.025417376 0.041956116 -0.19788344 0.105829835 -0.037137326 0.1915327 0.18797995 -0.06761538 0.14991793 -0.029040463 -0.4364688 0.18559973 -0.1977995 -0.61064404 -0.46008348 0.26296476 0.41123623 -0.33061054 -0.18604012 -0.20863862 -0.16003321 -0.0032199388 0.06990164 -0.01124163 0.22099155 0.19064496 0.09815039 0.20225865 0.08933916 0.23285878 -0.04862745 0.3932683 0.05986079 -0.15415241 -0.23391564 0.031268578 -0.17762901 0.043335717 0.0918465 0.07148038 0.097882375 0.26905578 0.26117817 0.23817135 -0.23738511 -0.12214861 0.09265207 -0.5385769 -0.27507347 -0.12202501 -0.12342159 0.07828965 -0.21120283 -0.446267 -0.08925808 -0.32446557 -0.03234337 -0.6622242 0.073630735 0.21520248 -0.09771614 0.78291315 -0.12294259 0.04912526 -0.3274925 0.43367577 -0.19287428 -0.06752621 -0.049270544 -0.39318734 -0.62227714 0.28300747 -0.16104457 -0.049455125 0.42151177 -0.099107854 0.07400222 -0.41672024 -0.17494601 -0.10157962 0.02563587 0.15732199 0.21332638 0.033147134 0.30932936 0.20994373 -0.12507617 -0.11946224 0.12310152 -0.13134657 -0.1830011 -0.2785676 -0.02585455 0.14613296 -0.41912097
2642 0.08647465 -0.106035426 0.56048393 -0.45686728 -0.04635792 -0.12023702 -0.19804704 -0.2668809 -0.76178735 0.0880462 0.11424643 -0.24094404 -0.0529984 -0.32320705 0.43464527 -0.3624396 -0.003104849 -0.109735705 0.2554147 0.46119907 0.15000477 0.39383596 -0.18404463 -0.6677553 -0.06564537 -0.3883983 0.26846012 0.08206466 -0.16785954 -0.28167477 0.050252177 -0.14918697 0.19721471 -0.12141222 0.08550329 -0.3056593 0.17710482 0.076176785 0.65539104 0.2740539 -0.15923536 0.14473596 -0.04605631 -0.6298486 0.48673677 -0.3812174 -0.67495185 -0.49120012 0.37695614 0.5625467 -0.10636179 -0.48528782 -0.17426962 0.16586299 -0.14677893 -0.16113997 -0.053332478 0.1319883 0.2895333 0.1857693 0.3863424 0.39403695 0.27966344 -0.45187026 0.7808589 0.06017396 -0.2858137 -0.45589772 0.0011860948 -0.17682466 0.1157933 0.518164 -0.15616642 0.024259517 -0.014324013 0.11749465 0.27523082 -0.027015943 -0.05713543 0.14852206 -0.45845154 -0.252867 -0.109236784 -0.25617963 -0.02930136 -0.25323376 -0.81951654 -0.450299 -0.08189879 0.07563762 -0.3092156 -0.21302663 0.14004025 -0.047057655 0.94160837 -0.29782304 0.060400207 -0.42265022 0.82165045 0.04018813 -0.17574644 0.21321309 -0.3866671 -0.6561933 0.8403976 -0.28775024 -0.16310981 0.6195749 -0.38722762 -0.18291013 -0.2076702 0.0469614 -0.18784253 -0.031537063 -0.094123244 0.08800823 -0.044422824 0.40049997 0.43767443 0.038864292 -0.31365362 0.17643821 0.05831331 -0.2099334 -0.5884658 -0.39383024 0.2808504 -0.4475302
