2708 128
0 -0.12738052 -0.12237197 -0.43986446 0.37472588 0.0380898 -0.06480311 0.02590655 -0.17370264 0.1171416 -0.3406326 0.01141402 0.824546 0.103477195 -0.19581112 -0.24088775 0.26757136 -0.071847476 0.24800143 -0.18688633 0.24175332 0.19592129 -0.66668504 0.08980886 0.5973299 0.5455764 0.19788463 -0.32964337 -0.25794914 0.6988697 0.09679181 -0.20412377 0.3598958 0.57505757 0.3305676 -0.17705616 0.8418078 0.5277927 0.2132981 0.4514037 -0.19858941 -0.008939285 0.14491215 0.37710682 0.47055036 -0.06896959 -0.14232427 -0.12869567 0.08028264 0.4671077 0.4883847 -0.5377356 0.7062071 0.219965 -0.49103734 0.17583558 0.5981767 -0.32089356 0.28145373 -0.28832737 -0.25239697 -0.48606852 0.44314754 0.6138432 -0.43022883 0.5317119 -0.44123283 -0.8966716 -0.15009266 0.10549457 -0.16513199 0.55608416 0.18446307 -1.0260173 -0.35712782 0.10637872 0.32811642 -0.54391587 0.3948509 -0.21316667 -0.07272124 -0.13464059 -0.38071254 0.2746775 0.9215787 -0.49010047 -0.16146015 -0.14030348 -0.67040664 -0.43595654 0.52126247 0.00070597976 0.3110794 -0.42971855 -0.040348973 -0.4244394 -0.12861304 -0.40259266 -0.025285335 0.1509308 0.38182917 0.3426827 -0.048615303 0.03191848 0.36011726 -0.25834692 0.116094925 -0.73034775 0.26717183 0.10278651 -0.8660299 -0.20516467 -0.70110965 0.4945137 -0.010156883 0.33240774 -0.55042267 0.42631468 -0.548982 0.3177821 -0.3981219 0.2254106 0.3097332 0.09630501 -0.08446533 -0.4213428 0.41474727 -0.52365077 0.4570066
633 -0.031386383 0.071600206 -0.41244936 0.2802408 -0.01256869 -0.14264487 0.09249652 -0.14048778 0.3263191 -0.26132748 -0.04499862 0.6114323 0.22102486 -0.1340399 -0.05228633 0.16357653 0.032205775 0.20977941 -0.26379022 -0.041114215 0.17675835 -0.37261364 -0.07900736 0.31374517 0.4947668 0.088365056 -0.28007457 -0.2484164 0.51688844 0.22464716 -0.21456194 0.2513644 0.34356102 0.4519777 -0.23827784 0.5586034 0.24725135 0.23213589 0.33734024 -0.20647892 -0.14818405 0.0504174 0.20245022 0.22571672 -0.09923934 -0.06644668 -0.2591673 0.06802668 0.33444214 0.31198388 -0.3234516 0.7115849 0.27120215 -0.33938402 0.15333173 0.6588157 -0.16609927 0.10214111 -0.1812622 -0.04402918 -0.31054237 0.28908888 0.60456395 -0.23825641 0.44951767 -0.25620613 -0.6339456 0.013069781 -0.013352018 -0.549216 0.4742768 -0.027989388 -0.867947 -0.4500734 0.096267834 0.073196314 -0.3804265 0.21047057 -0.108691484 -0.007375849 0.00278925 -0.41075918 0.37796152 0.54596746 -0.43667057 -0.10882766 -0.035069354 -0.687641 -0.2719021 0.345188 0.11570511 0.2344259 -0.43122092 0.042326257 -0.44278717 -0.046741918 -0.33334842 -0.000944702 -0.00799969 0.3226537 0.37351248 0.030680533 0.06204896 0.23060301 -0.15807565 0.02584658 -0.5886265 0.13458407 -0.08862545 -0.6472997 -0.13647261 -0.482075 0.22259277 0.2297997 0.14546522 -0.23271893 0.59439915 -0.43323565 0.3612644 -0.3511793 0.25475055 0.21575756 0.0035592366 -0.07413794 -0.313404 0.27377865 -0.32007253 0.2845708
1862 -0.16906588 -0.083543666 -0.3567724 0.35242647 -0.11571882 0.07349076 0.048397787 -0.2637231 0.362315 -0.22424154 -0.047496874 0.820138 0.06825869 -0.31398448 -0.32414412 0.23002674 -0.15228091 0.2606743 -0.20241334 0.2057335 0.30757865 -0.6281681 0.24819772 0.55883497 0.54105085 0.1512356 -0.27483425 0.02889593 0.5489491 0.0556426 -0.17524295 0.38568565 0.37458736 0.14552622 -0.22176641 0.8096776 0.48064426 0.14826702 0.30796823 -0.17914736 -0.15109147 0.08309722 0.37477502 0.36582804 -0.09280549 -0.03140608 -0.23513366 0.13251214 0.47465497 0.4762029 -0.4274919 0.6906574 0.18058254 -0.48938856 0.09613853 0.37539166 -0.18923505 0.4316443 -0.23944399 -0.17638107 -0.6416252 0.5051215 0.47152707 -0.2654501 0.5639153 -0.4065479 -0.6556395 -0.07833951 0.063811995 -0.28950498 0.4458177 0.1891059 -0.9060618 -0.36920232 0.14770883 0.56442785 -0.4348583 0.33133712 -0.020995839 -0.01579044 -0.19785053 -0.38419113 0.1750359 0.9589753 -0.14544839 -0.060752995 -0.12932344 -0.48727205 -0.48081768 0.50851774 -0.064437754 0.25893044 -0.4052151 -0.15881613 -0.49275038 -0.059651304 -0.48296013 0.16087595 0.13866244 0.4118342 0.27958372 0.047802385 0.012148047 0.38722256 -0.1602244 -0.0045826393 -0.5647024 0.13622752 -0.01850154 -0.82287014 -0.08660044 -0.6628587 0.46916017 -0.051880702 0.25765532 -0.5678087 0.28969634 -0.38985103 0.35085067 -0.6005966 0.2606959 0.25288287 -0.09001225 -0.07282059 -0.49889347 0.35713348 -0.3781947 0.38571715
2582 -0.11018724 -0.24219312 -0.27585825 0.30264872 0.008790959 -0.050031085 -0.06539499 -0.30222726 0.12856983 -0.25384074 0.007987469 0.7691013 -0.004458826 -0.05343453 -0.37493938 0.08593971 -0.076622255 0.261093 -0.16737852 0.51241726 0.34987932 -0.71040624 0.18578473 0.73990965 0.6152445 0.117908634 -0.27396142 -0.19999175 0.5284709 0.0640003 0.118359536 0.40533653 0.52644944 0.0973219 0.06756727 1.030247 0.56473696 0.06427048 0.31818268 -0.14102067 -0.011887195 0.2911237 0.46874428 0.55775 0.0033700725 -0.08022724 0.06355402 0.20768794 0.48892882 0.5667749 -0.61718595 0.5499387 0.17050678 -0.5360183 0.26907957 0.34045556 -0.24871418 0.36953187 -0.15883234 -0.22192132 -0.45248517 0.6322797 0.5643961 -0.38579834 0.564075 -0.39850327 -0.82290906 -0.14056648 0.044586834 0.068030775 0.5211852 0.21614733 -0.93062687 -0.36683142 0.06015875 0.40207914 -0.39725843 0.37055477 0.039456174 -0.049854487 -0.2001852 -0.31158617 0.06047965 1.1249315 -0.48425838 -0.04575516 -0.106491245 -0.45725492 -0.4535113 0.51880825 -0.022515032 0.2990876 -0.4727957 -0.14877583 -0.5538569 -0.02380957 -0.22647226 0.123717636 0.122997805 0.2667627 0.40031976 -0.05107328 0.11618571 0.29427323 -0.22976263 0.19635966 -0.59528166 0.2970201 -0.016718745 -1.0303242 -0.08829172 -0.8229978 0.47945958 -0.16791293 0.17826979 -0.512031 0.34164405 -0.4394228 0.2201701 -0.48171502 0.28716028 0.21304345 0.12860924 0.046112098 -0.40419263 0.35641456 -0.56275713 0.4128566
1 -0.8138883 0.25129083 0.24454537 0.2734501 0.58257335 -0.32844898 0.121315345 0.34214196 -0.16162637 -0.51549375 0.37539604 0.31621686 0.21775359 0.98906225 0.67470956 -0.061467104 -0.26136416 0.9718729 0.7444117 0.09321751 0.2579414 0.32907212 0.22506718 0.26973006 -0.19103678 -0.5531231 0.5905608 0.043392956 0.4876438 0.75837594 0.1936079 -0.17765594 0.23706214 0.021358896 0.46067172 1.043283 0.019251829 0.8906662 -0.056161374 -0.48301217 0.46982434 0.00048126097 0.8278129 -0.22579733 0.10339707 0.04944235 -0.06733231 0.28026873 0.04500451 0.25097507 0.28526878 0.7387958 0.49521035 -0.033952966 -0.13560855 0.3525688 0.05424021 0.6795031 -0.72229064 -0.35514656 -0.07796042 0.6406658 0.3094972 -0.058340516 0.57472 -0.818449 -0.2033411 0.26135254 -0.14130649 0.5635575 -0.39571777 0.49180907 -0.116747 0.20305839 -0.0063351025 -0.11719462 -0.23036394 -0.36641544 -0.9810283 -0.57439536 -0.8313672 -0.0040313797 0.48927537 0.96766096 -0.020055244 -0.26270646 0.044246983 0.66620684 -0.16167517 0.15162143 0.11532704 -0.19445279 -0.32025716 -0.9421355 -0.6669796 -0.03884841 -0.27371052 0.46533826 0.0006343861 -0.18290812 0.18650536 -0.20949112 0.6656865 -0.07956444 0.0074568735 -0.08125933 0.11475298 0.28639293 -0.5001893 0.03561865 0.10243628 -0.39772138 -0.16367097 -0.5884439 0.43713823 -1.272263 -0.1325194 -0.14370859 -0.03418756 0.06250278 0.12751222 -0.1842518 0.63456637 0.59392285 -0.39493203 0.44734424 -0.7429044 0.08644391
2 -0.3664844 0.26343665 0.072372764 -0.024486361 0.15120505 -0.18638152 -0.049102753 -0.042974792 -0.009486986 -0.35958865 0.31924862 0.27979738 0.069646575 0.5002531 0.46492994 0.09415025 -0.04320667 0.46716675 0.1139137 0.32803512 0.19998199 0.32253036 0.24811006 0.2807987 -0.070060484 -0.43692964 0.27650374 0.12933016 0.12955332 0.6030039 0.17103386 -0.121530704 0.40514275 0.05353261 0.3525022 0.8010933 -0.13796052 0.8739544 -0.13809195 -0.28620297 0.44763368 -0.1465612 0.62110704 -0.3470046 0.022646867 -0.050667036 0.33741462 0.10265267 -0.22578064 0.05571657 0.56525415 0.6929859 0.5459672 -0.16232908 0.07307492 0.18332127 -0.043404445 0.36573774 -0.6231023 -0.01868139 -0.30356163 0.5397918 0.19699751 -0.053320475 0.5247297 -0.39682606 -0.10651027 0.25763553 -0.24715665 0.5503644 -0.26210123 0.23364018 0.08849471 0.23564506 0.031532172 -0.27160314 -0.18700294 -0.34632108 -0.78518915 -0.38703772 -0.24837412 -0.040784016 0.34758684 0.863821 0.2507842 -0.17066862 -0.024741005 0.43807295 0.124464706 0.33967885 0.10698404 0.00037597044 -0.41941586 -0.9288985 -0.54598475 0.04209223 -0.23934732 0.34767663 -0.080863826 -0.13168952 0.22064613 -0.14659469 0.5587855 -0.3575831 -0.16713077 -0.13700336 0.011063888 0.225518 -0.4819263 -0.09142777 0.117278695 -0.15335584 -0.013849964 -0.41800284 0.1493331 -0.9069242 -0.16918392 -0.2293756 -0.14870092 -0.26817277 0.16965532 -0.18611428 0.40467194 0.19504555 -0.13128199 0.2288118 -0.13692747 0.25307444
652 -0.53680456 0.16180918 0.2380941 0.36149168 0.7594027 -0.6273233 0.05595541 0.34887916 -0.28881082 -0.46698192 0.4896567 0.19248688 0.0989331 0.7989677 0.6984473 -0.09756811 -0.09753322 0.9307147 0.835351 0.14022356 0.19556634 0.43200704 0.08572494 0.17831229 -0.37067726 -0.15131554 0.82418936 0.014612793 0.5917706 0.6355376 0.1827432 -0.26821357 -0.018627444 0.019606436 0.5028194 0.9094132 0.13074312 0.53259933 0.15147686 -0.7591348 0.54347825 0.19482003 0.5274798 -0.29217806 0.3806032 -0.017883576 -0.3992428 0.10683428 0.1446137 0.17407656 -0.13903107 0.6001469 0.016008852 0.31736276 -0.33118027 0.5694953 0.11119434 0.64879286 -0.5867399 -0.45727202 0.02190878 0.54238105 0.1346565 -0.023269294 0.6219027 -0.83382064 -0.27167776 0.15745689 -0.09932667 0.48644787 -0.48751447 0.53859437 -0.23936956 0.2900863 -0.04433251 0.08541176 -0.32579505 -0.53527635 -0.9252177 -0.54346764 -0.95376 0.07139295 0.5685841 1.1098579 0.03294254 -0.30763182 0.11929221 0.43353 -0.13844652 -0.09187386 0.33401302 -0.2746534 -0.04901773 -0.5529055 -0.5061481 0.02526834 -0.24978313 0.47387785 0.026406184 -0.11249506 0.16492872 -0.1993932 0.42517683 0.20421669 0.115547195 0.09704479 0.24681951 0.2855601 -0.16752788 0.1932419 -0.09686075 -0.47320458 0.037959002 -0.32171673 0.33178356 -1.3210257 -0.027168175 0.041614342 0.17491375 0.28324506 0.24805695 -0.26075083 0.82984936 0.53331953 -0.5736158 0.60777295 -1.0300252 0.0516879
654 -0.7931764 0.286071 0.16719222 0.2880482 0.5260712 -0.39477387 -0.0027766672 0.3751387 -0.2415726 -0.44607124 0.5496024 0.3794903 0.15860702 1.1240761 0.60972196 0.073973596 -0.4246887 1.097055 0.99973947 0.12807348 0.32328492 0.3110044 0.019238848 0.3083784 -0.12723933 -0.60077614 0.49429363 0.06297983 0.6104109 0.8523989 0.25302255 -0.38362488 0.4652656 -0.09017541 0.5489072 1.1116742 0.21673602 0.90501636 -0.12629746 -0.571299 0.57956046 -0.09521629 1.0859164 -0.008252727 0.17745374 0.025458852 -0.11341611 0.38493842 0.13472119 0.15273799 0.3713833 0.72033346 0.55910486 -0.16964218 -0.12846065 0.53336704 -0.013481136 0.7802648 -0.8432276 -0.41995844 0.008179413 0.71183336 0.3456469 -0.12900114 0.5965854 -0.80942976 -0.1474339 0.28560278 -0.20546402 0.534912 -0.5678208 0.41974893 -0.23777038 -0.021027107 -0.046728726 -0.20161887 -0.33465692 -0.63927424 -1.1234351 -0.47333813 -1.1437248 -0.04956795 0.44491413 1.0091732 -0.077975556 -0.25646028 0.0728937 0.85383505 -0.31510234 0.22499809 0.35640496 -0.09779597 -0.3250316 -0.9042279 -0.68418026 -0.08323075 -0.4603647 0.5022222 0.033105496 -0.0667078 0.4093889 -0.26876333 0.71609133 -0.03870548 -0.047810655 -0.078309886 0.13184871 0.16169783 -0.36611408 -0.107204214 0.32713816 -0.33991903 -0.11610947 -0.6099436 0.4689666 -1.4577595 -0.21297286 -0.09032935 -0.13004775 0.19893572 -0.021452518 -0.30127725 0.82295614 0.43824401 -0.3498789 0.50380015 -0.850453 0.17864682
1986 -0.10123039 -0.030210763 0.12315047 -0.12940167 0.053342838 -0.1565745 0.14883351 -0.2359505 -0.15739988 -0.20663272 0.117187425 0.28417417 -0.07411766 0.052516773 -0.012087987 -0.17529507 -0.08020514 -0.099347 -0.20775472 0.5661129 0.12783971 -0.012025309 0.0759013 0.5298356 -0.06310231 -0.0077635255 0.074445724 -0.049110513 -0.073396005 0.048542414 0.24758787 0.12990753 0.087286666 0.19927141 0.16817445 0.27585894 0.1446204 0.40678072 0.07313804 -0.19239108 0.09684805 0.06160819 0.2664577 0.07572555 -0.19573279 0.1402528 0.30723527 0.02655736 0.1754102 0.39559925 0.03471443 0.11942291 0.030973159 -0.2834199 0.005106262 -0.05676183 -0.09734436 0.04559846 -0.009654027 0.2398085 -0.27560255 0.33595908 0.0142412335 -0.067791216 0.22667241 0.017249381 -0.03923912 0.12221338 -0.3243667 0.19286187 -0.117252775 -0.18875712 -0.14918226 -0.02541693 -0.010213821 -0.2392973 -0.037916314 -0.069661885 -0.05651024 -0.24374236 0.056518566 -0.33686623 0.030529415 0.41270894 0.017827798 0.09506836 -0.074367836 -0.006581831 -0.08596934 0.1101109 -0.010992762 -0.06110698 -0.46678418 -0.098430336 -0.29473203 0.039090022 0.22091953 0.3023233 -0.066463694 -0.039970484 0.33913395 -0.27203932 0.13751417 -0.1582699 -0.37531492 -0.105474606 -0.45734605 0.11977147 -0.3752227 -0.30874944 0.12401886 -0.20328341 -0.11552375 -0.11669074 -0.031054191 -0.22636609 -0.02318252 0.01238141 0.16717626 -0.3889292 0.19189815 -0.044584718 0.21187225 0.3337432 0.11295482 0.13605614 -0.18306212 0.020651814
332 -0.007655174 -0.08185736 0.11089104 -0.35466844 0.11595752 0.15139854 -0.067154706 0.025474716 0.043700732 -0.3034053 0.6593078 0.14973494 -0.22693978 0.2029819 0.18455748 0.15943271 0.26525626 0.3383835 -0.062378325 0.3076582 -0.013982513 0.2458945 0.49528977 0.044690784 -0.080366485 -0.4127829 0.038320854 0.42308956 -0.114730574 -0.003929889 0.2888846 -0.005557253 0.3632486 -0.035163682 0.26632792 0.7500933 -0.02559864 0.5677318 -0.020290138 -0.096225835 0.6321637 -0.38048494 0.16580714 -0.4361446 0.32881272 -0.04216848 0.617088 -0.5351304 -0.28323093 -0.09208858 0.68672746 0.9458747 0.44157794 0.115296565 0.3676221 0.15500453 0.11200082 0.40067238 -0.536464 0.05181314 -0.5480767 0.39272705 0.24058281 0.2120904 0.58827513 -0.12068635 -0.17505156 -0.008641654 -0.5807857 0.10978951 -0.2915667 0.2955028 0.6013292 0.28633624 0.067390904 -0.10864883 -0.47794822 -0.42410707 -0.5285965 -0.55939096 -0.123734154 -0.08374289 0.37701255 0.51019156 0.053696517 -0.45341927 0.2887859 -0.087429106 0.19142134 0.4254225 -0.31848356 -0.117321484 -0.15481298 -0.80182624 -0.4543811 0.15265542 -0.28402156 0.011161319 -0.3110651 -0.22743258 0.113136105 0.009748138 0.78829753 -0.28004992 0.10778612 -0.26024622 -0.15272099 -0.015407711 -0.6648785 -0.079688855 0.05272748 -0.36751273 -0.11484361 -0.5487373 0.34277183 -0.6820761 -0.47796464 -0.56985825 -0.30561316 -0.29752585 0.31681728 0.038689688 0.5051344 0.10559999 0.25147188 0.15355018 -0.47165644 0.4945918
1666 -0.20221071 0.29199493 -0.25214148 0.14995499 -0.009170791 0.0924674 -0.20372261 -0.5708348 -0.028884977 -0.6158792 0.2514055 -0.019729178 0.13680056 0.46037903 0.39548016 -0.46037972 -0.16530989 0.20741291 -0.01726644 0.5069457 0.025753539 0.24295096 0.34231946 0.31462926 0.2830216 -0.4273406 0.22126631 0.10784658 0.034320693 0.8101688 -0.36328453 -0.195285 0.68870384 0.09773512 0.26140028 0.5743115 -0.79056853 0.54164004 -0.24182609 0.0732673 0.5144241 -0.20790043 0.374473 -0.39100444 0.11712271 -0.33808282 0.33050346 -0.19894329 -0.41102502 0.08130975 0.4273587 0.9541711 0.3330032 -0.25361755 -0.02358821 0.046252675 0.27406278 0.34609407 -0.5036067 0.23496923 -0.11571524 0.22590174 0.18626997 0.12475887 0.41295487 -0.40776893 -0.1603241 0.17470795 0.06794821 0.79429233 -0.08984374 0.30738384 0.2093578 -0.15395354 -0.05143875 -0.528744 0.0770408 -0.035081 -0.76269597 -0.35018688 0.016545072 -0.29299414 0.34728873 0.58620036 0.23034173 0.032863393 -0.16201673 0.30318543 0.23429929 0.054575082 -0.17479017 -0.27358717 -0.56137425 -0.6240608 -0.56173694 0.0019119038 -0.020972595 0.5273571 -0.18388434 0.36166722 -0.026675288 -0.22199011 0.47484797 -0.54540193 0.1290369 -0.3346509 0.16820459 0.14657606 -0.16818734 -0.09374821 -0.3063229 0.018524975 0.19929634 0.034830928 0.014967238 -0.7452016 -0.11843401 -0.27258363 0.034948893 -0.08613338 0.35362026 -0.83426213 -0.048536193 -0.051426776 -0.4103734 0.0470993 0.29428342 0.050699823
1454 -0.38625968 0.3121753 0.19166285 0.05112631 0.24066715 -0.17212069 -0.054001153 -0.046029795 0.15367842 -0.48081297 0.3449142 0.34664226 0.029517494 0.681129 0.4388496 0.24452844 -0.07813487 0.5381452 0.16574576 0.13621883 0.23175381 0.32759967 0.29496813 0.41331118 -0.14180106 -0.44824794 0.06488693 0.2854205 0.1416665 0.591705 0.13900563 -0.22557004 0.43469205 -0.07238347 0.36453205 0.96189123 -0.27553925 1.0033315 -0.23462749 -0.29824522 0.38678235 -0.13797459 0.5072348 -0.3812681 0.064759664 0.018250152 0.36440712 0.24043387 -0.24999273 -0.07045406 0.6952148 0.6973223 0.60056007 -0.10196119 -0.052586205 0.22832838 0.15557219 0.5125526 -0.7266744 -0.21275593 -0.27086413 0.4068421 0.2086565 -0.1501509 0.56320816 -0.5511607 -0.12151089 0.43444705 -0.26943865 0.65765595 -0.34381786 0.3023046 0.03509062 0.41128272 0.0786155 -0.22377814 -0.20170219 -0.26653245 -0.9322405 -0.5183303 -0.39537853 0.03181361 0.24889936 1.023928 0.14585419 -0.18127565 0.18311156 0.6070174 0.20550495 0.4179624 -0.09376656 0.048925687 -0.43763804 -1.1618279 -0.6405014 -0.022240916 -0.3658065 0.3507961 0.05448809 -0.1279288 0.15989053 -0.29977635 0.6530839 -0.2850195 -0.099956505 -0.20442781 0.11204254 0.19871959 -0.52577865 -0.099287994 0.08366884 -0.21268792 -0.1290643 -0.5081964 0.24318618 -0.99831015 -0.36028147 -0.26581764 -0.25473508 -0.30658197 0.40554228 -0.1724967 0.42619488 0.29254192 -0.09478205 0.22931638 -0.2525325 0.11987495
3 -0.7011074 0.059791677 -0.15199623 0.04940363 -0.04553786 -0.022414178 -0.67244774 -0.71680295 0.46206677 -0.68114585 0.2877264 0.32954192 -1.3627937 0.66270244 -0.5169695 -1.4140382 0.77903676 -0.05750385 0.27354634 0.7177821 0.29390022 0.18831164 1.4718035 -0.48638844 0.2254806 -0.04476745 0.0538632 -0.42410094 0.90462 -0.575824 -0.9108054 0.3593122 0.32835943 0.23199098 -0.06216535 -0.785295 0.60543454 -0.019883886 -1.0483867 -0.22473599 -0.3095402 -1.4716944 0.33357713 -1.4480506 -0.14551522 0.6587325 0.28624788 -0.6132123 0.9859495 0.67163914 0.14248009 0.24073178 -0.8334681 0.509191 -0.9305826 0.55181223 -0.3906013 0.26432553 0.26448676 0.91520554 0.16504629 0.6236944 0.8288328 -0.31433368 0.54702824 -0.16207838 -0.34644872 0.7936768 0.58774275 0.019805994 0.5624943 1.1850479 0.051046234 0.17851433 -0.66283995 0.055178512 0.01876297 -0.2323816 1.2670494 0.5012707 0.42261866 -0.10253751 -1.1246783 1.0339427 -0.17925659 0.4636149 0.29781687 -0.25091147 0.94141686 0.9646769 1.5968063 -0.36302632 -0.49145252 0.6012429 -0.1487332 -0.11080661 0.5206232 0.39139935 -0.3978147 0.09586612 -0.6040799 1.1659274 0.6343955 -1.7063473 -0.6906554 0.80212116 -0.15457267 0.2095236 -0.65198123 -1.9806274 -0.63538516 0.7631691 -0.32827812 0.29160738 -0.33457342 -0.8191659 -0.29912236 -0.09472514 0.770287 0.48107445 0.7553275 0.40584978 -0.91928357 -0.7236035 0.26792046 -0.18036659 -1.1455097 0.476617
2544 -0.68429357 0.04647477 -0.12424222 0.058983084 -0.048324868 -0.020210281 -0.64961386 -0.7174125 0.47640148 -0.6929857 0.2550621 0.36493248 -1.3880851 0.65399355 -0.5316616 -1.427943 0.7736455 -0.09046522 0.2892326 0.7118991 0.2970729 0.21386576 1.455901 -0.46880934 0.19699423 -0.05065659 0.024959017 -0.4226045 0.889284 -0.5690671 -0.89356256 0.36572993 0.34776497 0.21208492 -0.0487557 -0.78967756 0.6002671 -0.03492615 -1.0693387 -0.2159989 -0.3334734 -1.4968227 0.2868649 -1.4529907 -0.1393976 0.6550175 0.28915825 -0.5961385 0.9794513 0.65693015 0.1252763 0.23427382 -0.81381255 0.49611685 -0.93161064 0.53956014 -0.41622236 0.28634682 0.30705795 0.90381384 0.19560495 0.5975788 0.86290103 -0.29201636 0.5322612 -0.15373757 -0.3750524 0.7881073 0.56736326 0.032985125 0.6262622 1.1796994 0.04323524 0.18894462 -0.68500584 0.07453987 0.02722906 -0.22147425 1.2670467 0.50005925 0.38952532 -0.10793403 -1.148665 1.0527207 -0.16198964 0.48827502 0.3117553 -0.26753065 0.95712996 0.972629 1.6007974 -0.39807013 -0.5014711 0.58918047 -0.1581344 -0.12362573 0.56102484 0.40277967 -0.40342557 0.09259454 -0.6154966 1.1615779 0.6702363 -1.6909237 -0.68874216 0.8185142 -0.15711819 0.23695715 -0.6460057 -2.0092008 -0.6675043 0.73644865 -0.36333832 0.29752764 -0.34814718 -0.8030023 -0.30087274 -0.10486529 0.729445 0.52840656 0.75844073 0.39682215 -0.9083869 -0.7401894 0.2800243 -0.17721906 -1.1572618 0.4737244
4 0.15088388 0.2599649 -0.2454679 -0.0698203 0.9491281 0.26484492 -0.3382203 -0.031882472 0.2745137 0.16974628 0.8911109 0.08659118 -0.10947026 -0.12687226 0.67502004 -0.0044986987 -0.4121463 -0.02982819 0.850228 0.34043652 -0.123402596 0.18432775 0.16440019 0.22169699 -0.15371853 -0.37649405 -0.39322677 -0.4838235 0.06339498 -0.1815551 -0.29325342 0.14462002 0.1293802 -0.540168 0.6925201 -0.22618143 -0.15525529 -0.07129215 -0.39068896 -0.18368155 -0.19251604 0.46235147 0.5893721 0.6112627 -0.7766666 0.46760964 -0.25903082 -0.44135952 1.1307359 0.54100156 0.05059684 0.59029603 -0.40733743 0.56484604 0.3316624 -0.6603091 0.20490912 -0.08412783 -0.33853674 -0.14009877 -0.17085549 0.5906119 0.8075961 0.82706225 -0.14793216 -0.23067711 0.15027909 -0.2612661 -0.021468312 -0.68632996 0.4719842 -0.79383063 -0.5666098 0.8139253 0.07612792 -0.4146448 0.46655053 -0.07159399 0.31846988 -0.8931073 0.18086086 -0.87230724 -0.5127212 0.016620548 0.64101386 -0.57264704 -0.2973485 -0.16732752 0.2625795 0.016489727 0.48944497 0.51952547 0.08751195 0.0011473992 0.31433752 -0.68357617 0.7689251 0.3692695 -0.3481518 0.6438373 -0.18492778 0.02263089 -0.39756557 -0.5365643 0.10172816 0.56018037 0.04551688 -0.066589504 -0.0152442185 -0.1343501 -0.40006617 0.5453345 0.59228444 0.7762 0.6171251 -0.10157799 0.12603985 -0.2773076 0.22603981 0.10266751 0.19003269 0.13990548 0.7193285 -0.2522293 0.15856346 0.16772081 -0.7038976 0.49711767
2176 0.03436765 0.023850447 -0.11148492 -0.3180501 0.98873377 0.26910868 -0.32747197 -0.063369855 0.28366417 -0.07098009 0.76740235 -0.01796628 -0.06791118 0.060218606 0.57763904 0.029892297 -0.6411574 0.107571706 0.7965285 0.676638 -0.22518617 0.16740985 0.12879962 0.041043635 -0.19479887 -0.43350056 -0.56217223 -0.5941525 0.03294816 -0.0884453 -0.2498092 0.22429691 0.35028487 -0.5104006 0.632744 -0.22473645 0.11375035 -0.19389923 -0.38156766 -0.04075908 -0.14312148 0.4599253 0.5405259 0.3815037 -0.7575144 0.50589657 -0.34704873 -0.38570684 0.9812793 0.56734645 -0.19866945 0.23360598 -0.24501435 0.5638893 0.19700679 -0.5840634 -0.031338297 0.10973118 -0.14823954 0.014168628 -0.33107725 0.7608153 0.85456717 0.8057516 -0.2479582 -0.19350967 0.22732484 -0.23420143 -0.062655196 -0.68474466 0.52644944 -0.47823408 -0.31692582 0.96662617 -0.025279652 -0.45391238 0.49668494 0.17850418 0.44468752 -1.011362 0.44688505 -0.9855422 -0.3540078 -0.07805408 0.69102025 -0.59748083 -0.5076534 -0.34522274 0.45588678 -0.09553993 0.30639148 0.62221134 0.09368702 0.15349936 0.24261503 -0.7867791 1.0802327 0.29129723 -0.2922738 0.77869505 -0.15336446 -0.036580343 -0.3748167 -0.43617347 0.2118935 0.44118172 0.18020019 -0.34624866 -0.11294282 0.17716567 -0.4055155 0.63198525 0.6175189 0.8153943 0.47747907 -0.2069195 0.16288885 -0.26967844 0.5125642 -0.09840881 0.47045428 -0.008691738 0.642458 -0.2519709 0.23196882 0.034858663 -0.58819175 0.48232597
1016 0.065022685 0.24262223 -0.116467014 -0.09481208 1.049 0.10210922 -0.3939135 -0.024673324 0.44270042 -0.015180273 0.8350716 0.055339955 0.031090317 -0.3016943 0.5998802 0.14058518 -0.62902 0.14511141 0.8392156 0.66549927 -0.3069195 0.3340046 0.11721301 0.27488193 -0.25949076 -0.42285383 -0.6379409 -0.57675165 -0.09402478 -0.18595827 -0.33246845 0.037738718 0.3080434 -0.49799624 0.6410649 -0.19596829 -0.05294142 -0.29438624 -0.5513387 -0.28998804 -0.17485246 0.4459503 0.6386173 0.5097689 -0.97195685 0.4773763 -0.34773663 -0.51562786 1.2223247 0.83676845 -0.095332876 0.5598663 -0.51580024 0.76903963 0.36843318 -0.86703503 0.010514927 -0.08712316 -0.2862654 0.007443998 -0.344477 0.68179435 0.91180986 0.8898274 -0.2895133 -0.382575 0.29249284 -0.2204489 -0.019373344 -0.73320585 0.4957436 -0.59542793 -0.348499 1.0737708 0.027713949 -0.6759636 0.6649725 0.01885069 0.505437 -1.0668074 0.40907878 -0.9333158 -0.5094219 -0.15063071 0.6507725 -0.62955534 -0.62724686 -0.11315347 0.35782897 -0.11972539 0.5422814 0.38185033 0.008893567 -0.037697207 0.21887718 -0.7673488 1.1636494 0.34763697 -0.35488364 0.8314277 -0.22683768 -0.07709493 -0.40043765 -0.5756661 0.23019087 0.49259698 0.11805168 -0.1409241 -0.024452636 0.048210543 -0.34963402 0.757548 0.5422185 0.93127435 0.6158489 -0.16771892 0.18059623 -0.2915212 0.52066666 0.14051071 0.20112236 0.1842282 0.6675271 -0.40546614 0.4414384 0.105539046 -0.70244277 0.49444917
1761 0.3739336 0.29881757 -0.23000968 -0.009923113 0.6662972 0.18897936 -0.044183083 -0.13200365 0.28260377 0.26704526 0.57813686 0.051551405 0.030754667 -0.18725216 0.3602763 -0.070343815 0.10801269 0.1326071 0.36571977 0.042711917 -0.09988687 -0.023170872 0.23725396 0.13752964 -0.054196686 -0.10922212 -0.18576014 -0.20611724 -0.011781843 -0.36746654 -0.3079039 -0.022501383 -0.13264646 -0.40509415 0.42503163 -0.16514288 -0.1877273 -0.19286743 -0.27436998 -0.09349618 -0.25758946 0.34290984 0.58943313 0.36830974 -0.26324326 0.20172536 -0.14846002 -0.50152016 0.900492 0.16234021 0.42910472 0.57042027 -0.23805775 0.22241172 0.20905425 -0.44385177 0.25559697 -0.03236599 -0.4745002 -0.25914064 -0.20293061 0.53719485 0.508935 0.45141828 -0.01045934 -0.22714129 0.07624587 -0.15292452 -0.013156393 -0.35000318 0.25227186 -0.7270174 -0.54351115 0.5759216 0.0033557941 -0.30911466 0.3093143 0.050486866 0.337366 -0.5450887 0.056158364 -0.27313247 -0.371554 0.09785105 0.7134513 -0.43876103 -0.09629087 -0.11368346 0.31152874 0.12102342 0.25627002 0.2939855 0.116107084 0.11607664 0.28231207 -0.47624844 0.42282015 0.3351468 -0.08189083 0.22707263 -0.10183446 -0.006400434 -0.42700574 -0.5377645 -0.11185025 0.43267182 -0.22311433 0.08999528 -0.017849509 -0.30244723 -0.26460025 0.107022844 0.36533532 0.4385721 0.500567 -0.14943382 0.023915097 -0.21578208 0.03188627 0.024072303 -0.076545104 0.12802684 0.31165314 -0.1963229 0.104656614 0.38462418 -0.55353457 0.33588067
1256 0.18800211 0.24609041 -0.12935705 -0.12285314 1.159586 0.19023085 -0.3837609 -0.07696705 0.34974426 0.07747208 0.848036 0.06542361 -0.038429 -0.20883942 0.6057044 0.04387808 -0.4782316 0.09606424 0.8050246 0.42730713 -0.15104538 0.17317358 0.28451887 0.16980115 -0.15176319 -0.4403347 -0.54953897 -0.55532014 0.1781097 -0.3197063 -0.41422987 0.12814295 0.2171716 -0.5962474 0.65815043 -0.19346465 -0.060713194 -0.21715446 -0.5106792 -0.12553595 -0.23380718 0.44501585 0.6605102 0.5616383 -0.72731024 0.43822575 -0.28822535 -0.47697285 1.3181441 0.6553195 0.0130999135 0.38984406 -0.2936637 0.59942424 0.35394743 -0.76281667 0.042045962 -0.014268726 -0.4039929 -0.014218516 -0.2907274 0.63313085 0.9031535 0.88943523 -0.23628093 -0.34456295 0.1416492 -0.12140416 0.004771363 -0.71404594 0.53393406 -0.6718111 -0.4072786 0.9446303 -0.05713785 -0.44409618 0.5632263 -0.03973289 0.5448963 -0.9942288 0.41193154 -0.8508068 -0.31687492 -0.2480114 0.7798014 -0.63810307 -0.28386775 -0.19267201 0.3469334 0.027566666 0.5691052 0.56583345 0.021307606 0.09793932 0.3708726 -0.71162665 0.98376817 0.25360623 -0.3253161 0.6427227 -0.19493651 -0.06111479 -0.37416056 -0.6074692 0.20004833 0.47280917 -0.023137977 -0.049223963 0.040208247 -0.12704332 -0.34232363 0.4778974 0.4366258 0.8819874 0.528014 -0.0459693 0.13719521 -0.21011813 0.42096204 -0.023168297 0.2871078 0.13295601 0.5900285 -0.410246 0.093198836 0.31585267 -0.6775335 0.5400523
2175 0.013246095 0.35399914 -0.17185456 -0.0018961903 1.0796617 0.21613377 -0.39141843 -0.15564193 0.34931916 0.04656087 0.8155276 -0.004694078 -0.11721608 -0.06555896 0.72063196 -0.055075504 -0.48466736 0.0049159923 0.77568024 0.41772047 -0.16845758 0.19188362 0.27634075 0.099677816 -0.17926651 -0.5537535 -0.5540368 -0.58474994 0.1804086 -0.37967446 -0.28784725 0.15493336 0.18440299 -0.49346465 0.59614855 -0.15449367 -0.12790471 -0.110231236 -0.51367724 -0.1930884 -0.26378193 0.48787707 0.6683697 0.6789734 -0.65803623 0.5395661 -0.27955174 -0.4326886 1.2324456 0.47478727 0.14510253 0.46788096 -0.28103814 0.42099282 0.21529077 -0.69390017 0.08920586 -0.05701277 -0.441378 -0.25355244 -0.23310806 0.58285785 0.81943375 0.93527883 -0.16538544 -0.34500974 0.08248002 -0.07353201 0.016585512 -0.7072009 0.54958725 -0.71078706 -0.411729 0.8528654 -0.06086801 -0.5307809 0.48215142 0.025540419 0.41260424 -0.8155149 0.3346765 -0.76493275 -0.44604024 -0.0471727 0.68769217 -0.5075849 -0.35713747 -0.1720149 0.2572998 0.1473117 0.4667621 0.56074494 0.12048559 0.039016478 0.22736396 -0.55532706 0.7894894 0.28348258 -0.15719607 0.7156457 -0.15359707 -0.23351388 -0.42487174 -0.4485369 0.069789246 0.5304412 -0.12465304 -0.022811681 -0.088718444 -0.23600155 -0.3353418 0.4949589 0.7028902 0.854838 0.48605374 -0.04437769 0.07959145 -0.39385724 0.2080614 0.046782434 0.32069752 0.21364143 0.73035556 -0.25626102 0.11721172 0.26120153 -0.73212284 0.4896652
5 0.99192405 -1.1341377 -0.28231874 0.1144273 -0.0151709635 -0.34891126 -0.46653774 0.029209673 0.4398214 -0.12763767 -0.046746347 -0.61625147 0.16544479 -0.044492036 0.53763556 -0.3018532 0.5949192 0.09064707 -0.044312127 0.4467207 -0.17074074 0.61196214 -0.08425984 0.3817362 0.092617445 -0.009762918 0.07471111 -0.48016506 -0.86253387 -0.6492138 0.100268334 0.06516201 -0.2172513 0.90699095 0.46687794 -0.11661486 0.13377757 -0.22312978 -0.2828721 0.35061008 0.67176723 -0.1813708 0.5400633 -0.6775605 -0.25109056 -0.2891381 0.0650968 -0.5574793 0.6296646 0.55207026 -0.12356638 0.3027717 0.3017513 0.5629059 0.26915184 0.5461047 0.586426 -0.5362747 0.2929501 -0.7347926 -0.36206475 0.08944208 -0.46698335 -0.74535 0.42225572 -0.04151425 -0.27843106 -1.358887 -0.6255345 -0.2385159 -0.0420925 -1.0338875 -0.64400417 0.085252956 -0.9002606 -0.1471686 0.68596524 -0.3251436 -0.18422881 -0.6509001 -0.005504798 0.4409651 0.2060454 0.7215013 0.41168755 0.25818732 -0.003207771 -0.14066006 1.267172 -0.040171828 0.07905119 0.05955753 0.40136746 -0.9930556 0.5595332 -0.6167104 -0.7156495 0.3849529 0.22448488 -0.15703267 0.2961507 0.22753353 -0.36608496 -0.8063784 0.06364343 0.49225798 0.9353711 0.35062972 -1.0376786 -0.68878216 -0.5109621 0.18234488 0.065206744 -0.003372697 -0.09708683 0.121449046 1.048166 0.43784305 0.61238974 0.017188452 0.5611239 0.22074747 -0.65614736 0.17584698 -0.18793772 0.12750782 0.61005014 -0.17302641
1629 0.8597804 -1.0630823 -0.3388381 0.016291086 -0.08001003 -0.2583229 -0.49167567 -0.068222046 0.38832423 -0.07643835 -0.08458639 -0.32821208 0.12493952 -0.25239715 0.47215506 -0.33488312 0.68672955 0.3154382 0.096134804 0.32635486 -0.14961281 0.45163888 -0.16344877 0.3898654 -0.07204203 -0.029880654 0.13416278 -0.21813904 -0.7338376 -0.736651 0.021918101 -0.098349296 -0.20554358 0.764607 0.35916865 -0.28471148 0.13795255 -0.31270516 -0.1489105 0.2815831 0.6196073 -0.03902376 0.57061523 -0.56032646 -0.08650105 -0.113447964 0.06475416 -0.62435085 0.4239826 0.6744322 0.15006816 0.12721719 0.47534052 0.31448945 0.34885797 0.54147184 0.65218633 -0.4912454 0.12232251 -0.7781208 -0.4095354 -0.11771729 -0.5644206 -0.95862454 0.40828225 0.06482552 -0.10820072 -1.293113 -0.49819762 -0.2565532 0.11008794 -0.8229977 -0.5009456 0.01927042 -0.88966155 -0.063793525 0.57362884 -0.32847318 0.13150719 -0.6331085 0.042497274 0.39799777 0.21800137 0.5808152 0.48690292 0.4051229 0.1913252 -0.11844506 0.9194006 -0.1593352 0.061277885 -0.004808526 0.46417177 -0.86778134 0.5900265 -0.56425166 -0.82756114 0.38164213 0.44591263 -0.04744084 0.1352784 0.10702591 -0.30852348 -0.83657444 -0.04513729 0.42288938 0.6741996 0.32116812 -1.065245 -0.5088737 -0.49855164 0.46056864 0.11135393 0.4419747 -0.25994903 -0.119300015 0.8174523 0.3229456 0.35617888 -0.050016448 0.44955254 0.22199558 -0.6257892 -0.0019585423 -0.07401067 0.23978782 0.4873844 -0.12158082
2546 0.7322148 -0.6093178 -0.0716553 0.099493876 -0.05683358 -0.43211758 -0.36389688 0.24577455 0.2408042 -0.14471307 0.0868792 -0.57862383 0.26888645 0.103869595 0.5633719 -0.35259616 0.44614437 -0.09280052 0.10083469 0.19070715 0.014507313 0.45625722 0.27783108 0.30195656 0.16139843 -0.09479837 0.09783935 -0.6842848 -0.61200887 -0.17441398 -0.027986778 0.19292456 -0.18261476 0.80036324 0.3378347 -0.0038782675 0.042916246 -0.12544072 -0.23788144 0.48315048 0.5466046 -0.15974265 0.47491315 -0.6040869 -0.4694694 -0.35849056 0.12710162 -0.11054354 0.46619686 0.11902905 -0.255438 0.47764435 0.010970417 0.68567514 0.03961843 0.34755203 0.57325757 -0.085158356 0.036470093 -0.3753681 -0.08643123 0.23353289 -0.20496021 -0.24017178 0.050939456 0.22320302 -0.39281014 -0.8506379 -0.51193494 -0.19709834 -0.2636936 -1.1081922 -0.69745564 -0.012008156 -0.61852705 -0.017608264 0.35615134 -0.16371754 -0.218338 -0.50704247 0.07170617 0.3870193 0.05159421 0.7220931 0.40814403 -0.11805062 -0.033120696 -0.09055807 1.0833893 0.17386429 -0.099830754 0.3195509 0.2176271 -0.67991245 0.55690026 -0.24699248 -0.42271647 0.34604546 0.21150625 -0.4474149 0.19370571 0.5456727 -0.29678053 -0.55159754 -0.295662 0.41907105 0.83174866 0.5031176 -0.5098098 -0.47447842 -0.15850899 -0.1947081 0.27272105 -0.4390063 0.039681416 0.1871734 0.8300055 0.49299118 0.5891835 0.11877829 0.43407568 -0.017176215 -0.5852814 0.25146684 -0.27321956 -0.19757684 0.31107032 -0.32011595
1659 0.9538777 -1.2786118 -0.24862567 0.2456995 -0.09110152 -0.33047116 -0.5359518 -0.077981964 0.53601426 0.02726317 -0.08029418 -0.45568365 0.104478225 -0.16714595 0.5380263 -0.22817403 0.5859318 0.2109165 0.07303351 0.49551854 -0.21439718 0.6385145 -0.1739635 0.40504998 -0.017376052 0.0647319 0.10848456 -0.4389869 -0.803033 -0.8039811 0.1287712 -0.15141119 -0.15111859 0.7659469 0.38304508 -0.1673962 0.08667301 -0.31750005 -0.13639279 0.48585683 0.75057334 -0.030754654 0.6219992 -0.6499065 -0.15245815 -0.17010452 0.057942048 -0.56001925 0.5775228 0.7463875 0.122319266 0.25731847 0.5357833 0.4173659 0.22273752 0.6182824 0.6515089 -0.48676297 0.22925824 -0.7591789 -0.42526785 -0.06981945 -0.50055677 -0.89781886 0.5087296 -0.044730786 -0.20604172 -1.5512027 -0.66413414 -0.22802667 -0.029098043 -1.0428805 -0.60369086 0.0078021586 -0.9438021 -0.033400986 0.7850425 -0.2811114 0.058102585 -0.5980931 0.029424332 0.46677986 0.23158996 0.6617282 0.4937499 0.4541012 0.13599682 -0.16612941 1.0483923 -0.15763178 0.064441934 -0.0026596829 0.43291292 -0.9877729 0.496632 -0.8187186 -0.82923776 0.4452284 0.3909776 -0.04071481 0.22366312 0.07703788 -0.33419633 -0.79030764 0.1811214 0.5037405 0.9675233 0.37356976 -1.1184586 -0.6972314 -0.57748836 0.27147713 0.026639946 0.34061885 -0.21314497 0.017025113 0.9730004 0.4384636 0.48308793 -0.19457354 0.6502575 0.22337945 -0.8157724 0.07710799 -0.13093846 0.1690947 0.5961926 -0.04080018
6 0.20672429 0.2897264 -0.0869809 -0.45488635 -0.11568538 -0.119960494 -0.068297125 -0.33750433 0.25045967 -0.020174472 0.066497296 -0.01869722 0.22784153 -0.18712111 0.42904523 -0.05906998 -0.11129486 -0.0149720125 -0.08138478 0.5204954 -0.1265458 0.35092252 0.46439993 0.029748144 -0.23188558 0.09301393 0.56303954 -0.07583315 0.61374044 0.24368462 -0.059721246 -0.28505406 0.16737927 0.2714459 0.16525961 -0.20201708 0.31906238 0.22655158 -0.25365865 0.039413694 0.19633986 -0.47578362 0.42886826 -0.046402946 0.34170872 0.23372032 0.5665371 -0.1707022 -0.44909957 0.2922622 -0.2136385 0.1219094 -0.3931145 0.060061768 -0.18911211 0.04012792 0.24832156 -0.4592589 0.091229126 -0.07968804 -0.37819183 0.040189553 -0.27756077 -0.39712036 -0.8273211 -0.24318768 -0.23489442 -0.49226573 -0.019207185 -0.50897247 0.32305542 -0.08241104 0.18357155 0.027883576 0.33203608 -0.13380584 -0.18952963 0.12916784 0.2998535 -0.8960146 -0.12505876 0.20319459 -0.042405654 -0.36684075 0.23621576 0.13951498 0.19868559 -0.15896364 0.2779588 -0.17196196 0.10250208 -0.35383475 -0.14552362 -0.39754617 -0.11786376 -0.8647801 -0.50661534 0.53758794 -0.5198723 0.50472206 -0.43355003 -0.29145747 0.42368078 -0.43409127 0.11032242 -0.10273084 -0.20749228 0.012950998 -0.05584332 -0.10292093 0.00773866 0.47786456 0.4212602 -0.34674197 -0.41796237 0.19138606 -0.17867304 -0.3926987 0.55161136 0.38139138 0.2646983 0.5312813 0.07836095 0.49774575 0.19781415 0.12291035 -0.10624076 0.032527503
1416 0.12914763 0.28966334 0.057114594 -0.27880296 -0.24507132 -0.3320761 0.06397533 -0.38287398 0.24404374 0.2025157 -0.08370708 -0.33190206 0.023357654 0.04467273 0.19569914 -0.30804983 -0.024127433 -0.077336416 -0.048552066 0.3323519 -0.09675207 -0.040076494 0.32297426 0.10652304 -0.16632126 0.05841757 0.4917152 -0.09394585 0.5115171 0.37600282 -0.37897846 -0.39234555 -0.14165814 0.27692235 0.29789454 -0.020305324 0.24385318 -0.059295136 -0.3917325 -0.18908457 0.06309087 -0.22479081 0.49296892 0.21357346 0.42852014 0.11361569 0.6610185 0.02993189 -0.299362 -0.031965744 -0.40550986 -0.005652601 -0.050695036 -0.10951613 -0.16904658 0.11432929 0.09757577 -0.2465479 0.06744162 0.046795048 -0.046479035 0.3351641 0.0014896871 -0.5219931 -0.435164 -0.17776582 -0.29031748 -0.74459755 0.21208102 -0.2699013 0.028834406 0.12464083 0.06798894 0.0917632 0.4718726 -0.17495556 -0.16715047 -0.22159623 0.14300407 -0.7970656 0.18948132 0.114353634 -0.30881354 -0.046710063 0.09662117 -0.17239669 0.22826941 0.23310304 -0.1930996 -0.0060524032 0.15206866 -0.158988 -0.04405025 -0.6765256 0.24685206 -0.8496012 -0.14960882 0.54164475 -0.2421036 0.38092828 0.060866114 0.07969704 0.49419034 0.32150424 -0.060825747 0.09644234 -0.22964385 -0.14369054 0.054162428 -0.08651236 -0.10336016 0.51375145 0.15304387 -0.31927046 -0.37211156 -0.09623177 0.13882303 -0.31785312 0.4681469 0.17682289 0.5431095 0.054903448 -0.083858304 0.45389798 -0.035165835 0.03271056 -0.1363791 -0.14475802
1602 0.11650737 0.5662126 0.098680615 -0.5293239 -0.34500256 -0.12690541 0.08352548 -0.07791523 -0.18003169 -0.007498064 -0.15013026 0.37623778 0.31716114 -0.32623228 0.33990923 -0.11587791 0.014477834 0.047463354 -0.01384176 0.28957734 -0.03273597 0.2898313 0.3319133 0.15916349 -0.16128445 -0.15123668 0.7013703 -0.17958443 0.3577354 0.014342234 0.18200073 -0.22205822 0.40584248 0.21133406 0.041649383 0.08317135 0.32482347 -0.13132958 -0.05645481 0.10573224 -0.074902534 -0.514551 0.3611198 0.026274554 0.13971205 0.13914281 0.42650235 -0.06599676 -0.3479414 0.08317149 -0.3082597 0.2613027 -0.34897178 -0.11927686 0.05054234 0.12359035 0.28831077 -0.1258088 0.45992646 0.05327946 0.026714254 0.34952706 -0.1622753 -0.49695286 -0.65400225 -0.16334851 -0.05268415 -0.009604048 -0.14405556 -0.5788309 0.5543509 0.013671176 -0.0466072 -0.31147638 0.3308393 -0.14633784 -0.21121493 -0.21399269 0.33038783 -0.7051062 -0.159461 0.029453225 -0.21135235 -0.27018437 0.34737477 -0.10368017 0.27596998 -0.10733462 0.64383245 5.593728e-05 0.3404084 -0.0812227 -0.15807521 -0.25790235 -0.32946602 -0.810965 -0.31348482 0.48425746 -0.3882009 0.3001558 -0.5539257 -0.10095688 0.38542 -0.38967672 0.09977672 -0.14377087 -0.020201772 0.03503129 -0.14373831 -0.10923508 -0.21190377 0.19632508 0.6269101 -0.41233152 -0.4919748 0.08845117 -0.385244 -0.3231226 0.29881543 0.32945168 0.5097305 0.24663089 0.17173447 0.17236514 0.12134568 0.09156442 -0.13829492 -0.15403521
1042 0.56916624 0.18854442 -0.038035657 -0.19834374 0.121138915 0.10570556 0.028829968 -0.17086086 0.2601599 -0.0025779803 -0.188112 -0.042324036 0.0415478 -0.2541563 0.47088352 0.12317544 0.07464936 0.009689917 -0.093962476 0.57617533 -0.06814456 0.46262807 0.53410906 -0.07387985 0.024793634 0.013766089 0.5558946 -0.097081326 0.5558061 0.13155696 -0.35678542 -0.05419158 0.09343161 0.20970462 -0.26732466 -0.33181977 0.27293685 0.20117019 -0.20810314 0.35802722 0.34171784 -0.22431448 0.15324837 0.07211812 0.062956475 -0.009684009 0.51666254 -0.09054312 -0.24827099 0.0969563 -0.088115856 -0.12082384 -0.44069758 0.18228239 -0.050944984 0.17349562 0.58005947 -0.3098904 -0.07509293 -0.044809155 -0.6516203 -0.1534021 -0.3198985 -0.23831967 -0.7235401 -0.45512223 -0.3377334 -0.36786178 -0.34422424 -0.2396483 0.4413616 0.054913085 -0.14447491 -0.10402511 0.5051552 -0.032221112 -0.32718426 0.17005754 0.29679358 -0.71789455 -0.08671232 0.06351679 0.11327102 -0.26741844 -0.009813792 0.07073229 0.3079721 0.060964577 0.050999563 -0.119656645 0.08857953 -0.48870042 -0.19729693 -0.15261875 -0.15427004 -0.45288196 -0.30840266 0.46116295 -0.35221574 0.5206533 -0.41379532 -0.39047498 0.25266898 -0.69597596 0.025734166 -0.08277717 -0.18240036 -0.05534771 0.15754235 -0.12022962 0.33895904 0.23288147 0.27784464 -0.17190425 -0.21494026 0.2138959 -0.28251097 -0.28235757 0.52617705 0.3983148 -0.015529128 0.6626787 0.035653308 0.67818564 0.39174318 -9.205584e-06 -0.2770339 0.24626376
373 0.40102062 0.26396573 -0.17457186 -0.49927446 0.05764852 0.0040153405 0.0019198514 -0.48404247 0.3493817 -0.07110776 -0.02429037 -0.1730975 0.115188405 -0.08581315 0.33353072 0.038376305 -0.042696957 0.003957848 -0.22107752 0.57105625 -0.12323127 0.55135155 0.60044885 -0.057270873 -0.2991801 0.007016198 0.7388095 -0.085473984 0.6663362 -0.05436976 -0.26057938 -0.25042588 0.22980273 0.25872648 0.09843029 -0.4245488 0.3255033 0.36938995 -0.23497431 0.20280957 0.25104424 -0.36041126 0.2765102 -0.0661936 0.342518 0.18586642 0.5023429 -0.30562657 -0.3935597 0.29972354 -0.117624834 -0.08956736 -0.54609823 0.2909866 -0.30428633 0.028352685 0.35572696 -0.72201604 -0.06519791 -0.18687196 -0.5625018 -0.15535067 -0.38141522 -0.30581045 -0.67669356 -0.29658443 -0.20589279 -0.6437366 -0.1521347 -0.44581357 0.4128204 0.08383259 0.12086903 0.033911053 0.5645916 -0.0557726 -0.29108077 0.2077639 0.53521305 -0.89009833 0.056998897 0.2769056 0.24489899 -0.3812374 0.15128638 0.09031028 0.33455673 -0.12293008 0.12617157 -0.11834328 -0.012659907 -0.48645425 -0.22803317 -0.26172525 -0.17783986 -0.7142795 -0.446431 0.38158336 -0.49991158 0.6124458 -0.42890483 -0.432168 0.3436983 -0.8107382 0.01339555 -0.18517505 -0.3039578 -0.024482409 0.023436379 -0.21778178 0.21361844 0.39388907 0.4047384 -0.19189274 -0.36366 0.109232664 -0.31228805 -0.1927708 0.5712978 0.3015539 0.0117252795 0.65483695 0.04212127 0.70998627 0.32306263 0.25098825 -0.38727757 0.057703618
7 -0.32153985 -0.97243446 0.57229954 0.07169951 -0.812142 1.2101072 -0.4974399 0.37639585 0.13324448 -0.62308913 0.25466242 0.9061793 0.0022387637 1.6395812 -0.33046088 -1.0202781 0.5447376 0.11972303 0.008674612 0.8185807 -0.042457998 0.3345461 0.45093414 -0.6708344 -0.1558553 -0.2876486 0.24945332 1.0543562 1.081399 1.002117 -0.4830819 0.37913567 0.52155286 0.102606766 -0.23153158 -0.5492413 0.72572887 0.32760465 -1.0782896 0.06372493 -0.07231768 -1.2537378 -0.20784438 -0.6930712 -0.45087188 -0.412876 0.80975425 -0.47523752 0.021686904 -0.20708393 -0.32233414 0.6868011 -0.8245456 0.22332655 0.1234577 0.77203536 0.2232342 0.025193924 -0.2388939 0.016564917 -0.3857038 0.26888195 0.63357866 -0.6618082 1.0598183 0.20421341 -0.41074425 0.21072596 -0.5524928 0.16680075 0.4776256 0.83901674 -0.34259698 0.049966436 0.49399996 -0.35783353 0.23078404 0.009870231 0.2654519 1.0234222 0.1519264 -0.5179522 0.25094646 1.2932129 0.03509809 0.8869857 -0.022101201 -0.5840781 1.5296724 1.0248071 -0.0015889747 -0.026744518 0.06554746 -0.42291906 -0.07649069 -0.2583297 0.21497414 0.6169384 -0.2435615 -0.6537449 -0.9457174 0.6254493 0.69308573 -0.80110914 -0.45579454 0.6887699 0.13534987 -0.002035005 0.15764588 -0.9892991 0.41097575 0.8653308 -0.7749783 0.68789744 -1.2380372 -0.6230853 0.3061829 -0.114368 0.83741385 0.34598917 0.7066055 0.3227791 -0.04981332 0.25125563 1.1802628 1.5727408 -1.5320059 0.66214913
208 -0.32391828 -0.95970654 0.56604075 0.07295914 -0.8019993 1.2186103 -0.49776557 0.34949997 0.14668524 -0.63184136 0.2676941 0.91005206 -0.018196251 1.6336497 -0.34168512 -1.0396484 0.5544641 0.14418025 0.011676785 0.8046524 -0.019896792 0.3372201 0.43594572 -0.6826229 -0.1454416 -0.27179936 0.25104165 1.0447522 1.083174 0.9891218 -0.4799282 0.35322943 0.49118245 0.08851675 -0.24363634 -0.5525946 0.7347488 0.3172269 -1.0933664 0.06314072 -0.07239413 -1.249517 -0.2144749 -0.67532647 -0.4400176 -0.4220424 0.79315716 -0.46684018 0.01859737 -0.19483812 -0.32212707 0.71492416 -0.8148899 0.23552951 0.12241255 0.78715074 0.2388814 0.017582411 -0.24301983 0.028590085 -0.40485045 0.2888807 0.629488 -0.66779226 1.0622663 0.18729243 -0.41645566 0.20559576 -0.57134086 0.16755684 0.47321212 0.8458529 -0.33675927 0.039183617 0.5203576 -0.33685023 0.20332181 -0.004214018 0.2391954 1.0170052 0.15728292 -0.52640915 0.244289 1.2865824 0.03026553 0.8760159 -0.016358273 -0.5896652 1.5270488 1.0381457 0.0032265692 -0.0032378593 0.047211286 -0.43447292 -0.06671501 -0.25332263 0.20465402 0.6189876 -0.23595394 -0.6420973 -0.96493256 0.61299807 0.6817914 -0.8035509 -0.44265857 0.6883063 0.14430735 0.0005055886 0.14805241 -0.99730444 0.41742516 0.8639187 -0.7619302 0.68850774 -1.2413676 -0.6250729 0.2991415 -0.11245535 0.8271176 0.34341097 0.7040014 0.3150766 -0.038276434 0.2585102 1.164513 1.5538161 -1.530672 0.6904967
8 0.008574735 -0.629741 0.5198903 -0.7113775 0.28618765 0.2997262 0.43770465 0.10530879 0.057527527 -0.6583989 0.16696842 -0.18548208 -0.017475436 0.26505387 0.28263715 -0.4316695 -0.68003243 0.037445772 -0.2695365 1.0054442 0.30284005 -0.08225802 -0.07202357 -0.0049374257 -0.31008556 0.4408694 -0.67580616 -0.13507456 0.53726345 -0.13015105 0.20095694 -0.2057407 0.12414892 -0.036069512 -0.08865451 0.58241004 -0.14710684 -0.07189085 0.25407982 0.4244415 0.1482682 -0.16421701 0.64042044 -0.5163527 -0.071947746 0.36791235 0.31175914 -0.16705035 -0.04175941 0.044649996 -0.41585356 0.09236874 -0.15601692 -0.0616996 -0.50925666 -0.75925165 0.7509647 -0.10528 0.14741784 -0.16630706 -0.027130397 -0.3238769 0.32858992 0.34380975 -0.1271651 0.62842166 -0.325445 0.12658696 -0.057322595 0.008396653 -0.4741055 -0.28578246 -0.7106821 0.7815619 0.14217031 -0.06564131 -0.80631506 0.07403497 -0.24308217 -0.45555672 -0.1143119 -0.18664134 -0.44956258 0.16642475 0.22516401 0.31863716 -0.22972088 -0.03698791 -0.090764575 -0.4000143 -0.035806164 0.14404185 -0.9720519 0.44992048 0.08718608 -0.64919645 0.3252832 0.47361648 0.10456949 0.3115286 0.4029579 -0.29241604 -0.091389485 -0.3131793 -0.4334108 0.21820393 -0.08504327 -0.32652512 -0.9479554 0.013525067 0.65164214 -0.079628006 -0.09411866 0.11402795 -0.587563 -0.5590755 -0.30542633 -0.28242153 -0.16879803 -0.3295338 0.28146306 -0.26992056 -0.3107761 0.18209368 0.09423632 0.5392994 -0.9204575 0.48799735
281 -0.06484078 -0.17710477 0.17056903 -0.8258885 0.17682275 0.18054782 0.45372108 0.07497366 0.023165585 -0.41397128 0.13069935 0.027133308 0.4576393 0.38771424 0.25725922 -0.2707162 -0.49111536 0.0064631407 -0.0005157815 0.8053855 0.13390233 -0.2811754 -0.17234513 -0.10433249 -0.07873591 0.48304173 -0.45803556 -0.47860983 0.6255822 0.031087363 0.10971512 0.22387862 0.16434313 -0.32855374 0.0052252603 0.2529145 0.25309357 -0.072458856 -0.073834874 0.017638765 0.020573692 -0.12550983 0.022513812 -0.60987556 -0.10293943 0.25341547 0.1723351 -0.24603142 0.23628648 0.061531387 -0.26072723 0.44300446 0.014569034 -0.13426602 -0.101112075 -0.8103674 0.48414975 0.17424333 0.25202549 0.07347482 0.06602641 -0.041674733 0.3492146 0.31458116 0.04262556 0.544285 -0.11432396 0.3993839 -0.35153273 -0.16460243 -0.28836426 -0.29036403 -0.7469778 0.15683964 0.039082147 -0.05584058 -0.2237435 0.11271508 -0.021044621 -0.38760704 -0.04805691 -0.5945447 -0.57087296 -0.0365232 0.40337837 0.17092365 -0.31553322 -0.08782985 0.15180519 -0.24941191 0.053179316 0.7513466 -0.5792845 0.2563045 0.3017717 -0.55952466 0.6184078 0.36649987 0.011526269 0.3071591 0.25134602 -0.08976501 -0.10957631 -0.10102357 -0.13941886 0.23759842 0.36625385 -0.39464068 -0.6459471 0.4232663 0.3479256 -0.15971938 -0.14859079 0.27157173 -0.42412415 -0.62252116 -0.009274511 -0.42728606 0.01803844 -0.2967086 0.3807011 -0.1502396 -0.1393098 -0.0479799 0.06376922 0.1149302 -0.48441407 0.24909988
1996 -0.2069095 -0.6641729 0.58141375 -0.34467632 0.3300877 0.1262534 0.64966285 0.24906738 0.013842422 -0.7578622 0.094002895 -0.32409722 0.102083854 0.17186971 0.21320933 -0.67319554 -0.51000386 -0.36880267 -0.31592175 1.2529252 0.051218882 -0.16385373 0.09107111 0.43623036 -0.5580222 0.13130376 -0.46019393 -0.22617425 0.36855662 -0.018758183 0.22550553 -0.29393372 0.121452756 0.5412397 0.23838156 0.6652004 0.07529907 0.08644883 0.42636254 0.58771163 0.28662395 0.26103798 0.46635726 -0.367071 -0.36384252 0.35393164 0.49974564 0.11506376 -0.074332945 0.41044348 -0.21104804 -0.13877773 -0.28183433 0.042780124 -0.2579025 -0.75564235 0.4507842 0.005625549 0.16381012 -0.0039868588 0.2166591 -0.16281296 0.38591823 0.15910132 -0.14577216 0.4247434 -0.20336871 -0.33322427 -0.1483918 0.038139544 -0.18785353 -0.20566675 -0.44343656 0.60253036 0.10738724 -0.15017729 -0.75966644 -0.01570681 -0.465992 -0.46759304 -0.025146088 0.22099446 0.14259112 0.21534638 0.1292025 0.14438473 -0.32870415 -0.04236538 0.17722669 -0.13118777 0.059470136 -0.26005065 -1.0060273 0.24402238 0.14087373 -0.42198014 0.33681622 0.09738825 -0.18740284 0.097464025 0.6631984 -0.4966577 -0.21980643 -0.1607868 -0.22060534 -0.095096506 -0.4527968 -0.07929511 -0.6287631 -0.5413423 0.645811 -0.540484 -0.082075335 -0.0009621779 -0.61980295 -0.36729887 -0.041958597 0.007144427 0.08686977 -0.36432192 0.042169463 -0.31076464 -0.26873296 0.42791992 -0.11555654 0.7050497 -0.9435489 0.5229361
269 0.10883139 -0.78077835 0.34887838 -1.0074666 0.57294756 0.3915657 0.34809887 0.15830329 0.15670305 -0.8124728 0.26967993 -0.2013078 -0.28699353 0.11763943 0.3926974 -0.5374616 -0.60346925 0.32019454 -0.36012757 1.2364464 0.48844913 0.092463665 -0.06677156 -0.038529314 -0.032617975 0.40010363 -1.0903822 -0.101027034 0.6497587 -0.22116804 0.39004394 -0.18589647 0.4297147 -0.07968069 -0.58582705 0.39408615 -0.061654713 -0.25852525 0.378164 0.34165916 0.14390321 -0.40969694 0.66335666 -0.45777887 0.38043472 0.45478427 0.38432023 -0.17894341 -0.548113 -0.35776275 -0.5448257 0.33441865 -0.10837913 0.16593488 -0.6488365 -0.6168188 1.0782596 -0.21737283 -0.0041537182 -0.50420195 -0.051277246 -0.5837855 0.5681205 0.21358736 0.035341028 0.33385143 -0.4678604 0.5273665 0.20737688 0.024435828 -0.6638626 -0.6480304 -0.908247 0.9859589 0.4010924 -0.16188586 -0.75248545 -0.31216398 -0.13347076 -0.6227239 -0.12615654 -0.6904913 -0.42962936 0.044796426 0.09925377 0.23552561 -0.14230832 -0.078549154 -0.115376055 -0.83880424 0.02441784 0.29481092 -1.1981817 0.46012637 0.016222993 -0.4351523 -0.14805667 0.5127448 0.18800898 0.37475994 0.24665213 -0.3710642 0.40655136 -0.3152158 -0.66183937 0.48286808 -0.093617946 -0.5815306 -1.1927567 0.49553344 0.6635985 0.18237372 0.14765961 0.11527563 -0.5729423 -0.7391388 -0.22975765 0.035540387 -0.48160312 -0.22609307 0.22993283 0.020595632 -0.10028886 0.110837854 0.12100711 0.21521407 -0.7511696 0.6699834
9 -0.6782648 0.70080036 -0.29447478 0.7936449 -0.98456675 0.12466843 0.10571019 0.26273593 -0.15128455 -0.74720085 -0.72071385 0.008631653 -0.60831344 -0.08849158 1.0231483 -0.28003946 -0.0745896 0.24421573 0.65594184 0.4912376 -0.017222552 -0.03670504 0.1725052 -0.22522041 0.088475205 0.30409798 -0.312488 -0.5018953 0.6686637 -0.26120806 0.41302606 0.46220902 0.9991118 0.2242368 0.11703417 -0.55362713 -0.130171 -0.13848622 -0.68201566 0.42958376 -0.93489134 -0.042375226 0.8386638 -0.35949895 0.19745588 0.111435816 -0.9681649 -0.6075241 0.36632124 0.055768877 0.79957366 0.3783826 1.2033489 0.4035224 0.35948867 -0.45600024 1.252016 0.18067093 -0.690349 0.098874316 -0.084467754 0.11212358 0.06382786 -0.25583512 -0.0641273 -0.6676999 0.11566459 -0.48665237 -0.933698 0.19829263 0.12410893 -0.48532128 0.70762944 0.8953682 -0.21813132 -1.0604572 -0.47192177 -0.20699112 0.6661385 -1.7243254 0.2925199 0.28039572 -0.42132473 0.13340451 0.4656198 0.58132577 1.0631413 -0.74232274 0.16799785 0.23915108 -0.47701928 -0.31483042 0.0054219896 -0.17810704 0.48778236 0.3031903 0.07014312 1.1016203 0.17062713 -0.026530754 -0.91801476 -0.14886326 0.66883886 0.2611763 0.20176682 0.53045887 -0.6192112 0.3574699 -0.49706823 -0.1035921 -0.035697807 -0.50398743 0.1516261 -0.37655628 0.22824106 -0.634494 0.5659601 -0.197965 -0.5827568 -0.6973323 -0.49413034 0.7775228 0.371535 -0.5882011 -0.4357238 0.15371683 0.45431554 -0.17713712
2614 -0.4654788 0.56488985 -0.26127848 0.6054222 -0.83398545 0.28967705 0.11665211 0.23337945 -0.18612258 -0.5887597 -0.3970638 0.171661 -0.54931426 0.14010409 0.849498 -0.19127932 0.07397298 0.14915583 0.6866071 0.46017197 0.12672237 -0.07555436 0.074075155 -0.117565244 0.034202058 0.26962453 -0.27231932 -0.6373106 0.6705637 -0.12810527 0.44087487 0.38063747 0.8219612 0.26397505 0.17991161 -0.5522308 -0.06810352 -0.16311619 -0.6102855 0.38136753 -0.802257 -0.08398203 0.797823 -0.42941627 0.30160734 -0.018971331 -0.9331657 -0.68067396 0.25209305 0.04846512 0.52958196 0.16139983 0.90777713 0.27032167 0.3057896 -0.4356686 0.97842497 -0.003630327 -0.4997207 0.04694947 -0.05923052 0.046608 0.07687858 -0.15014185 -0.16822416 -0.67482704 0.16276455 -0.44683817 -0.88978505 0.14111204 0.25171825 -0.42417452 0.5065234 0.8875977 -0.25904283 -0.9524467 -0.29859653 -0.27499348 0.5455776 -1.5932701 0.35446844 0.3296313 -0.34395814 0.10485975 0.30608243 0.5015348 0.9015405 -0.66237634 0.056299064 0.085749626 -0.4042946 -0.17898221 0.08252751 -0.17015128 0.3014535 0.43628538 0.15024687 1.0229614 0.119749956 -0.13702469 -0.74589527 -0.25715628 0.5318814 0.26561382 0.028357275 0.39045283 -0.6300062 0.09454147 -0.4298597 -0.18774582 -0.015139537 -0.41133466 0.13456756 -0.32925144 -7.28193e-05 -0.54897547 0.5307888 -0.030917587 -0.58904755 -0.5321895 -0.50008684 0.7373325 0.08645311 -0.4643078 -0.42553705 0.11320694 0.352 -0.14724994
723 -0.7455806 0.66004676 -0.2743702 0.68387085 -0.9212786 0.13661823 0.09802149 0.19280222 -0.17416088 -0.77659416 -0.6828668 0.10452768 -0.5969552 0.0032912244 0.9443532 -0.28031084 0.018619973 0.2867491 0.5712807 0.46713558 -0.008966498 -0.10546773 0.16849484 -0.10488829 0.11427582 0.3523194 -0.33227724 -0.60475016 0.48656797 -0.1017393 0.37499702 0.52336246 1.0728362 0.29145545 -0.011594267 -0.55449146 -0.14452189 -0.10489835 -0.65627724 0.46031946 -1.0907788 -0.16456929 0.8438032 -0.37851492 0.28799516 0.18590887 -1.0566599 -0.508888 0.43429214 0.041502576 0.74954456 0.36109912 1.0935373 0.32379615 0.3284825 -0.5302332 1.3600063 0.112002686 -0.7845456 0.050441086 -0.035782374 0.084457286 0.028932938 -0.046047177 -0.13489701 -0.7391561 0.15813078 -0.42382392 -0.7747765 0.123029515 0.17944817 -0.42239752 0.67535925 0.80717885 -0.11482041 -1.1064112 -0.43070588 -0.2845009 0.7389653 -1.6551262 0.36476478 0.24101697 -0.36545762 0.19261807 0.58198994 0.71212834 1.1105078 -0.6655049 0.15908551 0.2745439 -0.43955493 -0.1922434 -0.004670454 -0.24068733 0.3731941 0.36828282 0.18728822 1.1489042 0.035665642 -0.19927521 -0.8252455 -0.27030545 0.6697908 0.28130844 0.13969532 0.60648733 -0.5470413 0.20291165 -0.6350704 -0.13455251 0.008967021 -0.45640767 0.09688371 -0.37622783 0.07469777 -0.63666534 0.53752106 -0.084890544 -0.66562283 -0.6998001 -0.5398997 0.7495026 0.3729025 -0.59013 -0.6763767 0.11297604 0.37142143 -0.07792192
10 -0.8809513 -0.21255042 -0.30673325 -0.39876026 -0.08028255 -0.84848994 0.9335122 -0.13322225 0.06131802 -0.329892 -0.2978645 0.44086722 0.041556574 -0.21529388 0.12556234 -0.7140769 0.10376065 -0.3760571 0.36858636 -0.3548619 0.32852578 -0.014329205 0.039596748 1.012973 -0.08243442 -0.09236492 -0.3410753 0.17112686 0.107745364 0.23528376 0.43982068 -0.5889869 0.020674024 -0.4403552 0.21161978 0.6870522 -0.28265923 0.84158516 0.21600662 0.37818232 0.29082066 -0.24582136 0.6199242 -0.4095848 0.43553597 -0.08087466 0.012383456 -1.175274 -0.09096213 0.8016507 -0.24969402 0.1306593 -0.1799619 0.3011561 -0.16155908 0.30040368 -0.23211162 0.34656256 0.1485936 0.5836977 -0.5491212 0.25595927 -0.28266296 0.67739254 -0.630452 0.020055316 0.019580923 0.2336547 -0.71269745 0.4705774 -0.7749045 0.09535685 -0.25007024 0.6536025 0.33073327 0.9552003 -0.47149378 -0.24039978 0.2652026 -0.34398833 -0.18946522 -0.42390707 0.06338605 0.29122 0.11379422 0.07066524 0.1669776 -0.5203201 -0.34412062 0.68612456 0.6088597 0.5406565 -0.6702134 -0.049079172 -0.67083806 -0.010198542 -0.4369634 0.14209783 0.34312978 0.021428635 -0.4140739 -0.58595645 -0.34036463 -0.55334544 -0.5065568 0.8842715 -0.08746799 -0.6480504 -0.7345627 -0.07594421 0.35299286 0.070586085 -0.13714355 -0.19930193 0.59990966 -0.085102476 0.13089891 0.6495901 -0.5226733 -0.34007367 0.48153624 -0.4966313 -0.016632697 -0.09360275 0.6282898 0.8375397 0.16232356 -0.07420304
476 -0.446379 -0.1836757 -0.20207085 -0.28842357 -0.028790144 -0.5951233 0.81852186 -0.071802124 0.12472953 -0.35522962 -0.06526965 0.1592197 -0.08408105 -0.33236212 0.04586389 -0.4987762 -0.037227 -0.23337425 0.24010587 -0.07088906 0.30749902 0.09266251 -0.049800076 0.76189333 -0.3162109 -0.12598321 -0.17673403 -0.0029532793 0.13473171 0.16644008 0.33051673 -0.305201 0.017154856 -0.09292513 0.15635628 0.2785372 -0.12100244 0.5284241 0.22992441 0.17589201 0.1972839 -0.08476437 0.4463398 -0.24738143 0.1577642 0.02032617 0.10425272 -0.8379766 0.08578583 0.59194005 -0.089436 0.19198535 0.0056789545 0.12563957 -0.0705822 0.20386003 -0.2913556 0.1310318 0.1972401 0.45331895 -0.40216133 0.26419953 -0.19178276 0.47060698 -0.19422877 0.020560956 0.00083313626 0.19063415 -0.716621 0.3701353 -0.6807276 0.14246957 -0.17787637 0.51513433 0.15368703 0.44417843 -0.32631096 -0.39727753 0.28141886 -0.25486267 0.08340714 -0.34330228 0.17726213 0.378393 -0.13572265 0.21808586 0.14456487 -0.31562302 -0.40056425 0.538473 0.50064325 0.27492282 -0.4130113 -0.26133165 -0.48270738 0.10932235 -0.10741407 0.17744204 0.33981368 -0.015354368 -0.26213893 -0.30510533 -0.30653802 -0.24765573 -0.28450963 0.53857315 -0.049831994 -0.49773496 -0.6241816 -0.19856565 0.33288318 0.09027361 0.029123511 -0.20596372 0.35413617 0.16457352 0.07185456 0.34836802 -0.23971193 -0.05228988 0.34360853 -0.3369195 0.007492196 -0.07479393 0.3253187 0.48531705 0.22924864 0.0038807818
2545 -0.9790317 -0.23913652 -0.26374713 -0.41876304 -0.033496708 -0.8460009 1.0931565 -0.27245402 0.018400423 -0.32526878 -0.23664437 0.38213545 0.14792061 -0.2584039 0.042106804 -0.86083645 -0.045353647 -0.3313259 0.50045127 -0.3519144 0.39347386 0.050563566 0.110282704 1.0562061 -0.006418847 -0.073686935 -0.32400513 0.1260572 0.07675924 0.3329711 0.5301872 -0.6545299 0.006289549 -0.48818484 0.1727379 0.4999086 -0.29148757 0.8820204 0.22378458 0.45653525 0.32511348 -0.2157884 0.6826775 -0.43921936 0.54249483 -0.0922569 -0.015340065 -1.2472755 -0.11103254 0.92430305 -0.41988507 0.24170485 -0.17680521 0.32289246 -0.26508147 0.36759576 -0.29031608 0.2570291 0.31707838 0.47291923 -0.54218745 0.35279948 -0.3365583 0.6685383 -0.6648351 -0.0043141637 0.08936637 0.2920565 -0.54501384 0.44990703 -0.8177154 0.1603565 -0.27852234 0.68224436 0.28142437 0.88723576 -0.51148295 -0.30697486 0.2303899 -0.3404417 -0.29609525 -0.4821197 0.13248986 0.12955296 0.24536952 0.20799892 0.29703507 -0.6548547 -0.43160132 0.7839733 0.6386841 0.45044482 -0.77549565 0.059642963 -0.6824982 -0.16504663 -0.5926975 0.15515444 0.32908657 0.034075517 -0.5768074 -0.6063127 -0.35043672 -0.6220989 -0.48875958 0.91811335 -0.16867477 -0.7263642 -0.82804644 -0.08687702 0.5091293 0.050498817 -0.16853449 -0.092059225 0.6503504 -0.0741701 0.2672469 0.7087056 -0.661775 -0.387559 0.5824188 -0.51723695 -0.11691525 -0.06638636 0.73733264 1.0718234 0.3194377 -0.16347404
11 0.02607536 -0.24760008 0.42587313 -0.36001432 -0.061170045 -0.1838314 0.10115872 -0.25411436 0.35808447 0.35788238 0.51578176 -0.09528478 0.11814064 -0.12152769 -0.90051454 0.27321866 0.31011602 0.6339528 0.12929946 0.24526818 0.28390172 -0.39255485 -0.3457016 0.42149863 0.6107266 -0.25359645 -0.033306096 0.05020636 0.3939046 -0.06099911 -0.451437 0.02397982 0.099412456 0.3493619 0.09652056 0.39585218 0.0008299184 -0.3221172 -0.09899595 -0.3816257 -0.077931166 0.25299272 0.3613964 -0.4175821 -0.15151449 0.28203434 0.048835166 -0.38645175 -0.37254447 0.11415962 -0.10202733 0.27736965 0.06374116 0.116134405 -0.28947324 0.28378972 -0.10737982 0.2979755 0.5833143 -0.1586081 -0.25785688 0.20363986 -0.39422855 -0.002358071 0.07789007 -0.15244687 -0.3485021 -0.103657715 -0.48790756 -0.41945305 -0.26432604 0.09760537 -0.36766893 0.42418328 0.21823591 -0.37090942 0.06288412 -0.25102186 0.14925955 -0.8494623 -0.19527207 -0.15574168 -0.17798705 -0.2276542 0.38786098 0.1491776 0.69671774 -0.11540034 0.75208926 0.12589228 -0.03378724 -0.12583017 -0.20898885 0.40690845 0.32531428 -0.9584039 0.12814145 -0.17059876 -0.24877498 0.168733 -0.23935683 -0.349683 0.36777532 0.062071536 0.2988618 -0.26962957 0.2711432 -0.3418544 0.06076413 -0.04911968 -0.35026103 -0.07309455 0.9504435 0.25905707 -0.02519993 0.46778008 -0.06060866 -0.47337732 0.5675863 -0.32491955 0.3425262 0.17398869 0.13833083 0.27380472 0.4448863 -0.20037624 0.38537687 -0.24860099
1655 0.014719615 -0.15586422 0.34770072 -0.054377437 -0.022134826 -0.20228928 0.14333849 -0.24763758 0.32108942 0.21196888 0.09296277 -0.17995511 -0.045402974 -0.25106424 -0.6632819 -0.00047501273 0.56799525 0.15034036 0.09900767 0.23344448 0.3130499 -0.25880903 -0.24325652 0.38188693 0.56142604 -0.32418188 -0.06937428 0.019321732 0.1776804 0.06712105 -0.52699095 0.14485554 0.042935375 0.5444134 -0.1396826 0.29759157 0.023630908 -0.2002369 -0.0034533534 -0.31712982 0.19367217 0.32130468 0.22441737 -0.19417787 0.11424956 0.119932905 0.071065836 -0.1458571 -0.28935733 -0.06593778 0.013354377 0.16313048 0.013063155 0.16950476 -0.4036433 0.22584073 -0.22686832 -0.017585827 0.45005757 -0.1643096 -0.24797526 -0.038291473 -0.32187894 0.18386409 0.38356492 0.19400057 -0.48765796 -0.2322783 -0.37178138 -0.493116 -0.07977568 0.30939424 -0.2165518 0.3303508 0.06614834 -0.35372302 0.07302188 -0.23360305 0.11475811 -0.77470744 -0.030563531 -0.16805895 -0.3083325 -0.087638706 0.29012102 0.23834278 0.3390542 0.09062066 0.39395726 0.19323835 -0.006027817 0.010873353 -0.17273724 0.21070474 0.24259403 -0.7644091 0.36786035 0.06388692 -0.17574532 0.30205002 -0.12380617 -0.14016123 0.37016422 0.08139368 0.26677236 -0.28778455 0.2130189 -0.11197883 0.12446153 -0.19095205 -0.31665233 0.04711754 0.5755122 0.35866898 0.03547365 0.114340074 -0.09291757 -0.36725613 0.2730225 -0.2671317 0.2586498 0.11467455 0.21183448 0.11174765 0.36049026 -0.38027796 0.06531989 -0.26430863
1839 -0.14810336 -0.19468196 0.21861331 -0.5122645 0.022543026 -0.048904326 0.19685519 -0.22447442 0.23368353 0.28600436 0.52655107 0.06004108 0.13685599 0.13656786 -0.74146247 0.35288197 0.1518526 0.75964427 0.25737256 0.118924074 0.2928928 -0.3464274 -0.37572905 0.17766629 0.46464586 -0.21627551 0.062131148 0.18399335 0.37328875 -0.1268146 -0.21151185 -0.09036218 0.14350118 0.26551154 0.024606533 0.2591426 0.076607235 -0.4156963 -0.17716469 -0.35487542 -0.04749396 0.036986347 0.46953332 -0.2839935 -0.54870373 0.32748947 0.1558601 -0.4261054 -0.43847683 0.24866019 -0.26514405 0.4323776 0.26277754 0.31623876 -0.06322514 0.2820243 0.0023792721 0.2764803 0.55332583 -0.15697713 0.0072886804 0.39506757 -0.4105 -0.25412813 -0.03845636 -0.34161386 -0.29840264 0.20777412 -0.49076614 -0.37276185 -0.2273042 -0.06785982 -0.716443 0.4662191 0.34357303 -0.30333287 -0.047289614 -0.13235642 0.060734462 -0.88399243 -0.23427235 -0.24888048 -0.117408864 -0.48996603 0.17689486 -0.089548245 0.5018846 -0.13006967 0.84463805 0.053378865 -0.019296939 -0.12482026 -0.07986497 0.11152459 0.19931583 -0.935729 0.041595392 -0.24022098 -0.15569797 0.079095185 -0.4030681 -0.36104167 0.38583347 0.15553224 0.23180752 -0.20402399 0.10701125 -0.41194034 0.022305233 -0.012731602 -0.35313803 -0.09561986 0.87872595 0.29623428 -0.12638171 0.58479613 0.00693718 -0.40950316 0.6117678 -0.41464016 0.4604984 0.16085948 0.15630008 0.27413934 0.21880928 0.121212445 0.49553198 -0.24470262
12 -0.97712827 0.6744126 1.3919578 -1.3309249 1.7724388 -0.011409404 -1.251083 -1.1873106 0.58369064 0.47715637 -0.90284765 -0.11783778 -0.19408983 0.28561428 1.178619 -0.767829 0.18697435 1.0138518 0.55630004 1.2212816 -0.75384796 -0.37298468 0.36760068 0.11459607 -0.15852466 0.8028376 -0.07780883 -0.28207043 0.81188464 -0.42842928 0.23439462 -1.6812202 -0.12003635 -0.48499036 1.3504838 -0.023676608 -0.5381541 -1.1952155 -0.8310217 0.35726064 -0.74930465 0.4873493 1.3063474 -0.42612058 -1.0559393 0.3506023 -0.16587955 -0.005456208 1.3110485 0.7521637 -0.30586618 1.3318871 -0.6643132 0.40285084 -1.0030345 0.25902784 0.8329081 1.3729974 -0.15920529 0.783297 -0.29300854 0.22634146 0.74976355 -0.94705796 -0.5883992 -0.58703995 -0.69890237 -0.36306217 -0.858935 -1.0024484 -0.0545917 0.21326227 0.29341412 0.7645233 0.07621576 -1.3061957 -0.28355393 0.11917388 0.42805907 -0.4757076 1.85936 0.68041474 -0.3206999 -0.38512653 -0.39627016 0.3481532 0.8004108 -0.7534541 1.1883756 -0.64221764 -0.60692334 -0.53481865 0.14150113 1.3221309 -0.43419185 0.013461664 0.45333198 -0.47887158 -0.38197002 0.3788654 0.06665688 -0.0679111 -0.29781246 -0.31611356 -0.088242725 -0.21304278 -0.5963434 -1.315952 -1.474998 -0.58605176 -0.73300827 -0.8160244 -0.14612491 0.22513421 1.1777457 -0.29761913 -0.39220992 -1.7496097 -0.3270505 0.1563527 -0.41194415 -0.1373142 -0.8834996 -0.49971825 0.03529221 0.83638674 0.70062387 0.22351113
2661 -0.9366829 0.7913011 1.3740764 -1.261849 1.8319098 -0.04518895 -1.1877428 -1.2363007 0.58774596 0.47511002 -0.8522802 0.07111477 -0.25446302 0.21693482 1.1404761 -0.6798128 0.2057762 1.049168 0.588975 1.3159944 -0.7906547 -0.3443859 0.371853 0.25615218 -0.15115237 0.7531829 -0.07418535 -0.3599541 0.9246592 -0.5030401 0.24785355 -1.6064692 -0.17945892 -0.48365462 1.4618505 -0.19844879 -0.6351508 -1.1485258 -0.7679561 0.2993634 -0.655646 0.6425273 1.3354243 -0.38600743 -1.0991368 0.36647683 -0.12541422 0.111585766 1.263017 0.6519799 -0.17380327 1.3736882 -0.64181715 0.40700042 -1.0122079 0.30436474 0.7875486 1.420039 -0.101456076 0.74181014 -0.3227461 0.20705283 0.74436635 -0.94189674 -0.4934914 -0.7029442 -0.6226484 -0.37954372 -0.9339186 -1.0638937 -0.012085277 0.27452037 0.30124792 0.7779841 0.10157099 -1.36818 -0.20343393 0.09461159 0.38571334 -0.48002207 1.77699 0.62484264 -0.44845173 -0.49306226 -0.40839267 0.33550662 0.705035 -0.7708244 1.1861355 -0.5345696 -0.5812588 -0.46155122 0.11709604 1.2588146 -0.49390528 -0.039682534 0.44560423 -0.38481522 -0.40452287 0.3442388 0.111023605 0.10784718 -0.31737837 -0.3707408 -0.14518566 -0.19698745 -0.61076367 -1.2895887 -1.4096752 -0.5104848 -0.72690016 -0.69911814 -0.20016202 0.23505141 1.2164745 -0.2773306 -0.38261473 -1.6260638 -0.32679826 0.16329975 -0.41125834 -0.114221685 -0.9848292 -0.462094 -0.07096133 0.8301303 0.72917795 0.24027975
1001 -0.96270984 0.65823954 1.2943745 -1.3604251 1.7412988 0.0101537425 -1.3137625 -1.1922565 0.4944477 0.58281416 -0.6720431 -0.086541414 -0.21075368 0.25871164 1.1801592 -0.6642577 0.3758792 0.92434543 0.49861085 1.2571678 -0.8173299 -0.35227007 0.31666008 0.248399 -0.22303 0.76363504 -0.083135806 -0.36912504 0.8308313 -0.4383282 0.112440646 -1.6725273 -0.18987295 -0.402064 1.4360826 -0.1884757 -0.5546774 -1.1328518 -0.8243437 0.3680429 -0.58311355 0.42206773 1.3781478 -0.3449294 -1.1861725 0.35716256 -0.17422742 0.06121223 1.284455 0.7591761 -0.26294705 1.4138805 -0.59835595 0.4229723 -0.9909865 0.11086288 0.79347557 1.3709233 -0.091762416 0.8384449 -0.27832663 0.17380011 0.7109184 -0.97549593 -0.49857843 -0.6591082 -0.66008264 -0.320009 -0.9126543 -0.96619344 0.050654735 0.18105865 0.31864744 0.77791667 0.21975684 -1.2645313 -0.3418074 -0.091149285 0.38970745 -0.46449324 1.8728117 0.57232666 -0.4127745 -0.38700655 -0.4370601 0.34936315 0.64219046 -0.7479241 1.2363204 -0.5204501 -0.541103 -0.4640534 0.18593839 1.2893777 -0.39278233 -0.027605057 0.4983066 -0.26876625 -0.46459863 0.40888563 0.091484234 0.049427945 -0.29429805 -0.29340154 -0.22752558 -0.1474564 -0.687266 -1.4259133 -1.3828095 -0.56342155 -0.71567625 -0.7537 -0.20596682 0.24175847 1.2344341 -0.33334997 -0.42939645 -1.7244056 -0.26527965 0.28615814 -0.3921439 -0.08345842 -0.88030475 -0.5177524 0.020040419 0.79415077 0.7671842 0.27048904
1318 -0.86464596 0.76936376 1.3629298 -1.2613732 1.822663 -0.0016400847 -1.2740517 -1.2216203 0.6350395 0.51018584 -0.88334775 -0.03686792 -0.23898363 0.26818335 1.142863 -0.6594608 0.23236358 0.96584046 0.5012285 1.3493258 -0.8167803 -0.44692338 0.3151534 0.15299577 -0.2015556 0.8350396 -0.08832251 -0.38916504 0.87534034 -0.45676795 0.23829782 -1.6858872 -0.104077116 -0.5541665 1.4619788 -0.057597235 -0.6018881 -1.1467347 -0.88048637 0.37451443 -0.68481237 0.62558824 1.3032817 -0.52972627 -1.0915413 0.3211639 -0.1814229 0.19710882 1.2601604 0.7637509 -0.22235475 1.2851399 -0.62170184 0.33779147 -1.0388501 0.28871682 0.80936664 1.3744314 -0.15285784 0.7524272 -0.29914743 0.26189005 0.73747665 -0.93880737 -0.53463304 -0.6578326 -0.6324021 -0.39302906 -0.97181374 -0.9482835 -0.02487957 0.32815948 0.26426327 0.7175169 0.12264459 -1.3458214 -0.2125704 0.09589336 0.48775437 -0.53306365 1.8444023 0.6237902 -0.41406333 -0.44449195 -0.36434212 0.3698877 0.6973629 -0.6959815 1.1425959 -0.4823316 -0.57321024 -0.5315344 0.07333118 1.2821842 -0.42429715 -0.012509837 0.49492732 -0.4510864 -0.36731508 0.43054706 0.15436018 -0.0049427617 -0.28060114 -0.34015346 -0.14591 -0.19231819 -0.57375443 -1.3624156 -1.4151627 -0.51210713 -0.7045665 -0.78029126 -0.14215048 0.16945322 1.1515275 -0.25195083 -0.37396348 -1.6931683 -0.34141415 0.17233072 -0.42071554 -0.09334283 -0.8714583 -0.44079545 -0.04698493 0.7790242 0.72349787 0.31980413
2662 -0.9232407 0.6904363 1.3832952 -1.2129862 1.8218172 -0.00015283872 -1.2648153 -1.2159523 0.5487113 0.4551452 -0.82716715 -0.1112337 -0.2664255 0.21220633 1.2489986 -0.70193446 0.22399066 0.9338769 0.55241585 1.157 -0.7261593 -0.38024372 0.32153898 0.1920393 -0.13565172 0.84023887 -0.07639044 -0.30394423 0.8047994 -0.46221536 0.27761996 -1.6965687 -0.15456748 -0.5335354 1.4105247 -0.008753697 -0.5604684 -1.1016294 -0.78492653 0.3327091 -0.6466385 0.5705975 1.3457817 -0.3948685 -1.0780947 0.36938235 -0.23853306 0.0565786 1.2288482 0.74987644 -0.28750068 1.389929 -0.6131671 0.4405741 -1.0247406 0.22976962 0.839457 1.4690784 -0.10325208 0.7935055 -0.32313967 0.20381548 0.66862285 -0.92969483 -0.5892694 -0.65873504 -0.6555845 -0.39628878 -0.89669746 -0.91685236 -0.06498037 0.22089931 0.28601322 0.7893889 0.13593113 -1.2363094 -0.31152382 0.05967061 0.47587016 -0.4967996 1.9019834 0.6215017 -0.41977015 -0.42804495 -0.50230503 0.35710296 0.69880205 -0.7160764 1.1824188 -0.569359 -0.6048474 -0.48787805 0.1527814 1.2602483 -0.4219995 -0.026257107 0.47934598 -0.38486478 -0.37767535 0.377521 -0.011977953 -0.022611136 -0.29995027 -0.24733432 -0.15511875 -0.22808094 -0.6655095 -1.3516765 -1.4069963 -0.5549281 -0.7490106 -0.77827823 -0.14140442 0.22809389 1.1989727 -0.3308827 -0.45201498 -1.7817696 -0.26902062 0.20241816 -0.4143881 -0.13735926 -0.92128545 -0.48879442 0.05494429 0.745885 0.6935352 0.22563024
13 -0.31467852 -0.036057536 -0.18094623 0.16337624 -0.11581623 -0.099533364 0.20186333 0.07135659 0.36425126 -0.5573683 -0.22176985 0.14076987 0.09572762 -0.39916986 0.21598251 -0.05555273 -0.24074073 0.3710668 -0.26268175 0.013263615 -0.13279499 -0.54379416 -0.18705744 0.38849688 0.18921618 -0.10914702 0.21065274 -0.0065125916 0.06299833 0.058166254 -0.04932091 0.07989995 -0.050786927 0.40929756 0.00072839565 0.3392678 -0.061024044 0.1352382 0.12568599 -0.4653972 0.16358723 -0.3564535 0.03950355 -0.040699292 -0.14836311 -0.1160907 -0.30989173 -0.11111207 0.11957562 0.09976256 0.24335368 0.4660881 0.1299039 -0.17916949 -0.09637879 0.40530682 0.18686792 0.18834886 -0.22864142 0.06703507 -0.4592699 0.17018455 0.15516448 0.04355519 0.27776012 -0.012212886 -0.08758805 -0.16179718 -0.050898265 -0.35371614 -0.04032288 -0.36112303 -0.2433201 -0.2704244 -0.018886117 0.15865092 -0.1390237 0.30075294 -0.023070294 -0.035306025 0.1328826 -0.25916204 0.46614513 0.21363176 0.011012908 0.35209507 0.18334277 -0.47722232 0.15906732 -0.07227791 0.058758594 -0.24940951 -0.43740168 0.27900267 -0.21558447 -0.270151 0.12215909 -0.07731496 -0.18668999 0.10249347 0.25367716 0.20253338 0.1374078 -0.11811052 -0.04343312 -0.14124236 -0.2077193 -0.23063637 -0.104919314 0.007937437 -0.018553458 0.120563716 0.18008596 0.41531044 0.009288959 0.16932416 0.17682202 -0.33561927 0.07566406 -0.2553555 0.25461578 -0.28108186 0.14751694 -0.12144246 0.069335915 0.017342186 -0.30187973 -0.09006928
1810 -0.17165084 -0.13760903 -0.028038856 0.21093617 0.0778824 0.09353388 0.34501892 0.20628816 0.44058222 -0.63306046 -0.35254905 -0.028551541 -0.17810738 -0.11145602 0.13365567 -0.24651833 -0.06870087 0.24471599 0.21409675 0.21469505 -0.022065572 -0.68591475 -0.008632822 0.64722353 -0.019858455 0.025770888 0.28874734 -0.37919658 -0.12058771 0.023088364 0.015989017 -0.06355929 -0.06544683 0.18281767 -0.10767238 0.20454207 -0.08129152 0.3826878 0.08751047 -0.19709723 0.5350882 -0.3920432 -0.046639267 -0.015044957 -0.18442881 -0.16648613 -0.04290413 -0.3201311 -0.12477542 0.028998729 0.014110648 0.40351975 0.114182405 -0.16767031 0.08044696 0.34065753 0.095054574 0.24204807 -0.030378774 -0.20776953 -0.2937385 0.17520241 0.07157042 -0.035961986 0.004990186 -0.008587546 0.19289231 -0.23260918 0.12328245 -0.120647594 -0.10499359 -0.40205964 -0.014437723 -0.01973415 -0.24990581 0.029582882 0.045456663 0.12477907 -0.10235252 -0.20058317 0.28644466 -0.192644 0.30913508 0.29959798 -0.0862909 0.33307195 0.25791517 -0.27735513 0.13875839 -0.112139374 0.2735273 -0.30521816 -0.3224767 0.28306842 0.01934627 -0.33295214 0.2137202 -0.142859 -0.34163374 0.039000634 0.326901 0.17628026 0.35450843 -0.18880452 0.24706446 -0.040154196 -0.14906986 -0.24795793 -0.06859737 -0.0013375083 -0.082191415 0.1917201 0.10448053 0.35748255 -0.10773466 -0.22060391 0.030773155 -0.54763323 -0.11222988 -0.24270438 0.29681495 -0.31030762 0.28819954 -0.128104 0.26803723 -0.20044668 -0.19882789 0.034100927
1701 -0.19712612 -0.110828534 -0.4104217 0.17910513 -0.23971733 -0.13373569 0.16688699 -0.21941726 0.42131326 -0.28758612 -0.007187044 0.35895124 0.23090144 -0.13737331 0.14345793 -0.06518805 -0.15782125 0.15993726 -0.3517123 -0.16867061 -0.11913563 -0.19805835 -0.006958097 0.24131975 0.13121112 -0.05864737 -0.12613033 0.065963194 0.1687514 0.09525625 -0.2106243 0.23570305 0.12274483 0.3780671 -0.23061427 0.24219747 0.12135118 0.17080516 0.09917458 -0.3880302 -0.21812028 -0.17301919 0.18064715 0.12993555 -0.04702748 -0.09594421 -0.17355888 -0.047185823 0.10236226 0.22720331 0.19616507 0.49961516 0.06612273 -0.036436234 -0.24505664 0.42572078 0.17858265 0.1073098 -0.019651655 0.25955385 -0.41946894 0.11411661 0.2271771 -0.0637054 0.43022513 -0.17660587 -0.13039888 -0.0095901955 -0.16583417 -0.51377 0.08573944 -0.26447845 -0.23257624 -0.33532616 0.12501964 -0.054940425 -0.33840698 0.10396663 -0.11777282 -0.06507679 0.02906443 -0.41759554 0.27499563 0.2861538 0.052459788 -0.09990826 0.013505808 -0.34246007 -0.0787954 0.010136183 0.0103396615 0.03558715 -0.15980242 0.006143463 -0.30281708 0.030496871 -0.061481662 0.06936513 -0.039466247 0.36909372 0.23601472 0.02569426 0.04130802 0.051693395 -0.19744323 -0.14882454 -0.31317884 -0.014392543 -0.008273124 -0.2991806 0.002129771 -0.16833797 0.059897363 0.2102281 -0.04272768 0.11569463 0.2038197 -0.057163257 0.26247233 -0.2662062 0.24876457 0.025326116 -0.11814102 -0.19345759 0.07695973 0.20122072 -0.2073563 0.0055327094
14 0.16784745 -0.079286836 0.022951918 0.45225802 -0.17632736 0.24984229 0.3507634 -0.3111422 -0.2295309 -0.117552154 -0.41208833 0.47070366 -0.30046427 0.45285973 -0.1734943 -0.16709925 0.2756623 -0.2381248 -0.116637155 -0.12328319 -0.058020707 0.16738293 0.5333198 0.19583446 -0.018865423 -0.49182692 -0.11611606 0.0046414817 0.24930565 0.8318977 -0.30550858 0.41501328 0.3025567 0.16472718 -0.082581975 -0.2387765 -0.21559261 0.55680627 0.3061106 -0.45620254 0.39801204 0.52480525 0.15132186 -0.24151178 -0.48433876 -0.2092843 -0.2469457 -0.19695641 -0.19691785 0.26563796 -0.20225689 0.2171456 0.41167516 -0.3748464 0.66161484 0.1952432 0.12172272 0.8016148 0.2691623 0.22305964 -0.0675565 0.20749354 -0.05261526 -0.28106615 -0.69288146 0.5126615 -0.3652119 -0.46632734 -0.5623091 -0.23068936 0.18889429 -0.16114263 0.12440248 -0.1972496 -0.109279856 -0.0632813 -0.09647727 -0.09819571 -0.32454658 -0.5182363 0.06586864 -0.29397038 0.042880487 0.124413915 0.6920909 0.055267498 -0.30928123 -0.4577137 0.005445686 -0.020315751 0.19208016 -0.034589857 -0.059913922 0.2578604 -0.39357093 -0.26687574 0.035105146 0.33666906 -0.3701222 0.45878407 0.3396912 0.09770155 0.31578574 -0.23863862 -0.13246931 -0.06392168 -0.1477213 -0.19960701 -0.31237894 0.016720474 -0.40634963 -0.1341457 -0.32913974 0.34111723 -0.09869584 -0.205124 -0.14942074 0.25973183 0.10160942 -0.25744137 0.011090367 -0.30077046 0.2223627 -0.063373476 0.10719275 -0.06902495 -0.4268368 0.15792376
2034 -0.22586173 -0.045381475 -0.25376847 0.29604286 0.06747056 0.2888471 0.15567386 -0.15610392 0.08589789 -0.24633923 -0.24312903 0.3150776 -0.33550876 -0.00048388453 -0.17944658 -0.09548951 0.30405098 0.11899617 -0.12333685 0.33945298 0.15056804 -0.011905041 0.3109412 0.09474585 0.3084593 -0.44534102 -0.1489355 -0.19171911 0.37474316 0.2761886 -0.3168765 -0.2057897 0.52981776 0.28175834 0.47515172 0.026711596 -0.22748138 0.604222 0.3814057 -0.2927665 0.50682545 0.28662035 0.22418772 0.05624227 -0.14414753 -0.37846714 -0.07613299 -0.20873395 -0.13062443 -0.16581964 -0.34934267 0.30616045 0.1515157 -0.24549106 0.14916475 0.33997333 0.21167752 0.27024725 0.02663364 0.21770366 -0.104474366 0.07697228 -0.07849963 -0.0939272 -0.21136215 0.19164722 -0.13292912 0.017802183 -0.19582 0.17913541 0.089441806 -0.25155708 0.16806142 -0.12639916 -0.09762562 -0.039188296 0.30188558 0.17223468 -0.14883605 -0.3892591 0.16550869 0.08776312 -0.4266177 0.050030727 0.4176081 0.09303095 -0.08669118 0.04036162 0.14532173 0.061265927 -0.047312107 -0.12035262 0.10057596 0.13272846 -0.21521658 0.041687198 0.053162742 -0.043607846 -0.30305883 0.24387455 0.078169286 0.056928985 0.26587576 -0.14226413 0.20529094 -0.006865923 0.023372384 -0.12083657 -0.3713394 0.20137626 -0.22195885 -0.12712611 0.027060866 0.25461185 -0.13988023 -0.047157954 0.20704952 -0.14470144 -0.02673566 0.04766606 0.057614073 0.044353805 -0.08627241 -0.03973838 0.097147904 0.021893695 -0.3030918 -0.041044127
2075 0.2897088 -0.4027594 -0.040858097 0.27836743 -0.090471715 0.16744632 0.32492295 -0.22340612 -0.20721546 -0.20882533 -0.5475032 0.19931887 -0.30662605 0.42083848 0.06195381 -0.2390582 0.028898465 -0.114209056 0.061185807 -0.38437766 -0.06944175 0.11086508 0.63548774 0.2412665 -0.32700133 -0.3986852 0.008600429 -0.048815772 0.023568952 0.84390426 -0.12526195 0.40213048 0.1002583 -0.10091915 -0.36966327 -0.4825639 -0.25121307 0.4072532 0.3217308 -0.251093 0.48199433 0.30211037 0.036372293 -0.38316736 -0.49114814 -0.15511838 -0.19458808 -0.3745732 -0.069414504 0.42894247 -0.21931951 0.19870655 0.38174775 -0.38769785 0.7006448 0.19880323 0.108269796 1.0104259 0.252797 0.29469594 0.24341826 0.24849199 -0.14789517 -0.2665661 -0.7622353 0.47922128 -0.33038956 -0.63936603 -0.60577863 -0.40033612 -0.15685822 -0.11001446 0.1998088 0.11445687 -0.14799333 -0.30331066 -0.23456194 -0.17355049 -0.308136 -0.5256241 -0.01561703 -0.4719396 0.53293294 0.13842328 0.6483257 0.16624127 -0.09278047 -0.60092616 -0.085027166 -0.11293159 0.13299902 0.10024939 -0.02787363 0.4664133 -0.5461473 -0.47169223 0.17455804 0.55654 -0.5448612 0.32742193 0.5351652 0.0935287 0.08500146 -0.43423307 -0.1719736 -0.051287524 -0.05093069 -0.31471097 -0.44119263 -0.20171855 -0.06727086 0.016683647 -0.32339314 0.22743203 0.08724489 -0.28217414 -0.47336683 0.39922544 0.21620665 -0.30626458 -0.061048683 -0.4015226 0.27014843 -0.179401 0.20651266 -0.13206507 -0.48481575 0.30168274
158 0.018598907 0.0021104447 -0.18334411 0.31307983 -0.13565314 0.087558255 0.28693205 -0.29809928 -0.015657084 -0.21717975 -0.21332985 0.31631717 -0.021486145 0.1969557 -0.2599374 -0.1427354 0.05601163 0.020082818 -0.32400563 -0.044188254 -0.088584445 0.0016507196 0.43879482 0.17766215 0.12826219 -0.39401388 0.043250505 0.18596822 0.24684188 0.48266897 -0.48194686 0.3374034 0.37002006 0.18472292 0.04068677 -0.083590865 -0.07425292 0.38988066 0.4709248 -0.60053736 0.28624582 0.3950389 0.061037265 -0.04266853 -0.34258562 -0.19660574 -0.27486092 -0.10771229 -0.19606851 0.27651185 -0.0390665 0.53324974 0.30620852 -0.31341532 0.30326533 0.26851216 0.21454154 0.55155504 -0.0034014266 0.31000033 -0.14572017 0.062188342 0.012430616 -0.2603805 -0.36902934 0.503759 -0.24305916 -0.38744128 -0.17198001 -0.25125292 0.061346877 -0.34501144 0.05273507 -0.235954 -0.15349804 0.05781164 -0.14310053 0.021322407 -0.17877614 -0.336496 -0.13136242 -0.30978486 0.09683453 0.30216086 0.43278068 -0.19706298 -0.03933924 -0.5139281 -0.033373326 0.07409162 0.11901645 0.019372927 -0.04268335 0.26029602 -0.24932203 -0.08526443 0.10228694 0.2780256 -0.34959534 0.38734615 0.209633 0.087716706 0.34030402 -0.3253453 0.10959916 -0.16932529 -0.098400734 -0.014999991 -0.32093775 -0.25394496 -0.42448393 -0.2113674 -0.18639809 0.37752652 -0.18863688 -0.05374808 0.15948653 -0.046256162 0.0746955 -0.23686862 0.054709498 -0.18999991 0.05939744 -0.17579539 -0.039447498 -0.17466533 -0.5273137 0.119571574
2077 0.2514057 -0.30416727 -0.016152104 0.22302252 -0.032185208 0.15775457 0.3479757 -0.34280375 -0.36105588 -0.3142762 -0.35327196 0.37085822 -0.29074976 0.592075 0.008518042 -0.08911972 0.14972657 -0.23131569 -0.03133579 -0.039600015 0.0029491694 0.3462059 0.4017451 0.40862113 -0.28256497 -0.44107714 0.07478882 0.1079541 0.067844175 0.82080925 -0.13504 0.5033196 0.031337693 -0.031710465 -0.34576732 -0.36853364 -0.16500904 0.35535198 0.2265471 -0.19439079 0.20818834 0.48277664 -0.13868353 -0.3397832 -0.5193941 -0.27002168 -0.2699898 -0.24292147 -0.060245264 0.4026362 -0.17370783 0.11266072 0.4818206 -0.33017394 0.566109 0.12580347 0.11443178 0.89997333 0.27639058 0.072447166 0.0966141 0.4701424 -0.08579307 -0.35153168 -0.72847295 0.49328536 -0.3264493 -0.42112988 -0.49413636 -0.27139682 -0.0049925023 -0.080430724 0.07774966 0.0016488051 -0.18527806 -0.22676814 -0.17883763 -0.3173362 -0.21589369 -0.43135846 0.1924377 -0.60758847 0.35575157 0.4142269 0.6874645 0.1833579 -0.2493045 -0.6029095 0.07658704 -0.03246165 0.2319948 -0.058874853 -0.037662927 0.4138435 -0.461073 -0.58668905 0.16317506 0.48442596 -0.40745625 0.28805193 0.6381656 -0.008890981 0.29626408 -0.1763489 -0.35805032 -0.12140595 -0.1470325 -0.28688464 -0.37757334 -0.01993342 -0.17825888 -0.11666655 -0.34980842 0.26149985 -0.14916766 -0.4487912 -0.40433842 0.4784154 0.19629246 -0.026767975 0.07293076 -0.4548845 0.09309509 0.31446624 0.39155757 -0.14235575 -0.414426 0.31880102
2668 0.18385226 -0.23672806 0.040076252 0.39505008 0.25010228 0.062677704 0.4284477 -0.07432966 -0.29007116 -0.1004477 -0.40635738 0.20331174 -0.5047841 0.61518997 0.017876308 -0.10946333 0.1783197 -0.4845628 -0.22384866 -0.21826349 -0.1199549 0.29910824 0.6749984 0.24706526 -0.2154754 -0.3211294 -0.04214635 0.0009839725 0.10133224 1.0096765 -0.02970296 0.2998896 0.009715625 0.03865929 -0.3264699 -0.465847 -0.29706538 0.35074973 0.2111479 -0.37049228 0.39220932 0.40083858 0.16198936 -0.2290274 -0.64419615 -0.5117739 -0.17106116 -0.22537385 -0.092816025 0.624416 -0.02732817 0.27413037 0.5008879 -0.2851878 0.68929976 0.23790658 0.02978203 1.0711235 0.3803251 0.027430123 0.093932666 0.17973796 -0.045238335 -0.46791974 -0.6065618 0.38740775 -0.35358098 -0.49194622 -0.6773999 -0.3408932 0.17603882 -0.23082614 0.1920157 0.010216019 -0.2841649 -0.4206096 -0.17917292 -0.15120542 -0.21474095 -0.5100411 0.25413796 -0.40451148 0.24734928 0.16944358 0.61007816 0.4172435 -0.1447714 -0.61832666 -0.009144347 -0.1671776 0.48268855 -0.07994227 -0.110650115 0.2762267 -0.4352182 -0.48588818 0.07720052 0.65324366 -0.4315276 0.37807462 0.67668635 0.0065462803 0.16310327 -0.31582436 -0.18042432 -0.13185968 -0.18763861 -0.42458668 -0.17120843 -0.15388945 -0.032375194 -0.3222162 -0.50848866 0.22211346 0.057594396 -0.37318698 -0.57036513 0.30673283 0.15174253 -0.063403554 0.039386604 -0.3411306 0.4135497 0.120694764 0.3266237 -0.11059198 -0.6280003 0.23995273
15 -0.2748179 -0.5835876 0.22094081 0.47955328 -0.09221763 0.4476138 0.41742077 -0.79786986 0.30586866 -0.22442795 -0.80756915 -0.6272353 0.45401323 -0.8264333 -0.049521953 -0.042996876 0.12151797 -0.20833515 -0.68225694 1.0931879 0.36230755 0.12386375 0.38145155 0.78824764 -0.4286897 -0.5259906 0.019294506 0.49677193 0.8198891 0.013598454 0.3167222 0.8083542 0.6769654 -0.36015078 0.6033426 0.4634488 -0.08395505 0.55263376 -0.5566222 0.14098202 -0.21098523 -0.50372237 0.9009833 -0.473568 -0.66770923 0.26675314 -1.4092921 -1.0861188 0.235189 -0.0053429184 0.061160717 0.47399473 -0.90055174 -0.4064334 -0.27848512 -0.034240622 0.945897 -0.0918496 0.335193 -0.44857052 0.10394654 -0.5224664 0.74229264 -0.6226483 -0.7888506 -0.3723912 -0.4422857 0.18829322 -1.235293 -1.0424078 -0.08190381 0.041064374 -0.5187 -1.0062386 0.7192096 -0.7445763 -0.5582831 0.042647168 -0.44987842 -0.10874609 -0.5381204 0.96844923 0.6385062 0.30957812 -0.30736744 -0.68291867 -0.82782423 0.6944585 -0.25816485 0.04466986 -0.30885202 0.81525093 1.5413411 -0.8354082 -0.59238434 -0.20607169 0.1744322 -0.03699703 -0.15108971 0.6081286 0.17736483 -0.48271698 0.41206935 -0.44646308 -0.37413874 0.048896965 -0.44402286 0.12219768 0.21894395 -0.4698643 0.19724156 0.008987098 -0.6796741 0.76790553 0.6646892 -0.34883898 0.15060122 -0.32767585 -0.34911776 -0.12780198 0.18076362 0.17253272 0.24443798 0.30123723 0.34347728 -0.6380937 -0.17460814 -0.23505302
2367 -0.29451263 -0.6126376 -0.09327407 0.33394954 -0.20199572 0.5139298 0.4181071 -0.74284 0.21117644 -0.33112833 -0.6588698 -0.6194723 0.25746575 -0.522868 -0.07215843 -0.17847724 0.06902274 -0.24179862 -0.58675563 0.990413 0.4907247 0.052078165 0.01689438 0.75549614 -0.5137042 -0.5076799 0.013635914 0.39645746 0.99105763 -0.08235685 0.12951045 0.69844455 0.5919389 -0.29639506 0.54586124 0.5015024 -0.21561348 0.49779075 -0.43158382 0.19935697 -0.1378256 -0.45167577 0.75361973 -0.5176952 -0.34604096 0.12869562 -1.4266819 -0.9518257 0.06671767 -0.031088933 -0.12438062 0.34159684 -0.68734026 -0.34736872 -0.3936074 0.086268604 0.6657312 -0.12645765 0.22131579 -0.46374974 -0.10541625 -0.33867258 0.73180264 -0.61621225 -0.45213473 -0.33983028 -0.54537535 0.15292215 -1.0615783 -1.0162724 -0.009462809 0.08337261 -0.6566438 -0.7291776 0.5658197 -0.5682152 -0.6788139 0.060860477 -0.13798058 0.010420374 -0.43806806 0.71365225 0.54809815 0.28614867 -0.37353262 -0.66433537 -0.80666363 0.48898205 -0.22865511 0.17613968 -0.11472514 0.82359713 1.2519715 -0.8722909 -0.43994212 -0.12886173 0.2529703 -0.14195399 0.04697338 0.6112866 0.07262311 -0.45354626 0.4730464 -0.3692147 -0.20106828 0.015413072 -0.3101402 0.22811732 0.2843055 -0.47070593 0.12419487 -0.015670845 -0.43752015 0.7112902 0.4849627 -0.23610008 0.1998952 -0.1482426 -0.31965092 -0.13713618 0.0969485 -0.02319087 0.16244514 0.5396031 0.0602046 -0.8015781 -0.17524204 -0.36072356
1093 -0.45811614 -0.72167504 0.28739724 0.44637263 -0.10817342 0.481027 0.42327726 -0.88063484 0.2594118 -0.40124762 -0.9492372 -0.58554226 0.30995107 -0.7484571 -0.03967843 -0.040591393 0.10542981 -0.17303282 -0.6476883 1.0512338 0.41498953 0.22321244 0.3139509 0.81973547 -0.3190196 -0.59808505 0.07198111 0.53645676 0.692941 -0.015278817 0.3747484 0.777748 0.78324324 -0.29437822 0.583197 0.45003328 -0.11009395 0.43013343 -0.50906146 0.09133381 -0.2745743 -0.34848487 0.93743795 -0.43236527 -0.61276907 0.25828022 -1.3038341 -1.2568063 0.29478988 -0.0056688865 0.08053718 0.451541 -0.92538196 -0.384599 -0.24964245 0.04126641 0.9128646 -0.11867035 0.22452575 -0.3962831 0.06557298 -0.57208836 0.9174496 -0.6595374 -0.6653556 -0.43506944 -0.4931465 0.2796328 -1.0886557 -1.0293709 -0.16375774 -0.06863996 -0.58600587 -0.8778462 0.64043754 -0.74307185 -0.46601945 0.05859741 -0.3960402 -0.21386735 -0.6091692 0.97463053 0.5889901 0.23740447 -0.37698135 -0.6957092 -0.8047231 0.70166105 -0.25519195 -0.053633094 -0.19640811 0.7749485 1.3688598 -0.8470402 -0.51200557 -0.17611462 0.080292284 -0.048573665 -0.18504386 0.5787432 0.18277341 -0.31145993 0.4191443 -0.42034304 -0.46715808 0.041286208 -0.40887266 0.21010199 0.14466566 -0.40437952 0.23090583 0.0991375 -0.68489814 0.7884939 0.6681344 -0.3066078 0.23314415 -0.38971555 -0.30283377 -0.05989461 0.2055978 0.20609178 0.16741568 0.34611195 0.3825696 -0.5737667 -0.116531394 -0.17479444
1090 -0.4380845 -0.72589284 0.09629812 0.32170865 -0.21195452 0.5021864 0.44972712 -0.77555215 0.31381866 -0.40101615 -0.7754675 -0.5547264 0.33133256 -0.82964534 -0.06441107 -0.059388693 0.076409414 -0.26709995 -0.66973287 1.1059002 0.18584812 0.023723584 0.1722047 0.7231385 -0.49898526 -0.5378524 0.0614992 0.5085834 0.87328285 0.15148091 0.23296665 0.69093883 0.65865564 -0.41203937 0.49368092 0.4727435 -0.09896817 0.48058784 -0.5113105 0.13756357 -0.30495185 -0.43653524 0.8170386 -0.48947883 -0.64968 0.240607 -1.3161461 -1.1367316 0.1953209 -0.0681953 0.13336748 0.41785845 -0.8941705 -0.40790856 -0.3364713 0.1931523 0.8879009 -0.20279853 0.2665427 -0.49322996 0.06821487 -0.6141975 0.76974285 -0.55074763 -0.58898914 -0.37056354 -0.44722888 0.23446919 -1.2095367 -1.0593575 -0.124525756 -0.02165248 -0.6127617 -0.910744 0.453712 -0.65967625 -0.66040987 -0.00018874524 -0.34538078 -0.105956726 -0.51943386 0.832404 0.72823197 0.31519803 -0.3649587 -0.76889837 -0.8174618 0.6296114 -0.23916629 -0.14894883 -0.13315971 0.80639845 1.1798743 -0.86453915 -0.31250116 -0.14708124 0.16406013 0.05527875 -0.10860509 0.50675446 0.268153 -0.49260935 0.3809554 -0.43773922 -0.3825719 -0.049327336 -0.3279347 0.05885819 0.12043602 -0.46921542 0.12298775 0.04345952 -0.65295625 0.79628205 0.6053614 -0.2359252 0.27687845 -0.27950472 -0.29824695 -0.13086832 0.25385845 0.007577621 0.1889706 0.39644635 0.24311388 -0.6635507 -0.054441422 -0.30913532
1271 -0.43282342 -0.7169371 0.19857118 0.47192994 -0.08664821 0.39577445 0.45311886 -0.88639385 0.37045327 -0.3012569 -0.91433495 -0.6592505 0.31573942 -0.71967244 -0.10487414 -0.09049708 0.118500166 -0.13222411 -0.60819757 1.0433481 0.25860113 0.171317 0.45730558 0.7974449 -0.43267047 -0.5472354 0.114829764 0.5574398 0.7756164 -0.032927983 0.36131477 0.8308044 0.7689374 -0.32999045 0.6261069 0.4097446 -0.08796256 0.42672852 -0.6315973 0.111035325 -0.10221039 -0.43908626 0.88413376 -0.44975427 -0.69540614 0.2877994 -1.3045292 -1.2121258 0.2577044 0.0762844 0.16535386 0.46333033 -0.9770451 -0.44049788 -0.27751696 -0.012038817 0.85807294 -0.1473058 0.2870102 -0.41252857 0.123845495 -0.6090802 0.8344065 -0.84337145 -0.7570543 -0.36600214 -0.5796267 0.1905165 -1.325656 -1.04382 -0.12823287 -0.01581116 -0.51332915 -0.96326023 0.5973815 -0.751203 -0.4691504 0.09947771 -0.37736753 -0.17651598 -0.5983333 0.95814306 0.52899796 0.17325959 -0.4566504 -0.70000374 -0.8271451 0.6884918 -0.26983267 -0.0015962382 -0.2883907 0.7483025 1.4428837 -0.8359132 -0.49632376 -0.18481478 0.1834457 0.038670782 -0.20290385 0.57588 0.23045103 -0.42508078 0.3682429 -0.41319743 -0.32775813 0.05672453 -0.482089 0.31441063 0.15950008 -0.3694394 0.25625846 0.049689136 -0.7534113 0.8521978 0.74864423 -0.41899377 0.2231437 -0.28106225 -0.2653844 -0.04000164 0.22742061 0.16913831 0.18762377 0.24357668 0.4390305 -0.60396725 -0.07206719 -0.25956628
16 0.34348732 0.11321796 0.28437892 0.117321335 0.33735636 0.0048061167 -0.13011882 0.052031882 -0.12637065 -0.09074267 0.35617664 -0.083747484 0.15317227 -0.32517886 0.45896748 -0.83226204 0.7876365 0.14456266 0.532629 0.6240448 -0.39920536 0.045826912 0.2882182 0.59121543 -0.29899648 -0.059951216 -0.70527124 -0.4334843 -0.4222525 0.017294742 -0.42485765 -0.06576 -0.063948095 -0.20955022 0.26307356 0.38044202 0.36160198 -0.45418146 -1.0152307 0.27561972 0.042701274 -0.29589757 -0.24101678 -0.3428134 0.397772 0.041435055 -0.0540126 -0.20770554 0.013060681 0.20458776 0.36715403 0.33896574 0.23696624 0.099897556 0.46288106 0.7647933 0.35158843 0.2944477 -0.5665023 -0.55346406 0.07858189 0.62317777 -0.09766756 0.15743661 -0.17044824 -0.19599284 0.48200858 0.036515445 -0.24782062 -0.56238496 -0.6013192 -0.58994377 -0.8394284 -0.45742482 -0.23741032 -0.07402203 -0.069032505 -0.48581514 -0.33496946 -0.74315923 -0.12811245 -0.15966472 -0.33512115 0.19980012 0.60478497 -0.15924942 0.28324416 0.34145853 -0.5032558 0.23476715 0.011236793 -0.038935583 -0.59166455 0.29637513 0.30358344 -0.14313376 -0.26408947 0.16654107 -0.2404957 -0.022091752 0.07301502 0.060575806 -0.0053638066 -0.40103316 -0.4867642 0.06475573 0.23322235 0.2457929 -0.04097887 -0.12363783 -0.103173085 -0.18631361 0.20651601 0.46664935 -0.7530837 0.060582664 0.5909427 0.35973412 -0.11182087 -0.022708066 -0.0853738 0.436764 -0.39228386 0.19201943 -0.081841126 0.22157861 -0.018387625 -0.024660686
2444 0.3174573 0.23325914 0.18187958 0.14889976 0.481888 0.23897779 -0.08646567 0.21397859 0.0909364 0.049483765 0.21239226 0.095866606 0.05988305 -0.2822157 0.5278866 -0.7327877 0.4628118 0.6240539 0.214447 0.7563443 -0.10001225 -0.046454675 0.03613075 0.18611975 -0.22857068 -0.22106777 -0.16076474 -0.20046796 -0.17565374 -0.304119 -0.35926962 0.17490372 -0.07511222 -0.26522437 0.04212669 0.32601193 -0.18527007 -0.3960269 -0.9640068 0.25450313 -0.10174529 0.057511695 -0.2295597 0.31614462 0.22367647 0.19965157 -0.19407253 -0.0108952755 0.22229837 0.018264372 0.25197867 0.041501407 0.20787631 -0.18792942 0.463913 0.34552258 0.61620796 0.12452875 -0.22223306 -0.3152236 0.15804534 0.5305748 -0.19529885 0.05390208 0.20493259 0.015237288 0.36556828 -0.08199054 -0.42585865 -0.58795726 -0.3761374 -0.48352647 -0.32729617 -0.28225207 -0.32348862 -0.5278534 0.306473 -0.46148974 -0.2096926 -0.9050951 -0.17615946 -0.3365811 0.16659634 0.15166286 0.51877135 -0.12436831 0.08680816 0.067984745 -0.52408636 0.21418974 0.11049613 -0.063565865 -0.16445832 0.5200989 0.50321615 -0.17245322 -0.07764084 0.30086452 0.10662381 -0.059080172 0.001914595 0.030908141 -0.07933 -0.5865583 -0.7168242 0.061637256 0.28591758 0.037636187 0.08156688 0.10525474 0.06023138 -0.22879812 -0.15083309 0.6922742 -0.69003344 -0.0828901 0.58693326 0.22732429 -0.22943662 -0.08755461 0.2893391 0.24618228 -0.16062513 -0.012972037 0.014402967 -0.01946284 -0.16093266 -0.029368438
1632 0.3451222 -0.03317535 0.216519 0.17437893 0.2162098 -0.01846461 -0.006353136 -0.18328507 -0.16643754 -0.1598177 0.34543878 0.13682912 0.26647153 -0.22097467 0.30660474 -0.96489435 0.83618206 0.08194277 0.46232256 0.38337523 -0.5312213 -0.062387373 0.10643276 0.6876714 -0.32212123 0.18692486 -0.7700425 -0.66823214 -0.267977 0.11929551 -0.09602311 -0.01318453 0.052596524 -0.23230681 0.32272318 0.32328916 0.32974222 -0.61430407 -0.747093 0.16880919 -0.10949874 -0.2786451 -0.2243646 -0.68645865 0.58155423 -0.1504609 -0.03377877 -0.31265774 0.1045844 0.0036879668 0.50238913 0.3623164 0.12929086 0.065137334 0.2985775 0.6535563 0.24181148 0.43170622 -0.8431745 -0.50145173 0.04930895 0.50535643 0.07435897 0.007461579 -0.32215798 -0.06739517 0.32985994 0.2956972 -0.050290782 -0.5437404 -0.5525179 -0.5601432 -0.81727636 -0.37405753 -0.24877708 -0.09417632 -0.13052593 -0.26302525 -0.10172508 -0.5995224 0.034917593 -0.030824779 -0.42055655 0.22598374 0.6896903 -0.12882546 0.36006692 0.4601441 -0.4872492 0.21673381 -0.09531579 -0.2422824 -0.7368131 0.1260914 0.55539286 -0.035970874 -0.36606818 0.09753764 -0.4659557 0.22912183 -0.24205376 0.05655617 -0.109727874 -0.3941292 -0.28652322 0.23245743 0.009009128 0.031633124 -0.07766598 -0.28246188 -0.16310069 -0.23987608 0.5156001 0.44221604 -0.6795665 0.087994486 0.6688144 0.217734 0.07291344 -0.037745956 -0.26472905 0.48077595 -0.23385082 0.46030632 -0.01912014 0.07429112 -0.08534268 0.12901224
970 0.035295237 -0.012730243 -0.041392766 0.06794243 0.34821135 -0.17670286 -0.12218178 0.14451675 -0.15431802 -0.26344705 0.43080735 -0.29574126 0.33337197 -0.019947883 0.40686262 -0.5758093 0.7182726 -0.06502493 0.37383056 0.14363563 -0.2931099 0.04574831 0.29503798 0.3718746 -0.19264404 -0.11082736 -0.4979766 -0.42918104 -0.3011327 -0.014339954 -0.31064215 0.171884 -0.006611011 0.035100386 0.2839588 0.31997716 0.19302991 -0.22927175 -0.4718209 0.44375342 -0.101998985 -0.25165084 0.119213164 -0.42783633 0.03958587 -0.0031535095 -0.11281023 -0.32629186 0.19561908 0.09904197 0.19252178 0.5481088 0.1711533 0.10298775 0.28964046 0.39710236 0.1381126 0.36728486 -0.53321934 -0.2889067 -0.06750031 0.29926878 -0.20450754 0.3224629 -0.23992212 -0.2420696 0.08915647 -0.14730348 -0.2189299 -0.18373927 -0.5888503 -0.5869683 -0.9970593 -0.12748143 -0.31956318 0.010980113 0.1331002 -0.36308998 -0.23564248 -0.637953 0.041139416 -0.17100395 -0.49064067 0.49038273 0.49101156 0.021719353 0.3926286 0.41515273 -0.14126773 0.09212911 -0.09718228 0.07172941 -0.3006176 0.002278664 0.16852924 -0.12082808 -0.17068619 0.31033435 0.06598336 -0.2224136 0.034609005 0.037822843 -0.14805745 -0.30861917 -0.5406555 0.18158367 0.051582407 0.30902335 -0.1285837 -0.16575296 -0.16183881 -0.24843314 0.15152444 0.069693 -0.32134965 0.21690567 0.35015735 0.17966998 0.28063115 -0.0579373 0.035214417 0.2768087 -0.15239115 0.45445496 -0.34509128 0.27100366 -0.09058149 0.012116695
2642 0.30940017 0.1037822 0.38541746 0.20286752 0.24121985 0.19314757 0.18272911 -0.15412627 -0.17857015 -0.09994491 0.3469203 0.03375852 0.19612224 -0.40279263 0.20033911 -0.89921635 0.77139056 0.14762191 0.5205835 0.3734741 -0.48153245 -0.10175254 0.317674 0.7467312 -0.24158016 0.27728555 -1.0614829 -0.61317605 -0.38821617 0.17782493 -0.21413781 -0.06674916 -0.04901686 -0.2198818 0.3448514 0.36996362 0.3956488 -0.70689666 -0.9331026 0.018628553 0.043904256 -0.41959372 -0.24372606 -0.7564478 0.56362313 -0.09125514 -0.025672039 -0.2992992 0.19394353 0.25520968 0.4882221 0.3902356 0.14416522 0.17002502 0.40861005 0.6164101 0.3961317 0.29991147 -0.7287948 -0.5057605 -0.00089023326 0.5475316 0.16934434 0.14750746 -0.35276875 -0.090662174 0.5523212 0.41971996 -0.107218824 -0.4723252 -0.3351963 -0.62029684 -0.87486666 -0.2970907 -0.1674313 -0.12554967 -0.11872449 -0.3775929 -0.13116786 -0.66401 -0.07784015 -0.085725494 -0.51106215 0.2177875 0.5277597 0.0030225334 0.43837827 0.5355711 -0.62804896 0.30183113 -0.123671316 -0.07030012 -0.8242284 0.111071885 0.3385876 -0.04879074 -0.44267324 0.068457715 -0.51737994 -0.06967249 -0.25125998 0.06065771 -0.3052941 -0.15628691 -0.3985258 0.07828666 -0.07871181 -0.06729934 -0.12792902 -0.24173649 -0.19815476 0.014210931 0.376727 0.55568683 -0.7677343 0.08310698 0.72788936 0.07482859 -0.09981191 -0.13788071 -0.26727176 0.45215327 -0.3567957 0.3472826 -0.014097134 0.2066614 0.010662196 0.09292864
